{"model_key": "9B", "profiles": ["edges_narrow", "late_boost_4.0", "shifted_ramp_down", "tent_steep"], "class_names": ["edges_narrow", "late_boost_4.0", "shifted_ramp_down", "tent_steep", "off"], "feature_set": "pca+scalar", "feature_names": ["pc1", "pc2", "pc3", "pc4", "pc5", "pc6", "pc7", "pc8", "pc9", "pc10", "baseline_attn_entropy_mean", "baseline_final_entropy_bits", "baseline_mean_entropy_bits", "baseline_target_prob", "baseline_top1_top2_logit_margin"], "n_pca": 10, "standardization_mean": [5.412077847144688e-16, -3.955299224178595e-16, 8.228101481567749e-17, 1.3156661637614005e-16, -4.1150883323956737e-16, 9.784488899266567e-17, -5.855648261188851e-16, 1.8510634354497937e-16, -1.9631233295241087e-16, -9.649601989732669e-17, 3.2934766355140206, 3.719439252336452, 3.8311401869158916, 0.21463551401869183, 1.3534766355140193], "standardization_std": [11.404346367090401, 3.296744794378397, 1.917119710708388, 1.5448549174804025, 1.4103942022957483, 1.3482115529404328, 1.3092302053811022, 1.1688750117480895, 1.0746015229807366, 1.0371356580403557, 0.9859443345151445, 2.26824574307605, 1.4660223407957047, 0.29816856527506946, 1.4254806262482997], "weights": [[-0.10884393990154702, -0.10350372511426717, 0.18920427300493187, 0.1173830190424496, -0.0942396270315667], [1.0448888626761388, 0.3528148653372249, 0.11540546904876242, -0.6769676199022503, -0.836141577159877], [-0.054156052191635835, -0.2645372220409618, 0.15248574270281728, 0.301871161483895, -0.13566362995411513], [0.009596063078050197, -0.006506050971798673, -0.33271540575155545, 0.29497045563326024, 0.03465493801204321], [0.16097246553677766, 0.32405274506273835, -0.13462756542181573, -0.08842185521172569, -0.2619757899659732], [-0.28391129966613315, -0.3770844013030039, 0.4704639020730001, 0.05706119707313751, 0.13347060182299852], [-0.4139382107589157, -0.11801937699276088, 0.6506222261866784, 0.11881641243349955, -0.23748105086850474], [0.3612667324795546, 0.1354777471766197, -0.32912539577281524, -0.2037465423666404, 0.03612745848328019], [-0.08079092247053021, -0.7495617482281726, 0.1263270553298415, 0.2261319563153867, 0.477893659053472], [0.06748809632945581, 0.3951819196223521, -0.40623974001698027, 0.005710073506018299, -0.06214034944084623], [0.12971349798068416, 0.06670748748971934, -0.18903203282183093, -0.09069174562747488, 0.08330279297890227], [0.1164975174238052, -0.1185026022933092, -0.093491194400347, 0.07274803134702132, 0.022748247922829694], [-0.36460612316056507, -0.01515214233171438, -0.4836075870824625, 0.27850633606141284, 0.5848595165133296], [0.5858355454291467, 0.17448191514860453, -0.4927123922519884, 0.45986327135579763, -0.7274683396815613], [0.03894997400065171, 0.06417020578421335, -0.2850568935367173, -0.4048652819721966, 0.5868019957240473]], "bias": [-0.4134024094991318, -0.7182144294302648, -0.27976258248772157, 0.23999933016339056, 1.171380091253726], "pca_components": [[-0.07732300803796852, -0.09489807401598349, -0.09746880796646679, -0.0711615482661977, -0.10371476328613903, -0.1158034087703619, -0.10941560988068982, -0.11492308808037019, -0.09333198580899094, -0.1031000233262853, -0.099658346067143, -0.1078416701998132, -0.102905652847482, -0.0730717171214412, -0.1217307072102152, -0.09169199286033115, -0.0841684672407746, -0.06740125089755666, -0.05284220406450348, -0.07618570620761997, -0.07347253315278282, -0.08589282090737309, -0.10466827368581663, -0.08742301707408809, -0.08801327780559737, -0.10404215340255386, -0.07696902500556854, -0.08403240797433245, -0.09274913401848728, -0.07822962403330058, -0.0862948200373752, -0.0796797293815346, -0.07604880224538653, -0.07379036341474801, -0.07880370645132538, -0.07890542519788117, -0.09459388265966209, -0.07641539068635174, -0.07035401183230414, -0.07975774103647634, -0.07959996652847048, -0.10663565509675348, -0.09549841973912988, -0.0796875899965544, -0.07267873780303495, -0.08744517342717292, -0.0754238359709958, -0.10628983153046073, -0.11755677526482844, -0.07758861439328164, -0.08025401473490165, -0.08690038356428673, -0.08105027741614798, -0.08489721498227847, -0.0875633097348207, -0.07273343185991976, -0.09261523445947707, -0.10499197829722577, -0.09124470555780172, -0.08105879729598824, -0.07635198841250275, -0.0818264890923813, -0.0939733245568538, -0.08141725311655831, -0.08924141315583954, -0.08539396144125311, -0.07170413720236847, -0.06646411812586467, -0.0900611962677926, -0.09435102782488484, -0.08510313885780267, -0.06935033025121982, -0.0981609033501794, -0.08792937034091688, -0.08658675441524222, -0.07849477752782506, -0.07995314317595668, -0.08025522757543133, -0.08911162167918517, -0.05387915040740814, -0.08681191262413916, -0.0993160697354997, -0.08908080711596421, -0.10458111652008269, -0.0973784379551656, -0.10335202375588447, -0.09706239350382899, -0.09933523840389577, -0.08342891327141377, -0.06729283766226872, -0.08219267069709435, -0.09038731072777478, -0.0964755868025405, -0.1062950945341597, -0.0739936094752335, -0.06872577255601273, -0.10328322261062642, -0.07097216301633916, -0.09912471522205515, -0.09785392245577453, -0.09426256121033133, -0.0967948347193793, -0.09814426364082979, -0.11577090714193027, -0.0986541275721829, -0.10970879109585673, -0.10586188940648679, -0.09473986110475983, -0.08770700041187313, -0.06890921285883127, -0.08195652539673572, -0.09259756958819208, -0.0959587516325007, -0.10534367008023358, -0.09715664992004233, -0.10571368049081536, -0.1071877236065487, -0.1013247076007096, -0.08494415897405679, -0.10706844617793863, -0.04311670009425881, -0.0010096650375113942, -0.031169122009274044, -0.08944579840537983, -0.007971828332290523, -0.07299509339256031, -0.0418500124224286, -0.08084213152828838], [0.02669143666582039, -0.08493966788479367, -0.05331548785205592, -0.03684045138167813, -0.2450562936869763, -0.12410984153712759, -0.09263248438167891, -0.16060020119366183, -0.08502794139248426, -0.18160498208324063, -0.11228070096865712, 0.005482723322366602, -0.117531896364015, -0.1078405777270549, -0.10362986492888172, -0.027640318181125428, -0.03309116421838598, 0.05904382787290599, -0.06149492707147942, 0.060589905039007894, 0.10658685272312594, 0.05603124348316144, -0.015697227303848447, 0.007401817347494978, 0.0693926438124691, -0.08745788037470995, 0.006310376408540745, -0.25500789572656485, -0.03260213789275643, -0.007731433612506632, -0.0028491659633695806, 0.049984828986382755, -0.11735922485292234, 0.00863361840890293, 0.043821780197112324, -0.0055188826659897244, 0.02390229368955293, 0.10284448587811346, 0.11730603115165646, 0.059190119028541044, 0.12135338585213946, 0.012250098276043698, 0.13663016449515003, 0.10232606561638033, 0.03847245111116598, 0.031261662199577725, 0.07227181475032189, 0.02289579409949675, -0.0003989515248674675, 0.07024274600320068, 0.0003653599209907736, 0.012675658103618297, -0.17731354993061818, -0.022609046008538882, -0.0019495150988344872, -0.008177230051490802, 0.08370955562707671, 0.01979594327073698, 0.04718217943275358, 0.03457795166193221, 0.11930566321507613, 0.15919515833770279, -0.0949497015090257, 0.09359415679255478, 0.033560426092862146, 0.04175653680862544, 0.0774233032327367, -0.047891590490963414, 0.1564393610057686, -0.07937706142762653, -0.21902762845571597, 0.05688932527388299, -0.008199168708571198, 0.005679828162234396, 0.01401672332690507, 0.02068539613016863, 0.16727968714899583, 0.03871057203249507, 0.14683359544504238, 0.096642433277643, -0.003112873861572657, 0.030117063673215195, 0.03973366231619848, 0.027973917524368265, 0.043575234332906235, 0.029677711173946113, 0.03337312361817547, 0.06834436728824797, 0.07711606042890837, 0.007916794286068951, 0.01407185675771439, 0.023386481517948008, 0.057889791349554756, 0.040364631582458205, 0.1295663531667081, 0.12312863359011461, 0.023012773474941742, 0.11713676020866333, 0.044251360021627544, 0.08264406042799151, 0.018128651665622688, 0.031523578693755494, 0.011475128419295757, 0.008217330333911957, 0.02269439364661353, 0.015880821379051172, 0.07397882172681225, 0.04055926709877108, 0.04817598801321262, 0.14906069170521832, -0.06855027830568779, 0.027567430170496218, 0.003719325670322242, 0.014496919006864206, 0.005491198386130838, 0.018925067834367256, -0.07626900333763853, -0.12258888517781952, -0.3211846008001576, -0.08534266609857097, -0.13057105413581238, -0.02207447812436277, -0.1543612361932359, -0.14339415935282454, -0.014061346846542455, -0.05140379938859181, -0.09206370830053273, -0.03426210507911867], [0.07814361683856731, 0.03862089101884105, 0.046325742876829945, 0.033829390475997104, -0.025614519530735014, 0.027106629083108957, 0.02038015540672583, 0.0031009543175530632, 0.04547184546049695, -0.011151319765815633, -0.06101438805514818, 0.08224228619623841, 0.030686815568183187, -0.212067076863838, -0.00016668073688477352, -0.22514672765754717, 0.06569063052227356, 0.05665614659080262, 0.03976572851041987, 0.05482748595085939, 0.04751674946274602, -0.10472169810723257, 0.03435853112175581, -0.04695614655610015, 0.07982127589131865, 0.044994168968370656, -0.07908195239100513, -0.06794960423670825, 0.08293714038817954, 0.10907333984881652, 0.13474218128429855, 0.13283130056610112, -0.04628028737296336, 0.10827154093759733, 0.0696875075280623, 0.046215234402442976, 0.08335508910261785, 0.10699781415153112, 0.11926651081207462, 0.07251574540929298, -0.01798422283784969, 0.07467743872272949, 0.031626439160308314, 0.082218907664606, 0.05487231547940634, 0.05056928693154365, 0.03206900458101545, 0.06005245513863336, 0.12332026821581377, 0.13868286976302502, 0.07711578980441397, 0.08353702500233243, -0.025892426912130683, 0.05998808668482377, 0.08279177092106202, 0.06170533083730917, 0.10940412528267103, 0.11627732532446448, 0.10857723248707746, 0.10216249078250747, 0.024656573114682955, -0.1610332267571625, -0.03243194285458596, -0.028831650068540594, 0.08232298284675421, 0.10453157841282215, 0.014473738410314714, -0.013278494070403317, 0.06487417117053224, -0.023635412614371687, -0.0688067464947839, -0.12694565108426994, 0.06954960428916777, 0.04398298816361147, 0.08160584304551076, -0.03721871412934683, -0.24018511902556278, 0.04423788716058182, -0.04041122610169807, -0.21161888850658603, -0.06632159584145751, 0.042143825168381735, 0.028972397192765134, 0.02857521110836812, -0.027613987124532318, -0.018630651868707868, -0.03255994834599766, -0.02704688961127614, 0.10335760213848119, -0.08382400743951537, 0.04096494417338195, 0.033609683783714345, -0.04364057235487468, -0.04072897315667531, -0.17158355112669244, -0.1448623055979252, -0.053061505679382684, -0.2685061774984895, -0.04851661943974954, -0.06483329512806708, -0.08482940588161363, -0.09868065020717887, -0.06423807048376631, 0.03736760627340479, -0.11472899985238137, 0.011301200718106672, -0.05722456782612525, -0.07225713241680543, -0.07424716472641985, -0.2806604764210747, -0.010302550617786056, -0.084968183372181, -0.10493024753721665, -0.044057427508776136, -0.10636642316696855, -0.06720212596455957, -0.018795329661032405, -0.017473424238656107, -0.13762148129746302, 0.017692716233930556, -0.1243510404181698, -0.030322616665411747, -0.04515262374012956, 0.0033127258663085937, -0.0557665453779567, 0.1080021306378324, 0.07034833943497798, -0.020514649217690847], [-0.06560679700056028, -0.011253508014663273, -0.021816531515978788, -0.07408554144582483, 0.029620497569978088, 0.00044103663276667815, -0.04032136097758443, -0.0032693479937788705, 0.020154259489488735, 0.029073035093470076, 0.06901753818805464, -0.0518175951250191, 0.014278339585227518, 0.04859706171632729, -0.03851439648079221, 0.0005693213696964566, -0.01364265453458072, -0.1018895447711554, 0.021468469146546848, 0.020287537867475752, -0.16146833875822686, -0.16048945018733812, -0.13523266296629305, -0.06500281326174301, 0.0313925880795352, -0.014916302171109386, 0.06262277141856985, 0.0459821027384238, 0.0021862556281461126, 0.027817099455448666, 0.01367160274805548, 0.036924936819013016, 0.06413277939921619, 0.06992360575253584, 0.022272456568210697, -0.033633172322689885, 0.013634644905305478, 0.08144805493494879, 0.05232159995617534, 0.07862493633160006, -0.06744975018419348, -0.05367046172528885, -0.1568035279332297, -0.10348424345773317, 0.05124222791712523, -0.0422766847173403, 0.051136005969469864, 0.0325708995371464, -0.002481818225855216, 0.06038951364574208, 0.064866764103512, 0.04445203462141065, 0.033828771524544325, -0.013386229629037221, 0.02348099528680713, -0.018759112172463555, -0.0012223542827642852, 0.013810452279526963, -0.009433030833700963, 0.08782958443855066, -0.0037890988024919543, -0.025992895737632516, -0.017901393665195726, 0.02124908741582396, 0.17217696658390574, 0.10527089719317785, 0.20967718603591592, 0.13630659867544595, -0.055396198317388935, -0.02962305175057255, 0.04104139822138461, -0.009574501539088096, 0.08405507375952946, 0.08496123847468093, 0.24745901240920504, 0.2268764696563373, 0.1544938097685046, 0.17043102211969774, 0.19287797843565985, 0.3424297406027908, 0.19765477826124092, 0.018475171465200238, 0.10957628723322281, -0.03270119935987073, -0.03129898029151912, -0.061429523834945696, -0.017928929655887875, -0.05313315604628578, 0.07132046479834044, 0.15317719148729975, 0.01900614806989122, 0.0346922717646582, 0.052786531647370724, -0.08851405922966961, 0.051291293773462136, 0.06302265112042675, -0.11678963272155, 0.04561313211014218, -0.0439090079083221, -0.06540001610708392, -0.10210222335882321, -0.10396155720057171, -0.12582082179603313, -0.16148446027988753, -0.11315649264676661, -0.1865990649223252, -0.113008303934803, -0.11113294360012638, -0.14032018244834038, 0.047280485350423035, -0.07569911430492167, -0.1144047459411159, -0.044322626906389315, -0.06780381861269923, -0.055215747626537595, -0.051391203050216154, 0.026391713863025638, 0.015354318071650951, 0.07459972687528989, -0.02690356120501952, -0.07291665936846217, 0.011508323362733754, 0.021040879982919817, -0.04264404633397764, 0.006312065361696162, -0.001657955186911136, 0.050004008494395305, -0.030288481780564046], [0.03944808557809291, -0.018949962491707543, 0.03140621067447473, 0.1129292062338529, -0.013290837041670146, -0.02409175719650275, 0.008177089566042323, -0.04178327894126356, -0.018821070265503864, -0.051924720476447084, -0.08129215107375237, 0.046125724481970276, -0.01981948735676292, -0.18269898996098316, -0.0009543866772117778, -0.310932514105519, 0.019251997362523525, -0.031006054996364232, -0.043835072363192465, -0.07914508280855509, -0.09798452902690899, -0.19319746248235795, -0.04337438345531108, -0.18832211622208359, -0.04185978755558991, 0.005763297627359075, -0.11910851258893941, -0.06967577252574507, 0.023562257107747772, -0.015623005699142654, 0.0702492228447064, -0.019955700758180504, -0.06430325136025851, -0.11117020267923874, -0.07765133894679309, -0.04025033333900656, -0.02307735244221263, 0.008566456335084098, -0.0800535715479252, -0.026068384175238397, -0.22860619140322216, -0.05443138735089287, -0.2203973728905511, -0.10081266361605522, -0.09237923387386142, 0.021610316658819243, -0.1558500097236288, -0.005103394043962787, 0.023794463742326712, -0.1395072083137474, -0.09685636703095096, -0.0346711609820685, -0.03836230103407099, -0.030883249041671005, -0.04794137978581946, -0.05360914406844755, -0.04772851747832554, -0.012812381729699493, -0.0009370244159892679, -0.004826154718703719, -0.024029495443779688, -0.23397902236588033, -0.028385030664166477, -0.1805806348696159, 0.0666494842289102, 0.08820330410625944, 0.005619646613505212, -0.05436786680256869, 0.0533555380881917, -0.016977768475172687, 0.00022955857900541917, -0.02836689270852189, 0.03714204240129755, -0.0034966147826401605, 0.04999909305629744, 0.06871533542444856, -0.11477058672417849, 0.0263187623941601, -0.09660204914463431, 0.11740105955050649, 0.10867872480268888, 0.06713477310447785, 0.061237004207748, 0.06425508898673232, 0.12899730305454268, 0.06520706595311812, 0.09543543621774689, 0.08720252475903381, 0.15616516287669713, 0.13577766678557732, 0.13086628150717414, 0.07090956288181073, 0.005718983777308738, 0.0611395629370192, 0.14074003750120365, 0.10771667686696373, 0.11277030974528027, 0.15994138088033036, 0.1048147675515976, 0.04702043315137105, 0.08588976001782651, 0.08615364900796989, 0.08537583142863998, 0.08430188050493247, 0.12515295970063722, 0.09994655544968459, 0.10137815660158152, 0.07668701777372694, 0.10789093193269378, -0.09552293656546809, 0.04375233058051947, 0.022691540186777225, 0.08897659160156904, 0.060409604552555285, 0.11912265837989194, 0.024562654313648628, -0.03183723247599677, -0.03853399437131192, 0.007255254883258431, 0.0022744545666851467, -0.016287745949475255, -0.009714271598808964, 0.046775827318831224, 0.027306385370147866, -0.01311229332068264, 0.063796015880666, 0.011484130908230111, -0.03572352135169747], [-0.11253544408442011, 0.07320933703136237, 0.05315301448616777, -0.050617029960962595, 0.022546364258320732, 0.1306532500523685, 0.05969449594132306, 0.1371951475811487, 0.15873690023560083, 0.11733265543081386, 0.22599935734830828, 0.07396505006505644, 0.06346104732290331, -0.0964242004267458, 0.05671428675181375, 0.017724844899512968, 0.06862634853798598, -0.0771178890938679, -0.06357846630238445, -0.1104792725963371, -0.15978172224136025, -0.06712962966257409, -0.0842779288927282, 0.09189141525327658, -0.028144407555716924, 0.025157582337126904, 0.015598912336183877, -0.05483274271332873, 0.014062649532124959, 0.009238714559300691, 0.004045183353726678, -0.007564205938942643, 0.0787602325518121, -0.04879592341107818, -0.010417725478718437, -0.0983196503101469, -0.004807208817579721, -0.03378126283894731, -0.21083959000331307, 0.03546425146635597, -0.07216942154695016, 0.001115201169660837, -0.10829416421262467, -0.15255393930589933, 0.04291815860307813, -0.014723938773732102, -0.0462889905167894, 0.13396291146449943, 0.09636951715582903, -0.08677334805783375, 0.09204207769715457, -0.0540692800241222, -0.08250987995695312, -0.1215158736954447, 0.05993095523402174, -0.023024572900427445, 0.02092400983892579, 0.08963046084658659, 0.03438609108093248, -0.030931116657629952, -0.10674352367872901, 0.05795070362096466, -0.07665092955843202, 0.022459978211966512, 0.04146631645334489, -0.007321977490208435, -0.06552019630355821, -0.15980466379878322, -0.06125665416866183, -0.05087095653517347, -0.08327424897042664, -0.10881491589297533, -0.009374366763105624, -0.00960092634913978, 0.11495706737257089, 0.03955444038181875, 0.11098888175280758, 0.09430645638205834, -0.034615584839371195, -0.0750530142901093, -0.06247480280869956, 0.021698777924462908, -0.02195862621958604, 0.04763646976980449, 0.026606741030794637, 0.05327341942770913, 0.00914007022787938, 0.019644339843456884, -0.14060291359315638, -0.14304300978722498, -0.11956073412818641, 0.05543579887094815, 0.0650243506414857, 0.004642395801559429, -0.042221281951124484, -0.04415142854176427, -0.0017276988175009736, -0.11617495247819191, -0.0012913083652023182, 0.025061148456204864, 0.06987222813529903, 0.04993963609196888, 0.039660628482108565, 0.08600782241299872, -0.010202899197038012, 0.008033041781862451, 0.045825159358794894, 0.07582169894762673, -0.023077610295799, 0.12967819486988238, -0.0980238579457401, 0.0016682475781956484, 0.02444273615841363, 0.041366628412224576, -0.017187486883066375, 0.07402332864049031, 0.14837093032063972, 0.02734095325336698, -0.2161374518083377, 0.05737997260735157, -0.24200585609154263, -0.060052262113600464, -0.20559381981435979, -0.07804694341015253, -0.05899551800292156, -0.15078570210860143, -0.26184836129989775, -0.07369510157152649], [-0.007348173104876521, -0.007546138510484279, -0.08059585170372177, -0.06676639687695782, -0.05834542005321419, 0.015816402460132026, -0.03863708089963682, 0.011969629181996275, 0.14123471746571986, 0.06115950630339197, 0.10061786839701642, -0.07116043655450896, 0.04134049030021758, -0.07330817699455634, -0.03871838036634956, 0.03734751374414136, -0.2719740724432569, -0.08024522135999412, -0.16098670395959613, -0.0593331146344656, -0.011838198196115686, -0.13778613774856482, -0.031406379712397126, -0.004294911029811547, -0.1256695766356376, -0.06041556445391704, 0.055417783997511176, 0.08156171287268527, -0.14505786947248614, -0.0680590386091782, -0.06173299656068262, -0.038400411754181706, -0.141758190472465, -0.03364939592384885, -0.055053779968852745, -0.11271857536166559, -0.07249196721159315, -0.07234230865343981, 0.10770048361495235, -0.05725498412625453, -0.0014001800529898803, -0.03164263877705434, 0.044520388488331064, 0.07912229875515003, -0.1275468010197892, -0.08243138462612522, -0.11242204925860365, -0.15058753650014825, -0.07591492220167809, 0.0304204554718959, -0.11108784961452599, -0.07020755699203322, 0.04801775159138085, -0.01480369002688432, 0.044869863232209546, 0.045765430484912654, -0.059026356169467484, -0.12310586034196312, -0.058378572346748085, -0.06261003888788853, 0.036303994939322334, 0.059464440782367185, 0.040444401001035815, 0.006574111849158965, 0.143548834782289, 0.013230958227876717, 0.037096010839961564, 0.18188513753373453, 0.20630655144329987, 0.11287402324973647, 0.120923154350868, 0.07829781570232425, 0.10991833089947226, 0.09439815797311824, 0.21446995617249284, -0.027131287745928944, -0.036464529898042594, 0.010313643173973876, 0.10505682723772725, -0.09211736961324463, -0.022082567931705176, 0.20936669802340876, 0.07853715194687039, 0.03849590281679864, 0.01105474445535353, 0.07127257802816879, 0.010380861103112525, -0.00099297979467342, 0.026626177616482526, -0.14188192849505865, -0.07997613419946152, 0.010516317015746814, 0.13713175115332557, 0.04941091986657812, -0.10207704661560685, 0.03316010518709752, 0.005333914326919499, -0.1740992647371207, -0.01771700155934333, 0.12905760851532486, 0.03855417201597961, 0.02034404723175262, 0.04001108666107569, 0.11199485375642804, -0.0035865353595803994, 0.08584524935219356, 0.053782800432622506, 0.10115500292019573, -0.03132296946012774, 0.025677606528554487, 0.11774151558545434, 0.059916678034299106, -0.13555462506162988, -0.04663718012612157, -0.1314197902765782, -0.03373175060837625, 0.06787583645026041, 0.0009764078819705978, -0.15189294246544063, 0.023032973808199735, 0.05315862519233259, -0.012482899520397182, -0.026950967677377893, 0.040558079790645706, 0.026829492834403654, 0.048935553346667326, 0.188850396624863, 0.00391964407157415], [0.10332229231782904, 0.08772562823911674, 0.04117803956962238, 0.04832311226550706, 0.10463582189894707, 0.10209761988700641, 0.08228176839030496, 0.12807088395869934, 0.1518944780145814, 0.11985687322260219, 0.014785771423746874, 0.013262094672156666, 0.06042060178190334, -0.2528625371340343, 0.06000795064881646, -0.0078006979355669664, -0.09322266592059308, 0.09388946119372513, 0.07663034785881617, 0.15789493555671336, 0.24989724183460374, 7.249396135577306e-05, 0.006182832875223207, -0.09072063290117283, -0.09825628765097835, 9.859462813056518e-05, -0.07174142969246745, 0.026419143576519637, -0.01820273909927832, 0.06047959024245915, -0.011971508540367708, -0.025463630987143316, 0.1549285779451088, 0.07424813530444363, 0.09458959986777193, 0.046977674426980115, -0.02256158463904936, -0.10941298089551116, -0.011172513157814448, -0.009916326517877532, 0.10429629218563262, -0.005478833070442718, 0.09105460329058673, 0.050718751744870866, 0.03432318192748689, -0.14124741937795554, -0.013043055556273477, -0.05789364471439109, -0.021876351581576158, 0.0030793377911127687, 0.015386185943136284, -0.05365567290958644, -0.0680951305924834, 0.0026578318032297117, -0.051148916858521416, 0.06495046590547583, -0.07192690000942985, -0.05168061048010809, -0.11324157797197264, -0.14096254213402346, -0.06616928371991415, -0.08322460152135248, -0.20777582256340643, -0.06169706416156136, 0.11693301421304211, -0.004846337950310584, 0.12230434301118562, 0.1304664785222515, -0.030170589707549617, 0.040220667285322594, -0.13145181910275908, -0.23865205393639274, -0.0680707041750032, -0.19741556983967012, 0.011212779289647423, 0.09533656512799023, 0.09750665024950304, -0.3510802834554002, 0.1347491835169809, 0.12914301961712962, 0.05011727662452919, -0.0029905129533147105, -0.11098201770137277, -0.07362162101500436, 0.01308127817113896, 0.02392984314747837, -0.04589637149815951, -0.015351378126995491, 0.034690899524670984, 0.11774690933185185, -0.12664027874579353, -0.024043438763685955, -0.11568036197418463, 0.053450969711914396, 0.010532736640401174, 0.10084345960411636, 0.0020479983425071503, 0.08999936561985636, -0.006214326583281125, 0.006244599298318064, 0.027403997119763608, 0.012568443157190535, 0.006460961409897663, 0.004106294997223789, 0.022920797202451788, 0.00441293650135282, 0.032505529551866995, 0.029881409743808023, -0.04433126341901198, -0.09301877797666563, -0.07049057953357547, 0.011191206705907073, -0.02791862475004224, -0.023624651707744183, -0.020861526230467622, -0.034906945112882524, -0.00021116798478923945, -0.0036736607933147373, -0.05760091855411053, 0.020106672108512177, 0.01086110201782453, -0.003454165130373418, -0.0875390273880641, 0.002649518746390982, 0.051880788174538686, -0.03973876938628799, -0.006604374545550965, -0.019005761919023343], [-0.0935002861785512, -0.06061631767301953, -0.016761992697700873, -0.053290829933747924, 0.06731281401350066, 0.023418774964754807, 0.04987943257590638, 0.006525931370148383, -0.13780560172844136, -0.06928863881317288, -0.14392961639823315, 0.0039079974671736295, 0.016147129207597227, 0.0995929304766976, 0.026829876371543326, 0.03407164207927209, 0.05446325556422954, 0.00274971183870959, 0.05970640273189726, -0.007135847392375161, 0.15945262507931462, 0.21597459200467709, 0.09551440912640377, 0.05175262466782679, -0.07328705404657135, 0.052341768636647544, -0.20698123429604853, -0.1016932839002574, 0.0250830054804819, -0.03791859836673823, -0.01490071748458363, -0.081637319459874, 0.10254266769117, -0.04106098420208804, -0.0018020418057404836, 0.04016030539005017, 0.011364039763389192, -0.15503892179940842, -0.028525908425867438, -0.017123741821657736, 0.0760692870212277, 0.03060186455916767, 0.07253618687606511, -0.006447323397849164, 0.03747685250165414, -0.13847175469825243, 0.0464087202885466, -0.06558894360061575, -0.03427982340442725, 0.033791669588385274, 0.009474439998011853, -0.06580560705128295, -0.09382394409241021, -0.03660533759575548, -0.141024410224197, -0.1714202570636081, -0.057613211501583425, -0.026385628349835297, -0.16789457407438968, -0.10914718101470475, -0.20360902412514542, 0.016140745516671925, -0.021774889604734157, -0.1062964234754673, 0.025350716194355628, 0.0814228535027097, 0.031952459421639094, 0.017447729036605256, -0.2160441224127629, -0.2227081654005959, -0.16306582727992566, -0.03895842110218459, 0.19269698479016306, 0.1530653396128368, 0.2608992538005561, 0.06186516232494802, -0.045755188493911726, 0.22931874212940415, 0.13344437475834323, -0.04047372145195841, 0.05307241196535642, 0.041806701839692144, 0.12901134518670057, 0.01483985742178991, -0.01201093619776541, 0.00530134712708891, 0.06248396781711935, -0.023361966368615737, 0.0163464988640956, -0.031272352230512716, 0.06306952054423022, 0.04467764930738408, 0.07831625012468077, -0.04196871601748601, -0.061811603107070734, -0.08905736614215214, 0.0352326839353938, -0.1851944914465374, -0.015159355887670969, 0.03151719583303248, 0.048920356776536215, 0.07649523437779125, 0.0825186998969723, 0.1005430682057987, 0.08224711416792505, 0.023477938100034675, 0.05664594750617533, 0.004337053557544733, 0.109811740416447, -0.051786514676319124, -0.04757518416223823, 0.012623104229258745, -0.03284134278219633, -0.0183820987627352, 0.0024502702263238096, -0.001269411540858689, -0.06783954194513962, -0.04320367471054727, 0.09794198271598598, -0.020550896086788686, -0.0692819436475467, 0.005778507148537416, 0.05421368878749457, -0.0017970548363869536, 0.004207154991934097, -0.004231812194330488, 0.08479346230171489, 0.05129214743483135], [0.1065057401183908, 0.061452563732783134, -0.03846804705862132, -0.10304700683266006, 0.02120769830008, -0.0024687686232712225, -0.0603092013754897, 0.03465324620649842, 0.06564068124870737, 0.13710588665815476, 0.14232486096003144, -0.07202166172468304, -0.01759840030349963, 0.006368106189403783, -0.0073615273135853795, 0.07015229213188307, 0.15993223794421307, 0.11727985436703586, -0.0980214984909113, 0.0578778583913766, 0.15025240406103596, 0.020507524005419768, 0.0414612381060671, 0.16703871228298006, 0.21548240622008555, -0.043027810906373816, 0.04134125609783328, 0.2225440200985963, -0.08499701896834598, -0.050202163501713866, -0.06795055401214686, 0.015673110988830664, -0.3389228864366584, -0.06132624187087214, -0.14840940574696065, -0.037382660943181344, -0.08704039403071644, 0.1159225788487348, 0.01928814036715226, -0.15512182264738172, -0.006882286422820094, -0.025666737892549266, 0.1035198166043027, -0.022654980513532055, -0.01735434921366203, 0.03469051653390361, 0.06920987875033226, -0.04613287737466369, -0.05096720228110543, 0.04059393924856722, -0.13832437230641054, 0.0364797230157826, -0.12651243450383823, -0.024948336751455108, -0.032852562512859784, 0.04791412057050626, -0.049684685789422194, -0.004079656330444264, 0.004871381882336213, 0.10263751530327885, 0.027891379560475757, -0.12468730307605365, -0.15317011884313075, 0.10201851404645743, 0.023493551972325756, -0.06653180232048866, 0.05857861889330323, -0.021623882556879137, -0.06776811703677751, -0.19619909158342633, 0.08147350131424762, -0.08209335276914928, 0.005783315355586448, 0.09657266349716565, 0.04790058975960664, -0.023008350361459567, -0.20782715957514847, 0.11350953941928116, 0.02812507651598469, 0.1645124222989401, 0.09996323094179455, -0.07772560175218937, -0.023410344537328064, 0.033757570048000715, 0.07562319364525126, -0.013575218561860895, 0.05020330018121351, 0.06690833829842685, -0.09921624836371595, 0.1077942503660657, -0.014669893884846383, -0.09682210101112901, 0.005841441624727181, -0.027447757208028493, 0.008123718157750008, -0.01452828575624064, -0.04024010255411414, -0.019381446551597303, -6.237304881740706e-05, -0.017593247546051037, 0.0702625046680267, 0.015333049409024803, 0.060061574122257474, 0.034374944813379875, 0.0752010809332073, 0.014303219409115692, 0.003948388956068261, 0.0911681180982559, -0.008281156445289027, -0.2503171133175041, -0.05933633327205334, -0.04658257384756551, 0.026644765845925008, 0.014213334814889384, 0.03998325797128053, -0.0335813687045234, 0.016077258997158863, 0.0004792758097524484, 0.001268708023686872, -0.014194156109481644, 0.039706565723039926, 0.002843474621042908, -0.029615295583523108, -0.034403153973841236, -0.026534941228883776, -0.14705947907260036, -0.13343428245239225, -0.10871743472568636]], "pca_mean": [3.4381898999214173, 3.893548369797591, 4.040823097206721, 3.432387086944045, 3.6326830830529473, 4.303455779597024, 4.048485077652976, 4.117694732407543, 3.8916002610019436, 3.9195705126379137, 3.8318855893946138, 4.1874353372048, 4.1546489084992455, 2.6009166075804524, 4.299932984102552, 2.8954572455348258, 3.6037669010808533, 3.0792867368626817, 3.0451574793485836, 3.356572164024148, 2.405375416239149, 2.640306394400998, 3.678261013677187, 3.0937143682319426, 3.6444705812312734, 4.125564532859303, 3.123404053327079, 3.1205251260338542, 3.910312915071149, 3.5871937019245648, 3.579368341637549, 3.429094630730486, 2.9695630880020487, 3.3156716452023693, 3.3849954480879774, 3.4831680981912347, 3.984244892530352, 3.233435127194797, 2.771224994226315, 3.3946462216221285, 2.979795191973169, 4.060431885719299, 2.9330310924170173, 3.0489589911755, 3.4710933632939773, 3.3523801543166702, 3.1759828595636046, 3.6238713873323993, 4.16759573087514, 3.094642454190789, 3.531592646631125, 3.6742332885198503, 3.107454326888111, 3.6085654097182727, 3.5186717602694144, 3.2716233275761115, 3.36821341742979, 3.5320121192765015, 3.4029718908751123, 3.2916592260387456, 3.121755087849136, 2.2240338810797886, 2.9205553830227005, 3.515823136646057, 3.289009751421269, 3.625870903463007, 3.175747808396259, 2.9298634477864915, 3.093796697286802, 2.6991042177462687, 2.6970520619477067, 2.66824380602235, 3.633896261732155, 3.22785388342688, 3.030324519133178, 3.537900383283045, 2.80820467235329, 3.3118604609620905, 3.1805717908524884, 2.749861063996208, 3.436065747498352, 3.4011205995194267, 3.34065299755502, 3.8105201965737567, 3.3940976499675592, 3.481654486867869, 3.368603449335722, 3.453909024178425, 3.4735950253834234, 3.0774161403424274, 3.507094166476593, 3.682096239395231, 3.3495370019540607, 3.526252957426499, 3.180385076888254, 2.980238399438769, 3.2425898281770333, 2.731016209011323, 3.605479152403145, 3.1575845645549143, 3.062876168478315, 3.0725475705115595, 3.0354209987638154, 3.3758996800841574, 3.0699105360797634, 3.412889502984341, 3.252125588560773, 3.2168683918280023, 2.9398455792498366, 2.710667443233673, 3.211834831828269, 2.861169602269324, 3.710041691209668, 3.8357231760136434, 3.629624740654063, 3.8522773759944418, 3.950426181900167, 3.704105914975995, 3.2430478306017188, 4.051288366484865, 1.8040939753300675, 0.2617858257571183, 1.3896474289977663, 3.579341780749437, 0.34590839321472655, 3.327142162746358, 2.582606809607176, 3.577135167055041]}