{"model_key": "OLMO", "profiles": ["constant_1.6", "edges_narrow_bal_0.40", "late_boost_bal_0.30", "ramp_up_bal_0.50"], "class_names": ["constant_1.6", "edges_narrow_bal_0.40", "late_boost_bal_0.30", "ramp_up_bal_0.50", "off"], "feature_set": "pca+scalar", "feature_names": ["pc1", "pc2", "pc3", "pc4", "pc5", "pc6", "pc7", "pc8", "pc9", "pc10", "baseline_attn_entropy_mean", "baseline_final_entropy_bits", "baseline_mean_entropy_bits", "baseline_target_prob", "baseline_top1_top2_logit_margin"], "n_pca": 10, "intervention_mode": "block_output", "standardization_mean": [7.205036152333726e-16, -2.3989118064797777e-16, -2.7309411222555255e-16, 5.800137109957594e-16, 5.735806430026042e-16, 2.790699914147586e-16, -3.0712711709256665e-17, 7.705414707123896e-17, -1.2326588348174635e-16, 3.265300802332119e-16, 2.5141869158878474, 4.451570093457945, 4.24501869158879, 0.25175700934579404, 1.2437102803738325], "standardization_std": [14.819273055107876, 6.1721431697136, 4.317006971297026, 2.4817508813283413, 2.3343132298755305, 2.3049942136876354, 1.8734900622105504, 1.675726052186882, 1.6581998056278278, 1.594679299013354, 0.900615906916718, 2.1274572954943944, 1.4453916293750437, 0.28348976282828836, 1.1341880747740793], "weights": [[0.1710709632221911, -0.11656899314693138, -0.0456687251288191, 0.07015208564751996, -0.07898533059396047], [-0.009707854810205054, 0.04132521061846313, -0.07735184897317302, 0.010968320598631589, 0.03476617256628337], [0.6349304398178206, -0.47695634003516113, 0.09732629109671648, 0.19358760456444274, -0.44888799544382074], [-0.024899519425908647, -0.07183160123609819, -0.15849000471101374, 0.13910502882346584, 0.11611609654955399], [0.1475643395822224, -0.31271266818211435, -0.09973264714034237, -0.06999138257844194, 0.3348723583186772], [-0.0355151337330207, 0.06028343533373897, -0.11090185037272338, 0.048122616814332504, 0.03801093195767294], [-0.28647912905701756, 0.13128483501077454, 0.17124336454109854, -0.2293903403182444, 0.21334126982338775], [-0.3659679285686135, 0.4061047186261199, -0.014273488415072137, -0.20283865698042886, 0.17697535533799522], [-0.06952786619942848, -0.039582314288064815, 0.22273443739263235, -0.2862062357028368, 0.17258197879769818], [0.012021178925229237, 0.0018940699898949672, -0.08263930405978616, 0.007670383041808366, 0.06105367210285372], [-0.21518804994090493, 0.10184122502749823, 0.09902332949038335, -0.09074126618164165, 0.10506476160466495], [0.17374454699052336, -0.1369954210900179, 0.16053685877160362, -0.12302092200333035, -0.07426506266877846], [-0.1428223713156765, -0.1769276415212276, 0.1678473521049325, -0.4443191397117031, 0.5962218004436721], [0.8492502722024214, -0.3560629640769965, 0.4085835156906505, -0.1940447842788143, -0.7077260395372625], [-0.31668239471249143, -0.03433929633763509, 0.11214838309577958, -0.19011254852545587, 0.42898585647980225]], "bias": [-0.3275593533320591, -0.21281017118029738, 0.008397688558018146, -0.16349582777060231, 0.6954676637249388], "profile_specs": {"constant_1.6": {"g_function": "constant", "g_params": {"value": 1.6}}, "edges_narrow_bal_0.40": {"g_function": "control_points", "g_vector": [1.4, 0.8, 0.8, 0.8, 0.8, 1.4]}, "late_boost_bal_0.30": {"g_function": "control_points", "g_vector": [0.7, 0.7, 0.7, 1.3, 1.3, 1.3]}, "ramp_up_bal_0.50": {"g_function": "control_points", "g_vector": [0.5, 0.7, 0.9, 1.1, 1.3, 1.5]}}, "pca_components": [[-0.08991425989784908, -0.07578818552107447, -0.08572104139491443, -0.0718823322513329, -0.08414793540388021, -0.08215541937265267, -0.06592980201114838, -0.0742269069647321, -0.08018028989629207, -0.062455445803316675, -0.0643710357693065, -0.06953026793856297, -0.08275678419420841, -0.09560286321537971, -0.05235503087523846, -0.0024460880750962776, -0.0193268585068627, -0.058740576170731765, -0.05300229590521119, -0.06635506957794722, -0.0780517316368837, -0.06585150974479488, -0.06260388482394064, -0.07739572893558203, -0.0733013479603553, -0.08449853773275673, -0.07064832756169827, -0.07088675221674555, -0.09167628679645387, -0.09152038005403378, -0.056164572965481746, -0.07164945413857192, -0.06107280669913097, -0.10534481269974189, -0.08955257270319884, -0.053534783816371175, -0.10135286038719851, -0.04820321309803314, -0.05830192216711635, -0.06055758534595205, -0.06416442748841654, -0.027254139484774828, -0.07910448221099853, -0.05686995530150181, -0.08052487627945307, -0.1012341785829119, -0.06684130347126858, -0.019576381522417283, -0.05528112175432431, -0.06156475948866688, -0.05765840685523011, -0.08773390680145546, -0.010429830051923064, -0.051128940735742714, -0.0450317209570594, -0.059246688342115335, -0.07376651142070216, -0.08417258500399347, -0.06327519492685967, -0.08507334703923553, -0.06524435201836444, -0.07516005231153254, -0.07568575067759949, -0.06815348522589772, -0.10376289361712958, -0.10060021613231039, -0.03944170694487298, -0.05028275228938527, -0.10168446604954617, -0.04630217443453022, -0.08052762305433596, -0.04655308718959883, -0.0764699685458278, -0.04902378276455697, -0.06098894314622813, -0.044851746563341295, -0.06860607125809666, -0.038185811422694116, -0.03461044859269291, -0.06278979842114686, -0.04283179685599782, -0.02001434321144848, -0.09587870299689814, -0.061913142918708836, -0.07910677656001282, -0.10152084411105573, -0.05620326401483073, -0.08233532685557338, -0.06309836048126469, -0.10130492278024741, -0.10660132313923597, -0.11346271643566262, -0.04153742124199384, -0.07566286123764018, -0.023196734150948813, -0.06249284186197772, -0.08617003137273276, -0.07051912439899119, -0.09161531379296871, -0.06302806108300794, -0.03810880078502626, -0.03919592775895871, -0.09010349153724552, -0.04620843804074286, -0.11322436581768022, -0.0956092448665131, -0.10201285772579964, -0.06196308847910263, -0.05388879917778729, -0.07046744474389911, -0.06523025701956776, -0.06347857212373895, -0.02055885982346277, -0.04011115106591442, -0.04006632970834576, -0.051855674688575555, -0.05677515521610128, -0.07585252097621815, 0.002457387485393881, -0.0572206000575275, -0.08996853980168568, -0.06080821297776304, -0.05926983723728288, -0.07431786595945082, -0.03375526466856999, -0.06147883637341034, -0.06152810998917357, -0.08097230003758207, -0.0611427452243948, -0.03751830089830676, -0.03536337954460645, -0.03038648658380043, -0.11870237366138793, -0.029340794067056156, -0.05341132463064657, -0.0657828044906822, -0.08911860526355575, -0.0677678204847128, -0.10564193930305033, -0.031162197749789664, -0.013583086681226942, -0.06858622125973786, -0.04929966111368076, -0.07893915894866396, -0.07532073042556306, -0.02999172614095645, -0.06997911911803337, -0.0513973223701955, -0.06870759752233475, -0.0563539602381296, -0.055705511433526186, -0.05938565660477543, -0.07954495923212085, -0.06220391953328822, -0.07089519538158202, -0.03351208721382674, -0.07587135969274963, -0.07396711720632033, -0.06932518633898418, -0.06856357247492238, -0.023540989034355846, -0.057437183013194865, -0.02601254003959309, -0.07497060481456866, -0.07659039210584731, -0.07617983824801383, -0.02471924648384318, -0.043786987361155744, -0.07611422630021092, -0.06788157684253432, -0.11619293835044461, -0.07135539411890762, -0.06152873300830712, -0.024266035518370623, -0.018782238102352824, -0.04854754987677067, -0.030348927196743123, -0.061531204763037556, -0.051979046103714566, -0.025395327726739348, -0.04665401155284277, -0.05360223844800417, -0.049588599983320464, -0.029292835844492646, -0.05563424551971843, -0.05940870163196594, -0.04147159051679658, -0.03645984384502076, -0.05324495748587746, -0.06809564050817017, -0.05439651561372864, -0.10185932503758509, -0.03452405913031732, -0.057694185556904864, -0.06738423870426508, -0.03462361101597758, -0.06450246532462756, -0.06205828458750966, -0.07031317092028079, -0.03167011599537251, -0.05903021803548046, -0.03613219595398006, -0.055609893366948285, -0.062445525422148075, -0.06344097368794835, -0.05067226467306149, -0.02481665892165037, -0.025913955380719642, -0.05933558412856023, -0.026921027939211396, -0.042843844474640604, -0.06322245223504204, -0.04380728305193977, -0.043647462252745545, -0.08049547233243509, -0.038885219757518116, -0.031505893958565734, -0.04882388835985823, -0.04376209994997207, -0.04796928304016827, -0.03209665962913376, -0.04867805513413588, -0.06901031662420701, -0.061958304569437024, -0.03848181007859862, -0.045849435588415886, -0.03940787174860913, -0.04104175364184958, -0.037598515125435925, -0.11159228565460962, -0.03251747575501118, -0.03744221527773711, -0.02844058704231941, -0.05744671634238116, -0.0732928504076336, -0.06032344510342261, -0.02723272966876776, -0.0641806680249362, -0.047325447785703335, -0.05871611643364259], [-0.0515082777968011, -0.059154447438995755, -0.07402259607798345, -0.020324938237656576, -0.05842952606392887, -0.04644101264243724, -0.044179548127706865, -0.0431430584855573, -0.05257971852085652, -0.05227350222423142, -0.02769552655259, -0.051226555759133846, -0.02715432598828626, -0.04701823171776894, -0.05418155864001067, -0.006611088756523875, -0.058495233008853814, -0.055996955889958684, -0.038876628956850755, -0.043926014381696035, -0.02017219636826368, -0.046671943829962, -0.04237603886887371, -0.04889407079285143, -0.03477895892052731, -0.05154841600566087, -0.023288293896328485, -0.06027422494145166, -0.053290305102289326, -0.06882690432322265, -0.02565031208578768, 0.0072056405427827755, -0.028920717991451888, -0.06987071374545933, 0.020754765510463, -0.009275178372622199, -0.06628493642524526, 0.023740492342580927, -0.001991431487239796, -0.03516009068606209, -0.04542759763785329, 0.06203738553627455, -0.04361201430955244, 0.01093491115726932, -0.035294720701736684, -0.07165888578887804, -0.00691093759142388, 0.004008568936648526, 0.030163117010666783, -0.03426733575815453, -0.018750361305099425, -0.029035289978006296, -0.0068734134583129745, -0.014399043582228547, -0.014776493333694579, -0.013713180810752894, -0.007255319370536051, -0.04496158357169822, -0.023616635647092425, -0.007951341048263031, -0.04040920554319446, -0.01282433652870568, -0.052301739468474974, -0.02678307898199478, -0.07426554955505105, -0.07152688489923802, -0.030321466135919885, 0.0893514020514375, -0.07097352476532788, -0.03656536302701534, 0.006459186370089552, 0.11110126392758396, -0.009675634226808663, -0.021985946978965384, 0.015163495323861622, -0.020149601211962166, -0.04203671153989611, 0.11544667631856764, -0.03495715555170266, 0.017358060481490988, -0.0299968559119135, -0.034415817836145585, -0.06316470367266555, -0.01298730374404396, -0.01334627234467008, -0.07175456357691731, 0.08535764164526177, 0.07547242962296909, -0.01966034978879463, -0.0700763925705269, -0.07275615745035834, -0.05482468567547188, 0.10676048014716111, -0.02082031583135868, 0.14143368243557441, -0.03718039307097546, 0.013836114785448444, -0.0408407420430014, -0.027998085750676076, 0.12838828245019862, 0.020473634140062792, -0.04727175216989233, 0.04764392776567834, -0.0369174939141456, -0.07955762534553264, -0.03187981182275814, -0.07068011667712276, 0.0031541217226745406, 0.019632970689415576, 0.021579884942194805, -0.05606198897129028, -0.029410484427846145, 0.14013724871028904, -0.030702851864213454, 0.14586543478466796, -0.05131105508649642, 0.048428716488650304, -0.02874071464692373, 0.11481378926227745, -0.038268758000807576, 0.03595293222879138, 0.030215451350857087, -0.031117904381179482, -0.04181113420954907, 0.1308059313011802, 0.03574670960534141, 0.05286180899814755, -0.015619292108076853, 0.04654381083162769, -0.033920980027438444, 0.08926208309469343, 0.144751767192043, -0.08177260179344126, 0.1467693307209111, 0.02762636985723329, -0.032705009597147124, 0.014987589265505053, -0.023578984614410846, -0.07391546207148333, 0.1386080509721982, 0.14192848025904226, -0.035512954208456946, -0.03346717747026089, 0.0033065840466300635, -0.015231717946191254, 0.12795645107806713, -0.02148792271783625, 0.0844876307606374, 0.004753259002375782, -0.05042717941086266, 0.04898411315805617, -0.010740346529543202, 0.07918950179634428, 0.048643909020847434, 0.011220897999378957, 0.09386450997224416, 0.029068108604724575, 0.02867870305042894, 0.03936517155079265, 0.05452810348457495, 0.15172782079133437, 0.01044530965948932, 0.11105321475718288, -0.025425118509582102, 0.043992802056362544, -0.010664251649465776, 0.13341997065791864, 0.08463740387933603, 0.004327462735668724, 0.02217159423159161, -0.09429606094029372, 0.046258628915921, 0.011913420634909615, 0.12232733557035361, 0.09497964240029907, 0.11034452840450311, 0.11153618500217279, 0.018600242013818165, -0.04352184577770901, 0.13509116744107397, 0.04212744776930752, 0.042438797866020804, 0.07663211167237743, 0.09314566080178996, 0.03620041446966774, 0.03192914136799097, 0.08391420081716462, 0.09886384144805949, -0.011816091677174812, 0.03331345502293288, 0.016889418226828604, -0.08175068124120385, 0.03863186278141133, 0.035502060211876456, 0.030889096662576075, 0.060743384957072176, 0.06407669764481899, 0.061229259106141916, 0.025150266883415734, 0.1247695381263579, 0.05080957301035173, 0.09219014416757339, 0.04338809064258776, 0.04186234741491797, 0.040456904337307, 0.08750206922268376, 0.0866015932922697, 0.14726980648568483, 0.04429448194454703, 0.11598043858087047, 0.10234152621602108, 0.0700397518031971, 0.12417803026402988, -0.0057720763431891335, -0.016037054098869546, 0.07089839676244664, 0.1274732017225651, 0.07601300379332239, 0.10886786182274939, 0.10084928392051386, 0.08901297754301697, 0.05832899364073491, 0.009073564934487681, 0.043156077094496925, 0.0915718127930709, 0.08678730150078942, 0.04924906617124212, 0.09885361953712551, 0.1008047412429627, -0.07244324459699378, -0.0076858920541446425, 0.11132600863030406, -0.008344135010547336, -0.0030047376870011664, 0.0676065452474296, 0.05353470167895801, 0.038637913114002616, 0.11005783291242355, 0.08989875908524107, 0.04224161946614114], [-0.15246323084080812, -0.05434684096881834, 0.017392549442779126, -0.053266742800990086, -0.061333134600185635, -0.018995927859111125, 0.019139536768050868, 0.033281269614125336, 0.011855742262559485, 0.08535070590437838, 0.04291892510045209, 0.02275305790762668, -0.06977400986583986, -0.02147920807640254, 0.11696975941758203, 0.006729026130917471, 0.12663609941142512, 0.08694332695959844, 0.040804909634442034, 0.07896447137725793, -0.2961534358218663, 0.10336113939723507, -0.11800072188747406, -0.022548243709340714, 0.04092548225566438, -0.0010695890288320263, 0.0330517172836306, 0.08397365790333572, -0.01886114117450157, -0.014714682953193024, -0.019903356340018524, -0.015201528650194472, -0.06661713295600098, -0.020383165899990986, -0.05193776016564444, -0.01631774008151854, -0.037895338467275844, 0.08164441208160815, -0.08487527935821156, -0.08684636087736725, 0.06158736891967817, 0.09198599714657886, -0.0069297101557989895, 0.023683674518676708, -0.012951229858670478, -0.038012966237829335, -0.005800464790708023, -0.019215183932645964, 0.04360071312201027, -0.030836974587455705, 0.015410650997405309, -0.056093005207781495, -0.057782730349520965, -0.0698495094252954, -0.07025019733047301, 0.033487015788160095, 0.04453167145101421, 0.0031433679218287364, -0.04107334989402935, -0.0872503211524106, -0.018411940641394987, -0.07161094559724922, -0.09579894468235386, -0.02153807862269159, -0.03446585814301366, -0.03643248424639637, -0.03260198026747677, -0.03527534643051026, -0.04255787629299559, 0.011915450112785601, -0.04733340432075618, -0.020586969649017343, -0.003184559378942492, -0.09912789882530584, -0.042830555312317435, -0.04885255151174374, -0.033572404496006625, -0.0007402385850782915, 0.04765339418207473, 0.014685496600391002, -0.07604584093521907, 0.05990844054207588, -0.02214394987668417, 0.005621550198265828, -0.09512683257814944, -0.037586867416380565, -0.07626298465594325, -0.04674174971492778, -0.06528575031677485, -0.04833886840845804, -0.03188564428819881, -0.05732361441813563, -0.0704131038437264, 0.03830207726441021, -0.03681448117683479, -0.0007112689741718412, -0.06260555026516908, 0.028005243820438133, -0.11273767040838593, -0.05605289739905407, 0.037431521898504454, 0.05541888719934894, -0.04218469006507657, 0.08955219189570428, -0.004662948091256098, 0.00927558642241837, -0.02207964205048156, 0.01845822415963261, -0.08215163307988115, 0.03075256675716492, 0.06044628213293539, -0.13736671068542397, 0.006767060517646489, -0.005124937603893691, -0.042831066225329964, 0.09916379952835361, -0.14171140762990234, 0.018564707349599557, 0.0004747284782806744, -0.0004265998847096556, -0.042835859303158696, 0.078218960417401, 0.07171609396275833, 0.06437021989856807, -0.020964550611428857, 0.00413424778982286, -0.13117233756482824, 0.0877612008167137, -0.061965456774512366, 0.05671367334791089, 0.0006638378649035898, -0.008617341391266504, -0.024237499187424953, -0.014132217609056981, 0.011673102954636909, 0.042563451924683846, 0.11023217653191775, 0.10077994659062975, -0.03508087400066523, -0.005238077623484276, 0.035541848603956476, 0.058605538612635136, 0.03784426786495774, 0.1177510433412289, 0.09857764292843471, -0.0029364749655143327, -0.003448445383326045, -0.052921652159649904, 0.1075687206516751, 0.051987593556326796, -0.024139222966345963, 0.13444163740282897, -0.0008260035839667907, -0.03744825182376568, 0.025550649903756727, 0.045122376640619015, 0.07288137167530742, 0.07448747231907607, 0.09409494570885497, 0.04841219290257633, -0.005971792640784675, 0.018800428257153924, -0.007469743751156832, 0.09012123581082526, 0.040332658783194884, 0.08552339868501294, -0.003035121958235193, -0.052712683264498864, 0.07070195475252837, 0.12926350540216405, -0.015074011216491183, 0.10087980110707574, 0.048718565695781056, 0.028477107772881958, 0.08389556875591062, -0.017317517907893556, 0.03880026353905966, 0.1273991888439735, 0.10155152828363538, -0.011833926137103882, -0.01918029465576327, 0.08851062416763579, -0.03889069782922802, -0.016736970453510372, 0.09730812220466119, 0.08421479849603734, 0.08107212606288268, 0.05437705264240505, -0.01135678216486535, 0.12677082925602698, 0.049462124474027876, 0.01175870363880194, 0.023995982883285263, 0.08431004971841988, 0.0933037900175438, 0.11005395931638479, -0.008036096915147402, -0.056250423717776665, 0.11187306837836708, 0.030287464902585694, 0.04762246227723879, -0.0315129546720626, 0.16099752298770093, -0.008520695217791594, 0.07352477982095938, -0.05949060568702799, 0.042122242180164006, -0.002842408504284613, 0.08418984855803625, 0.01105935402197198, -0.046002247433710175, 0.03879731742546601, -0.06498540762999344, 0.005537798642628789, -0.03813749459300507, -0.011541302874832174, -0.016335045660125877, -0.03163684213037264, -0.05071948719954974, -0.044071716819631644, -0.005803496675211912, -0.010114379573789425, 0.082310839724772, -0.03671625007677998, 0.01572825417394035, 0.06261757214487679, -0.014245917059727572, -0.042114260334740895, -0.0066083973641422895, -0.03213915831401408, -0.08108863537311438, -0.009444815022589386, -0.007055712713057669, -0.24333294501020922, -0.029778190453282047, 0.08044614160307945, -0.018945094196144416, -0.0733105009409488, -0.017923899581106097, -0.008466126767091662], [0.01584089977638294, 0.007018389079925309, -0.024100029368816386, -0.1106917248364451, -0.041461227483715654, -0.011989439050478862, 0.07025056878836416, -0.15147290286629828, -0.04326686882219477, 0.04199050143373323, 0.05422154614812548, 0.044927847789427044, -0.06929282892642011, -0.035990362632539484, 0.021616355400318622, -0.05855323288297799, -0.020777329720224606, 0.06530786840406333, 0.07837906916845849, 0.06228826165271786, 0.013242583937859818, 0.029107428076575473, -0.03902161266405872, -0.036900555808610645, 0.10719351367058717, -0.0350205983469542, 0.009647340946598863, -0.006156582818964485, -0.00044829389140239124, -0.002504345933958802, 0.03247308392034829, 0.015604466215893288, -0.0030652698455755295, -0.03394582790621534, 0.06617624515207007, 0.02634204219828122, -0.050507596467630624, 0.12051488891794206, 0.05235271752040696, 0.0907846115252416, 0.07365660327966563, 0.13441990458942465, 0.08277113423925954, 0.04677362729240709, 0.01514377407466923, -0.04002353941192811, 0.07813330704924862, 0.21882170070026202, 0.06650685727056574, 0.02945682537461428, 0.06605459914301597, 0.060846064617716904, -0.03009269220499955, -0.1908762342255959, -0.050163477104128086, 0.05047243779750869, -0.016939154676774783, 0.05231712088778687, 0.02662242412830642, 0.06586637630027392, 0.08005334353972542, 0.10833944933971, 0.13609516627256926, 0.12283901173384615, -0.03713481400493732, -0.036213035275268986, 0.1221185110708513, 0.08408610852386364, -0.03714085960490495, 0.05355617026695805, 0.05522229479086335, 0.07197303420034018, 0.08061782401488814, 0.04823004345380365, 0.08700140427593445, 0.13760652969918563, 0.06095613731008342, 0.08473067509762744, 0.09515424321113895, 0.10310809948650891, 0.11817186248495652, 0.09325178392632741, -0.03284321411582302, 0.028291802258843007, 0.1056681023470505, -0.039474062499892805, 0.12561466904934007, 0.0039716516946372, -0.03243434342616709, -0.05301030251614469, -0.010344259345960347, -0.05353345000856971, -0.0015930227277039524, 0.04795877224103569, 0.06767202177526106, 0.020766460685614174, 0.09933077578381262, 0.12277106849416357, 0.06780340388729819, 0.009619989576075622, 0.059835428513939776, 0.05650075457451534, 0.021343881932857467, 0.15240296793578903, -0.024719119670998425, 0.030731029681066214, -0.03969595982547037, 0.074876187642506, -0.03507894279289387, 0.03575470535375423, 0.05017187764882587, 0.04298879966494251, 0.09357562737993456, 0.09544072315556061, 0.041481579532510686, 0.07302004968407594, 0.012310432065909822, 0.023975807366253838, 0.10222961318135058, 0.03930298747810383, -0.06976191222456585, -0.05366811317448535, 0.027883003787932202, -0.03988687932996322, 0.022643567166823426, -0.008508631662419136, -0.042991372967960496, 0.03356843638852004, -0.05676666679491858, 0.026731439909285584, -0.020397015953348856, 0.05592639125809249, 0.019987527226950807, 0.05650199404484602, -0.0450391957938254, -0.03322135034958493, -0.0246824758957975, 0.025086337579070046, -0.03130239218052314, 0.0610498120173474, 0.08174266161604053, -0.01849284788578346, 0.0045497119694369835, -0.057711947574709904, 0.008025669804053285, 0.053465048811743715, -0.041265886358055705, -0.04723364314051635, 0.009800208086445692, -0.002257627595844955, -0.06947101223927458, -0.046902820731377325, 0.011768942280020447, -0.061751810390255096, -0.12066718993098391, 0.04503696332946538, -0.08501912733376298, -0.07881035891217207, -0.12278159048243129, -0.15821914909975496, 0.06037824633436518, -0.05224696382828415, 0.037942603833790396, -0.04593137988583939, -0.10851601079036594, -0.014156727746952934, 0.015188309262993888, -0.004279552670758859, -0.026368822085130087, -0.06563997194638145, 0.007169132055625402, -0.13631512018024344, -0.0191469743519564, 0.03346225564474424, 0.015713031680257193, 0.0021193054516393025, 0.0886677701053406, -0.09518875077092394, 0.02164051534561112, 0.0473166702245497, -0.1334123379929057, -0.07556995474969318, -0.05426289443884951, 0.005485402855140867, -0.0022648689476807335, 0.009765702553588981, 0.12192209134595866, -0.023202310488608803, -0.11638951358027315, 0.001653681166659481, -0.00477575893162613, 0.025549652464284724, -0.021446506022079235, -0.007415479037606155, -0.017017311916953874, 0.05732660033915859, -0.09088229232484822, -0.022557188447774105, -0.011581735373339359, 0.022804969302451288, -0.057092041475175666, -0.01795402587500102, -0.06875312740220618, -0.022128677327906517, -0.018942420062492416, -0.010051606009226426, 0.007190102358701686, 0.04305304254215817, 0.03288662644600619, 0.03193338030989135, -0.054161016764651404, -0.06088909624398059, -0.03015412535716533, -0.0037973824199276627, -0.10510986057141795, -0.10406284649753154, 0.009517455072287078, -0.08646173661037701, -0.0431548810981733, -0.031507435209162125, -0.061280691062253034, -0.030447025175537042, -0.05212620797406194, -0.05982363248083488, -0.014701625960143256, 0.02294760545654782, -0.05437120846212851, -0.02883198374407402, -0.02180640654406527, 0.0035467123805199238, -0.07066652638509498, 0.010117624118511302, -0.06425300438060665, -0.07722612356523922, -0.06392328678422765, -0.06405652773798794, 0.0011789020471990115, -0.13266308763951262, -0.0682537622707582, 0.002346046317483593], [-0.04991022946471572, -0.034502539386913805, 0.06834024195982444, 0.0693189025815831, 0.06630100685257898, 0.10116797023136104, 0.023488539207007608, 0.23692773771261064, 0.02888527782404715, 0.06370144713774753, 0.027705090515440567, 0.09223198326209714, 0.06455263071637421, 0.05183568738367222, 0.030338642754462155, 0.08726279221706694, 0.06992100338571589, 0.1107745432058912, 0.029005766201727966, 0.12483688943553496, -0.06246010839862678, 0.12694898675908348, -0.07179049691127846, -0.03463799066593731, 0.012476706602871217, 0.02355919553718119, 0.1006835147840109, 0.09908933580405287, 0.04847002750011753, -0.023881294624497482, -0.05354086833848042, 0.1158225373261446, 0.052388828980422596, 0.023897812253329077, 0.1373175467457633, 0.18224536464840874, 0.0013937389627284255, 0.11728011971610396, 0.10018907378570693, -0.042813047036010195, 0.03391086927715618, 0.08833293541754583, 0.05911552406076087, 0.13359423901546788, 0.08089014699397364, -0.026324728356115892, 0.08869030274355251, 0.029308593011210405, 0.09643242187758044, 0.03622201265414496, -0.003019352116604553, -0.028159789022783002, 0.0769263293212136, 0.16427605860192798, -0.01138524618360914, -0.03304143796342755, 0.1983487095685, 0.05235181475310221, 0.06507050136098529, 0.10319570111709873, -0.007888065547088081, -0.02079618479446486, -0.02074265249003988, -0.05092976962026961, -0.0006613884047898345, -0.023986799059443436, 0.05459347570130038, -0.010515372798544005, -0.027890066904463724, 0.0470261891070214, -0.059038153044534886, -0.014222841554812252, -0.011968221289254042, -0.02354690423545386, -0.003103283446097145, 0.007376676452282712, -0.0043666890239767095, -0.07663442451309865, -0.021739501365431797, -0.04484025669066254, 0.0518020472502801, 0.004490366138383796, 0.0021524295637860794, 0.009460018971718817, -0.048474197828203766, -0.022279016706730548, -0.10187296419578314, 0.03575488037832018, 0.03387072995794119, -0.011798085986233903, -0.015560838659571212, -0.08699614821562705, 0.03892718674107011, -0.06458302554726668, -0.04365517841976063, -0.023642627060566763, -0.10991875670832951, -0.047045943411000345, -0.02547794991390153, -0.011938609607776264, -0.08074242421447042, 0.011621577016039233, 0.0214225661084173, 0.0001809281303111836, -0.01572112497984964, -0.07982725460266546, -0.0044754684066657035, -0.024070881083214483, 0.012544221010191297, -0.006916554989345059, -0.0009067710721807216, -0.04222452857643197, 0.015549007340180178, -0.011777684042824007, 0.024245043236227757, -0.04979333344498374, -0.007109162503444267, -0.09415220217299705, 0.04928331097646184, 0.025444566274693936, -0.04455542375905554, -0.12239517982857315, -0.07405364099978085, -0.04677241463193352, -0.019933370009531867, -0.012248956195485983, -0.10420778819221348, 0.022217357767042274, -0.08137243695804305, -0.02521069073396701, -0.09730496330884272, -0.008928792991207421, -0.021516584333748534, -0.026628082420963123, -0.00927333123913798, -0.08419821390354136, -0.052442859827933334, -0.10621080950551268, -0.025519568086175257, -0.017501856989661366, -0.005451384940785948, -0.014416136853370124, -0.041081177791878816, -0.13868105171385653, -0.1025345902883791, -0.022609333558919035, -0.022467964167466062, 0.02680669761443018, -0.10023074401349771, -0.06519096118689306, -0.05073454507090712, 0.0007511512611592788, -0.21839520278261265, -0.15757645289854222, -0.05415434889069521, 0.07331230701054385, -0.10578249031398607, 0.03126439736032241, -0.016494636320932364, -0.05148264372985263, -0.007638460659548298, -0.08666112164106207, -0.0011934326303563113, -0.06878375660555053, -0.08212077431591572, -0.06118455417557425, 0.0007202270283034431, -0.02670119554077235, 0.002903670328763902, 0.02901716357405366, -0.02112608032837493, -0.09982671702407682, 0.015841039151526657, 0.01497506120246802, 0.01964950157017949, -0.08773190687914098, -0.00012301156635543796, -0.09788839023844631, -0.008772752869379449, -0.008867023656228507, 0.037770597710303555, 0.056435984787286717, -0.010445428817242853, -0.01877397422779526, 0.04085325506223947, -0.022324189507861438, 0.03456656636145932, -0.008600642175268972, 0.007091268093528509, -0.0014451404908696944, 0.006172387054898508, -0.059349153272177414, -0.004383776857920104, -0.03576297428128145, -0.045771988253732826, 0.07489749886944641, 0.04149583500354845, 0.014449986509656123, -0.021038090596297916, -0.0007957688839657741, -0.03903290580173888, 0.018272884246343414, 0.013917726844048817, 0.10746520072118333, -0.05252435860194374, -0.10464985769247082, 0.03884141565556296, 0.0011119083837375825, -0.010002251302547404, 0.00789157081647606, 0.07203185430721537, -0.040853445972910074, 0.10261327926389344, 0.04994963563359402, 0.07756132378712696, 0.06507302584737613, 0.05032007213459847, 0.03797338293717566, 0.10754620039463535, 0.00017284009024647601, 0.09867391998903985, 0.054570475387971724, -0.008106642900480738, 0.0509200069816274, 0.058993729524556164, 0.13869527279289753, 0.09734089379548047, 0.10070442464611126, 0.055201402665958264, -0.02778014697412567, 0.06708292976158889, 0.014768507698045209, 0.015664871954734726, -0.04580385951983831, 0.0011416928393911095, -0.05709003961995587, 0.02255015508380514, 0.06960278852031371, 0.014140261904983924, -0.02197764898408469], [0.02465614293512887, -0.0002269013426142081, 0.0522029110845981, -0.10802279579352086, 0.01455721290287662, -0.025214775488770352, 0.021678732723559968, -0.08554080177137806, -0.01838799292564247, 0.031166201379015566, -0.02506013230087739, 0.041263599397526995, -0.09306772990575496, 0.025594369527161986, -0.0512753591411442, -0.18617493736928623, -0.11444239327630248, 0.033083723801459235, 0.04787894412342155, 0.058364119198454474, -0.004689738473652428, 0.03305885335598902, -0.027397092793009958, -0.01638518702834557, -0.006656083115165106, 0.0317296197320118, -0.052676900559216894, 0.002764136063651101, 0.02820658062488854, 0.08585720402283203, -0.13183809445565037, -0.10961197161705599, -0.035203388190562665, 0.06870026464692063, -0.08091021814896213, -0.0703008053110216, 0.11125166878520949, -0.049305276841998896, -0.019837440898621505, -0.00018362426316016398, 0.0025834513462002886, -0.12331573977968499, 0.04210375587401123, -0.05683272117644258, -0.03651014247864363, 0.07538639399082636, -0.07757542700740393, -0.13502698101092103, -0.10614454193751807, -0.07447818516055649, -0.035461127609270185, -0.028844963990780938, -0.06704893599877164, -0.22161741996149434, -0.22749244735111865, -0.08635999218926527, -0.09885569588757154, 0.00026101711196029607, -0.013255870707333644, 0.011562317320467084, 0.048912035828021304, -0.028553022406598978, 0.007766527852255554, -0.029223783674329464, 0.08498345033231373, 0.07560435540295096, -0.044894778896776406, 0.01731551282341329, 0.07988840755578581, 0.03486036721765544, -0.1546558096637005, -0.018562501668222178, -0.11911748115578896, -0.11172441525422758, -0.08515907691974066, -0.043969922673946504, -0.08622573198461192, -0.05621562075142991, -0.08038928805000492, 0.0185507199602891, -0.09030271829196507, 0.02118871057747206, 0.10283041407738087, -0.05203547971635442, 0.053848615477629695, 0.0748775894269613, -0.05901123814902766, 0.029175460043425246, 0.10678036896340738, 0.07593287616090554, 0.05536122563704175, 0.07247313246151729, 0.04025050925896441, 0.09730082555267014, -0.024346803863599564, 0.001501552344938758, 0.030806502197044675, 0.04243210603342236, 0.03022396644050212, 0.05521415392556528, -0.0949178863113504, -0.04187292113938313, 0.07897188120904139, -0.024788808548648768, 0.04247212871733735, 0.07205100216274865, 0.08999559237046241, 0.04243450922668396, -0.10537749781373859, -0.028846830365124698, 0.003901127202443149, -0.09212086367508292, 0.023577857965439757, 0.025760257503935517, 0.021295176672726044, 0.03326175317899329, -0.12795183714775915, 0.03917061908062443, 0.015095839481648022, 0.035364563087847176, 0.07257898136479735, -0.14376104644064497, -0.020666423118855717, 0.0010709376801005697, 0.00032750823247441115, -0.09895479055445217, -0.10483692546139665, 0.05048057302115568, -0.16778491181278773, -0.0757867945074505, -0.026278092396025677, 0.027175416517060434, 0.04370363766953109, 0.013003394887170219, -0.07895135507394761, 0.0267887495046399, -0.04702759108193802, -0.03267174919929732, 0.07868934987807127, 0.02910798504764688, 0.029727245748608133, 0.08344951222769617, 0.020320851948940653, -0.03588182400431539, -0.0423752907407799, 0.008188784567780239, -0.08487728006859209, 0.043183481043001785, 0.005030239332231726, 0.02213010290992915, -0.13978254837986348, -0.08724027195656787, 0.05538549272032634, -0.0630698313557266, -0.008515291631691246, -0.0660596865761122, -0.02188712369931041, -0.02393294516069506, -0.06141840355085125, -0.051277441986504246, 0.019292146957180966, -0.16846252463797878, 0.024703308355459055, 0.00968562313979853, -0.05667636661316365, -0.009414685236210345, -0.01204249499709749, -0.058582787338069334, -0.012390291674985527, -0.06737625083114228, 0.04087154208941783, -0.042785830671711315, -0.04920825356265329, -0.018241267154706024, -0.03301489845756709, -0.004573632687857397, -0.006651024877806255, -0.09773057259256625, 0.02460475108764814, 0.002635175613518943, -0.07619458155717829, 0.05323293151133103, 0.054875897136140925, 0.019557275771506042, 0.003462087427416038, 0.03311793111707862, 0.06328368936316281, -0.0054678532986038786, -0.042143872613319144, 0.024329555690738615, 0.08477220594871317, 0.027140623310652267, -0.016276960575671177, 0.012605219807739257, 0.038267861499057705, 0.03332442776283029, 0.047454281745829434, 0.0732503076934805, 0.032617022300273475, -0.024382406920303277, 0.00317010673405531, 0.0369141348920134, 0.031095795973049255, 0.011605229774312959, -0.00921464250013598, 0.026335747542881493, -0.02322711856959395, 0.024698121758717825, 0.047971111807183685, -0.015560949082914376, 0.057343915564859814, -0.01400848793979526, 0.06735961135681541, 0.014856676698984442, 0.0988960726745191, 0.07444675604784257, 0.03719565176697372, 0.02876594450929763, 0.07166327125691457, 0.07780552539767624, 0.08078244839616709, 0.05288801193866909, -0.0397674324989621, 0.04166988108998956, 0.04615459659259373, 0.09018485773601258, 0.05604231081701711, 0.0719636613495301, 0.048139474195830256, 0.03775638817432536, -0.06364705233537646, 0.032386101907696016, -0.061169413948714835, -0.06393068971768925, 0.06449037531921929, -0.03239399385296935, 0.04913956563137294, 0.05810387591108483, 0.01974368345721663, 0.059680954869241166], [-0.17660918222769792, -0.1793027214037881, 0.05802227147341851, 0.09266049983942187, 0.039164354903924004, 0.08177691846495683, 0.008484103940280707, -0.028233913017516238, -0.06273828510550895, -0.00784835895323277, 0.002789074921792936, 0.0029776273923075025, 0.07114498062775368, 0.08922278384454911, -0.13070697342886528, -0.024815894611724117, 0.04019796886287398, 0.00014764918593624358, 0.11015340847144202, 0.03174315961796831, -0.06917424579333373, 0.035991510181512754, -0.07170323071812149, -0.09402217796140794, -0.031334867811303825, -0.007210279288826223, 0.0851841660608847, -0.018375978265623958, 0.01834179452837108, -0.06418299715875017, -0.06401610380401637, 0.12833102333809468, 0.06827525506253526, 0.013256757450793693, -0.003420847523079261, 0.08327260230654823, 0.02226933110585263, -0.028430301370989845, 0.04737440581996353, -0.10625299972030713, -0.07539396374545172, 0.02888100174421678, -0.12337996807685055, 0.051131876337317514, -0.09017689416558172, -0.043676188587763135, 0.06688765115665411, -0.227943618949307, 0.0005098660934717473, -0.05698957465639093, -0.0593505841141789, -0.06408979334395676, 0.026334168133497916, -0.041073843001594584, -0.0012311734596030174, -0.03396435870201946, 0.1313113217025636, 0.046090297390709745, 0.02010332410173269, -0.0023065689428008324, 0.03659464251419442, 0.07838546529241748, -0.05370318283336206, 0.14050746498327743, -0.005123997925742961, -0.04327798262354154, -0.028645047645168144, 0.02753311546608943, -0.043168135457610224, -0.00040827313075966824, -0.011368450318723059, 0.023277522786786884, 0.09177206563613045, -0.039861197347558254, -0.05417367398537433, 0.008211154810662022, -0.010010459487216848, 0.03545701653174984, -0.011749346524719106, 0.12883384211382784, -0.08073951951830659, 0.023978299320035312, -0.027986467137896036, -0.0447610941369711, -0.021436305942310142, -0.03824156243488116, -0.04236299923254546, -0.005724025234032458, -0.11287551098073348, 0.009568850021029411, -0.001057903099528075, 0.020285603515670186, -0.04801221070772997, 0.06518957070677837, -0.14800872764566014, -0.013346224964806846, 0.07349537879687379, 0.08776221664993061, -0.042980967590747744, -0.04073048108930843, 0.0518815793247872, 0.07955352505116302, -0.04823812289264048, 0.1322997891951751, -0.017029576831983143, -0.002444896506115034, 0.005422003591793252, 0.1598579606063865, 0.0692185601458418, 0.12259772790864877, 0.056341682984404194, -0.03851919739344563, 0.02902172728481205, 0.06641139927363503, -0.0054334149174185215, 0.11735275033877322, 0.08614985145194498, 0.0765188419845637, 0.023585589177315545, -0.013531035871780237, 0.0789311029008066, 0.09542330059460881, -0.027376037022753187, 0.033956772941804235, -0.023478532698141322, 0.0756676777283216, 0.010218393503217406, 0.05453376255233656, 0.07539000427252865, 0.02798110129052447, 0.019278783475387664, 0.017622663518289495, 0.044638403070603405, 0.0033256983437753027, 0.06812157693141681, 0.049055196842729916, -0.015357732763957285, 0.03812178486675194, -0.02797212122884518, 0.02144674604554529, 0.04928484648935853, 0.012360956687285105, 0.006790373362066303, 0.05712390785713483, -0.0030696324102116456, 0.012421111155847651, 0.1054742218472732, -0.019910940462482884, 0.05713193852267683, 0.03703740666689744, -0.07031601920847493, -0.03169064291059683, 0.13414885596822373, -0.002079491043140076, 0.04153814245277456, -0.09388253952200527, -0.0006226126278047991, -0.04412909689493684, -0.03399949619135137, 0.015351273654583341, 0.01931779039774776, -0.0552732046436248, 0.015854438305062883, -0.06676204532435016, -0.007195848267098664, -0.07418529207879322, -0.007731731983322933, -0.04731205445150518, -0.09544398225305735, -0.07442256967273582, 0.08168331778661564, 0.019862859030561068, -0.03383683103757582, -0.01359909237106781, -0.039231448077207604, 0.048560185641944656, -0.04706992635196681, 0.023954407335913783, 0.0015102518429823966, 0.01299905894069968, 0.05288940515940015, 0.032462554387623015, -0.012636177943018488, 0.028448046570952172, -0.15197278963035543, -0.09357504782764592, -0.13553144578245058, -0.007041443190401144, 0.024678848929117137, -0.09319573645306124, -0.09151500628519812, -0.0049615217796987795, 0.062291753867496774, -0.10504201080922912, -0.12384302541322598, -0.0807503234352909, -0.11392736232814618, -0.01270706131186894, -0.06857332468138849, -0.016493795075454933, -0.012103006548959136, 0.025341509329610788, -0.07999374910500552, -0.06557606389215251, -0.08860913005403269, 0.04794678133322524, -0.034075811812615917, 0.032378968104536957, -0.08031387658634963, -0.01924402279171891, 0.005273381075609245, -0.03565177619861244, 0.03827392968353952, -0.18520038649209838, 0.05768381435709842, 0.06253910590094393, 0.007438097776918899, 0.018512917620308447, 0.002302576938451932, 0.02716027307871962, 0.10126432726383479, 0.10322228636608588, -0.020452980864449764, 0.007320053388566675, 0.02793957799503645, -0.050292445536515885, 0.008484564385299478, 0.003854746377356257, 0.010258735590646618, 0.03889947232120681, -0.03887175779064316, 0.061949173864683904, -0.07365126780621806, -0.061112988503858136, 0.01604407779593851, -0.08077431476779294, 0.006175823725891672, 0.011930451139992155, -0.0024821002996536813, 0.07631752874891382], [0.004338690251671886, -0.018988561215040934, -0.0585994319311524, -0.2116379558544789, -0.0916947373138966, -0.101361551477587, -0.03590678099851867, -0.012155452008139781, 0.07010293852021841, -0.053681858698248694, -0.005311450927270166, -0.030984999146218772, -0.10668956103656912, -0.04183405283957455, 0.07129514008978874, -0.015719958678039776, -0.0824481247805263, 0.04690040234640813, -0.003352967339855628, -0.10318169757450413, -0.024870056605136526, -0.05068485654774657, 0.004003991854427236, -0.040151649368643044, -0.015538264479980118, -0.02363106077890674, -0.07853080198427069, 0.05951333946772024, -0.03872773484494484, 0.00903365657836651, 0.06924226353153, -0.015768453055116007, 0.040805910196137274, -0.01964060712060728, 0.09212211017860335, -0.060558376077957034, -0.004726841058990268, 0.0291364423392682, 0.08189719442000115, 0.11145121576623497, 0.06085467896443533, -0.029881174778083486, 0.03426962636073619, 0.008300394692598443, 0.011005130653577328, -0.00035493084064018186, 0.06653506273440922, -0.1167229192962656, -0.023123525183466633, 0.051011315592472004, 0.08142609702218212, 0.14799853111552938, -0.02044949343070467, -0.08402021915269625, -0.08114027047303024, 0.03381026208397476, -0.035987905424722584, 0.010129956353205252, 0.032451773244289044, 0.06311205801514298, -0.017952648619403728, 0.057238725662890615, -0.04480374626070059, 0.06147814142192227, -0.011324649529164947, -0.00016863499122980112, -0.1171055189301424, 0.05824394205125071, 0.004744679333569382, 0.08346855430327947, 0.07287892297064721, 0.004189024092419368, 0.05749696163029146, -0.06428882349344657, 0.146902624883493, -0.06504521481751308, -0.029104740265511235, 0.0020412316107537762, -0.08762943496886007, 0.14555525832790747, -0.09409206261123162, 0.022154140933634454, -0.05356005193425047, 0.05661346615307631, -0.04531282128346193, -0.001967145370331164, 0.03284917905875799, 0.06690422847800268, -0.08665865471695255, 0.0028535137096396515, -0.05246771671818778, -0.08904089267905467, 0.029958392310828367, -0.10132846395355988, -0.061680349450756344, -0.08160020807955136, 0.014156103578129561, 0.015762395605365118, 0.013298860742082922, 0.04067656754327629, 0.004881939900955192, -0.02898960190230761, -0.0298523197722987, 0.03647896865258163, 0.0018600671386792124, 0.035685561384381476, 0.017534088165454435, 0.14871930068502753, 0.10595962218847921, 0.16389790947000432, -0.04952122574507846, -0.08197273986611842, -0.03460585069785509, -0.0723529194125143, -0.01818561660130005, -0.014212560959724991, 0.037976172087203254, -0.047035875256359015, -0.06572273483595686, -0.07155296909257246, -0.11413260546041962, 0.10009165102384274, -0.07273091391842072, -0.05577945972902527, -0.04812199483121912, 0.17636652656946614, -0.04761814500798367, -0.021043816488951612, 0.11801857281885328, 0.002544599859676535, -0.061149373460557266, -0.03750586443403707, -0.041987824490544993, -0.04490047540284216, 0.13781686639131505, -0.027598610709328116, 0.08846455297554844, 0.0839706131076024, -0.0009877172826158913, -0.01895873750149007, -0.07057759137822667, -0.06856618942327421, 0.005842785115164141, -0.08133795019103422, -0.031956976301487326, -0.07550044519577415, 0.07717748165987515, 0.043835148541974504, 0.014903323562302824, 0.03073627320999296, -0.037114950695347856, 0.011785762167137288, -0.07777052974055272, -0.018937476681393506, -0.07238698631215316, -0.05433337514173622, 0.03800463101434972, 0.03769979989323605, -0.05067988578407479, -0.06297660346196436, -0.03898344667451611, -0.079992307008773, -0.03169055114579206, -0.13156302507525064, 0.060284742140039364, -0.02279408480190252, -0.12008497044582796, -0.010736577402367949, 0.06425744306835406, -0.028678647592189393, -0.04103716797008338, -0.025438495996412295, 0.03848441704973863, -0.0855521962897493, -0.13402987402812447, -0.01792757791413994, -0.05475496794732222, -0.06432700974536036, 0.04979870039024027, -0.05619727917010847, 0.002702555724783512, 0.04701607160620066, 0.0031862670365009928, -0.02372641818281746, 0.07748707552200561, 0.08764943097217844, 0.05754779337912061, -0.06782979181632723, 0.16883163221586917, 0.029730061437478222, -8.020029585226844e-05, -0.11311160878138594, 0.03616288497025895, 0.02748132822838662, 0.06957750182596864, -0.028661937042517776, -0.04702198913569671, 0.03841249712982036, 0.06946049299681066, -0.1134127368779257, 0.04931350644888935, -0.016063886014066168, -0.030665770023758723, 0.01827419916162277, 0.10764689682555768, -0.03691765842023958, -0.05847840938933268, -0.04841449981994795, 0.08843009311570299, -0.046846505085658595, 0.023037022831805448, 0.007495195758121146, -0.013026728715958514, 0.06780458021627896, 0.03375824748157774, 0.03373271647130785, -0.02019872145985658, -0.011946886523663994, 0.01677451938764191, -0.006342895778241708, 0.026221215790106406, 0.05338327948756857, 0.04917388499966747, 0.10835437994684821, -0.006749134415379627, 0.031218297080966455, 0.008660846091902904, 0.059205091403603076, 0.03942506942751601, -0.11109353718311775, 0.07726681747823276, -0.023885790127314004, 0.05946524674676699, 0.05309269415862267, 0.06257386808061088, -0.042258129741791176, 0.011859660661010425, 0.05551472243582361, 0.021969037921082932, 0.1388462051237014], [-0.06828309814952357, -0.03846285743534883, -0.19585396938606525, 0.038529316829892885, 0.008545015198307304, -0.07565956146358722, -0.07804615734614129, -0.07321078206082926, -0.013957464095023978, 0.00045786893677601803, -0.04781881249931874, -0.0035720605066586614, -0.03522295964704858, -0.06529121953641082, -0.041624280778180534, -0.004280804362333537, -0.02050074866357946, -0.02285553753930654, -0.07061413080856267, -0.0866744485608105, -0.02138476622788106, -0.10176941796520261, -0.01926449107620127, -0.001553071142999126, -0.027128887682545733, -0.09153219119465353, -0.08123641022326121, 0.010672543935447943, -0.11906500684018347, -0.008356962731590145, 0.012240332768455948, -0.10492574412141265, 0.13533763942737947, -0.0724933607849933, -0.12194645638114138, 0.15777507286152065, -0.07176818532396032, 0.004789250267409521, 0.2234193232921785, 0.010299815529843544, -0.0665234988940826, -0.024271292718656832, -0.009081155759313534, -0.044979224023590836, 0.04324120967047144, -0.05267169003758497, -0.010796386420068868, -0.016618425532198427, 0.029080143099728794, 0.008244251992270912, 0.04306854439336508, -0.07187866734914684, 0.005902316779256189, 0.007682883031800081, 0.04949025782797629, -0.0469918511804807, 0.033623620548454726, 0.015363703476199763, 0.02698570971394897, 0.029923080282385956, 0.04352398203164472, -0.026902371190833062, -0.005290845607269598, -0.009979823759478826, -0.07178196069084157, -0.0517312433293885, 0.0700580964294974, 0.040095541666880535, -0.05518863767667926, 0.0418750909391458, -0.09019438830080641, -0.05640669739179401, -0.07590668417749953, 0.14217992258269682, -0.0687745072136912, 0.07590514315531947, 0.009363289366244133, -0.06539032586675865, 0.16774273813744067, 0.007297886575195141, 0.11806860359314279, -0.0016375443713088573, -0.04557017056698387, -0.07694733229809199, 0.07543187033284361, -0.053447797795720516, -0.047809905875588365, 0.01078749809098149, 0.04152259063247507, -0.08931401314835297, -0.023893256807950975, 0.006861237963631655, -0.028861184792472797, 0.10888046981473729, 0.13329501354218196, 0.08858480529709203, 0.061601764772487695, 0.17970499072088642, 0.08889796705425693, 0.13362092838583903, -0.00871892142792081, 0.09159717575923565, 0.13174953330988196, -0.08465479693331272, -0.0663727554224202, -0.005480942799613002, -0.10064935509737329, -0.007195064233374407, -0.007034048555141618, 0.024965834635384324, 0.12644674237476553, 0.08692760318134521, -0.009940873215888862, 0.09335590815044638, 0.03143212254192121, 0.018321710391766853, -0.050085646835266465, 0.05260218253507454, 0.0753881994325042, 0.10976886420808722, 0.04108046000301906, -0.10803697285111918, 0.010932965068086537, 0.07971346318204238, 0.004032112802286107, -0.056797670969863163, -0.10869277698351214, 0.03851526814646035, -0.03665154904601192, 0.09742099260312316, -0.0031526168702246385, -0.02611135917533979, -0.015289698052348581, -0.03805348405898344, 0.016155419235678647, 0.07422572671609934, 0.014546858705955953, -0.015192017501885322, -0.04958583769574865, -0.023698560208582294, -0.018153256099703714, 0.09839528747301012, 0.10832474557717975, -0.05696849383817244, 0.01950581775412453, -0.005916477200356566, 0.14503766981067673, -0.04258436361337597, -0.024922033425679422, 0.07695316295333543, -0.049385927376923815, -0.023137492594652805, -0.08215997932043241, -0.0277692957126829, 0.07724156123213735, -0.016623225265738478, 0.0481123505839302, 0.08422383159218069, 0.04500127810687453, 0.059106510507070956, -0.029353718533296148, -0.03331296267502461, -0.028493817775463157, 0.02808116696157623, 0.10112468387357564, 0.008735922284248875, -0.048252353522194986, 0.005193495151710035, 0.015402058663881186, 0.06982681236017618, -0.01998353557911993, 0.00662739604466192, 0.02423463753684841, -0.007854456971043967, 0.006968797408940087, -0.056337814081842415, -0.055419853155165795, 0.008427533828337037, 0.05173880766301617, -0.012032975495747193, 0.11501430811819657, 0.1339540399821942, -0.04137335470641433, -0.039408676231492176, 0.08429669117569613, 0.05466047651809784, -0.055393439690752416, -0.017415015418742144, 0.02415098138037342, 0.0361396183679458, 0.09717610924281607, -0.07687348721984245, -0.03613692847814986, 0.06792283650852983, -0.007697621071727889, -0.07354672429675599, -0.03663891987021738, -0.06965487866067958, 0.004658747960126738, -0.09252366049127837, 0.0601174635580495, -0.03439901160672223, -0.05409337514938556, 0.021076644121422405, -0.00843908502839089, 0.016650006121056802, -0.023431648492818893, -0.031240057901436857, 0.004934199733716689, -0.08176648504742302, 0.009349753263576486, -0.016264981967102972, 0.06722249850071545, 0.06615867912770296, 0.09420107459840718, 0.01672939680119005, 0.0025533674768638886, -0.05386811462050697, 0.05531829556849549, 0.036424967711905114, 0.0010427822891895856, 0.13451132376883035, 0.00023642767147226705, 0.08431921151332787, -0.029734616405222306, -0.03768113161019608, -0.025730883473203816, -0.02881863335550839, 0.01643078471671613, 0.027543339386423678, 0.08529103699371424, -0.014565974036190452, -0.010797924293170728, 0.029976618516994975, 0.0029674570061319705, 0.02181162974608434, -0.04886731209414227, 0.02566651777202244, -0.0747319031625712, 0.07699634635621745], [0.015296489640675738, -0.020963814396105843, -0.05372777699595244, 0.08655603063233798, 0.02305996929745733, 0.029926513347369673, 0.05878145558663593, -0.10984498160430321, -0.029886826362537113, 0.01649464758139227, 0.04917044275129334, 0.039274311743976824, 0.15582768301484606, 0.03373556416950477, -0.07622414624288715, -0.14174705926218356, -0.10992289916157139, -0.01728394688705831, 0.04176443311115452, 0.011127361250835854, 0.0727396667662928, 0.03096987686064656, 0.026408775662774997, 0.08273033332074187, 0.07270642213944589, -0.004293663073544007, 0.06088865626102868, -0.044468601529302126, 0.039050219780017104, 0.009332745022830347, -0.055815271336145465, 0.14490233674728192, -0.01814100749819242, 0.013057693073015141, 0.10174967404023119, 0.08586159006879643, 0.019465545224965974, 0.0825434016783483, 0.12682491042579364, -0.017372896555108683, -0.05370510954195195, 0.10061625331536735, -0.09422927406070117, 0.06315620553791329, -0.004648091374425123, 0.003000107461363211, 0.06589152476384671, 0.017280943818132076, 0.08642221762341205, -0.04075130865756202, -0.01294842005254456, 0.01695800929588205, -0.06390332852102966, -0.0915251047595431, -0.03231687701481374, 0.04865872804058372, 0.10440945397425724, 0.003095729752636222, 0.013391699338287726, 0.07468375974941144, -0.04257146366697995, 0.02185850363397936, -0.08284478122058829, -0.0652162474388748, -0.0024429262509565366, 0.001167555128574388, -0.07600342491216858, 0.07176547011284387, 0.005172808894612989, -0.0023158516670597666, 0.01967055034812552, 0.08038232075881993, 0.019230819317188726, -0.006305156304060356, 0.013847634705183905, -0.03812091429430235, -0.11279020016350061, 0.03574877954539355, -0.10558258902951387, 0.029603782313076123, -0.10195546125298134, -0.08860706986462032, 0.007344438801298945, 0.03999214411187533, -0.037627866095569465, 0.0028027970968431647, 0.05053073544639121, 0.09191370870726247, 0.03468181254274895, -0.007629434742286693, -0.015374758574169794, 0.10742913288442364, -0.030337200649985702, 0.019340903249147737, 0.05449480220027503, -0.057440846130853866, 0.014342572854310407, -0.10435321427427242, -0.005184069755480653, 0.08249738705552442, 0.15704806508767363, -0.14710912269211346, 0.13740201363950916, -0.07318233828743222, -0.032983066553070435, -0.018798804115930365, -0.04612816983537872, -0.06243099143443328, 0.007685013978571646, 0.054253531614378875, -0.13635650396778654, -0.014448993237997672, -0.0063151235298989465, -0.08326181850933204, 0.02040758161805878, -0.13758138207118673, -0.032751121387527886, -0.0462841068597514, -0.01285115677757395, -0.05389780776004978, 0.09234753762661949, -0.021982316464758057, -0.012560383269032797, -0.06484664476743988, -0.04062673340681076, -0.0640102698866364, -0.07060285709018779, 0.05278930267682086, -0.05808204739200026, -0.1265361356311327, -0.13029032702636326, -0.018521481115465872, -0.03870885246172355, -0.0453198142002035, -0.02590378833217292, -0.010457605625895627, 0.0031576768198927504, 0.015557113720100631, -0.006808416099643622, -0.014596096991699498, -0.031553541525316676, -0.021420263905265746, -0.12086915787761476, 0.01834298556957793, 0.005329317232530764, 0.009953270954461182, -0.019187571240746822, -0.1039984167828988, -0.00042749764094919795, -0.1632818642768176, -0.08176261529383547, 0.008971823195350625, 0.23817890823361484, -0.03385725704620053, 0.0817850015950465, -0.039087620914352646, 0.051655477562851514, 0.09313934242542782, -0.0023730937008297737, -0.004366758020349091, -0.01938083732625778, 0.030358620595991617, -0.030446279049841117, 0.09650599354161017, 0.005280389163947797, 0.11872048349641737, -0.03089545880731507, -0.02576623381195282, 0.10465708454926446, 0.014390443007029194, -0.10124325219337853, 0.04318301982928652, 0.005102357495014014, -0.0049427406594383366, 0.03752996819711705, -0.039102709231654945, 0.02511705488052397, 0.04869717956055859, 0.036083737021453066, -0.014201057489907767, 0.021099963628891195, 0.04950286651572717, -0.07190125969163885, -0.0694427571710431, 0.02247602143371255, 0.0435962463248963, -0.022113044448306782, -0.03103354883386127, -0.08488263387110456, 0.01912319115407493, 0.012980066517362943, -0.13620851261951064, -0.07713415478862903, 0.03935280661311103, 0.008710176218563294, -0.01346702249047715, -0.057089050360011696, -0.06899177581697341, 0.015187864757436245, -0.03140187577198424, 0.0014335663737694857, -0.13755687379890932, -0.005894894915858935, -0.04178907462450187, -0.004134279284514434, -0.09782567917480936, -0.06345619452476317, -0.033055793313411734, 0.009722330823487101, -0.05234154569409682, -0.04109150579759087, -0.026909756978471887, -0.03713856338249549, 0.004030314972125108, 0.12891625812942029, -0.08608287004225729, -0.04674076758605378, 0.01807206025170388, -0.05995884446270568, -0.024723242017091137, -0.1287447444800875, -0.009318427793722895, -0.007414510176275307, 0.02996107643302358, -0.0038859299825423077, 0.022334678965151535, -0.17977867612773224, -0.0405890078331288, -0.04291668995911448, -0.007354032921808874, -0.005032121438798562, -0.00247227810468432, -0.08727716999920909, 0.02973294934835433, -0.020618815222805394, -0.0028386953062774565, -0.05496991722396784, 0.024032329958671283, -0.09576713996127445, 0.010337286098395945]], "pca_mean": [3.9149404858874384, 3.4179448019399823, 4.088529046283704, 2.9797668006793363, 3.8904783463227415, 3.46585930847676, 3.2308501986699683, 2.572456562821971, 3.489973587786483, 3.7941004417488506, 3.0210678220491545, 3.4625263775899033, 2.990827314179634, 3.7868535444558225, 2.906565656436381, 0.763352072227607, 1.9334417807430064, 3.1412231521071674, 3.1386362424799215, 3.701468981175779, 3.621591497247464, 3.3739847674896226, 3.1719416192201813, 3.127692992219301, 3.5573510848473164, 3.715028653718601, 3.002352510615487, 3.4755459700232354, 3.7681330930963854, 4.690063601342317, 2.3701320146149563, 2.5947809838733384, 2.9112919794064815, 4.762730138658363, 2.5726341998883497, 2.607583654045223, 4.689289900966894, 2.2614543547557893, 2.683654335001919, 2.9909404232958767, 3.1941558462715594, 1.9278383167895758, 3.123995172723292, 2.2410070917734477, 3.3763381709980074, 4.9502874358792175, 2.5034933942361413, 2.184272157950936, 2.6903133309890177, 2.961038137457081, 2.937996900899806, 3.218413752602918, 0.4828598014767267, 1.5842988334687549, 2.2078078636359946, 2.5830108120062643, 2.6442093321270197, 3.535559939112619, 2.8729358876280697, 3.220118543603153, 3.316758193256699, 3.0766032494395694, 3.5498381494918716, 3.0856070429678555, 4.82006269760221, 4.927286448099903, 2.6996699856089377, 1.629922143193223, 4.918685830864951, 2.29585184289891, 2.6649924520995016, 1.5859614907372221, 2.740816022556658, 2.6645415192870336, 1.9552957686726178, 2.6703751263182576, 3.156860311733228, 1.2955889700656804, 2.6660697563368583, 2.186644766601586, 2.7358293186211697, 1.3023526738737232, 4.6153517521987455, 2.1069820370908094, 3.180305325469681, 4.944224316271666, 1.9268659197838507, 2.409446560974433, 3.534006771138895, 4.519023995310347, 4.841966024347555, 4.204402820974867, 1.5463383575744718, 3.0065634792931726, 0.9984705425267952, 3.2942648919943336, 2.898216930895208, 3.16200570439415, 3.1414622822654583, 1.5920510020115735, 2.1466838893071514, 2.8968599278236105, 2.691925875513562, 2.746497678721898, 4.492137268157763, 3.6652130485138046, 4.549573935303733, 2.834027324101635, 1.763010612628031, 2.427612260485364, 3.521567397460202, 3.163900106643962, 1.0630362826216722, 2.950587976034557, 1.1720778821001403, 3.1096498136208437, 2.10521028386516, 3.2663696040338444, 1.059718369399241, 3.1346642871326376, 2.8135455805564593, 2.4203381930277725, 2.9753362134795323, 3.50044986107082, 0.9981245185709863, 2.2833101930932322, 2.3406869134334762, 2.9770267262323715, 2.159766098063126, 2.578100328690538, 1.552682146409126, 1.0503453684631283, 4.650083002009403, 0.9939593996382623, 1.7507680613390892, 3.2646837808539932, 3.036631550521494, 3.0324006807581285, 4.852430300957689, 1.0598382731690725, 1.0657668497169686, 3.2250055215347593, 3.095542316291934, 2.890762651823113, 3.0004635202759338, 1.1326277709539945, 3.066090626262616, 1.2070414556730016, 2.8114509179422233, 3.180647546491612, 1.6858422334923922, 2.5384659096598625, 2.110031100892175, 2.295734091318935, 2.6451569338546737, 1.5244692054272533, 2.6401270325286923, 2.5633401505022406, 2.3764412476776915, 2.1507897522544193, 0.879999104686621, 2.3850886250489225, 0.8457154489879575, 2.9054367052199686, 2.432586781708437, 2.741679593941597, 0.9939835009295668, 1.6954452848323038, 2.702807791614644, 2.4713912230925024, 4.3966428524549075, 2.4134907527017258, 2.79954894407191, 1.048849505582981, 1.165041345805278, 1.502902737705507, 1.2948857973669177, 2.4024154346888866, 2.9735306643019213, 0.9571417595268549, 1.9478088351958822, 2.2578513514842387, 1.644027655787557, 0.8302094721835908, 2.045068777763398, 2.121766835771431, 1.6377375574747675, 1.5281437130523061, 2.0217429166067844, 2.4316333376428236, 2.309434328082009, 4.269486651192942, 2.016702068318552, 2.20445477784237, 2.3419064755751706, 1.5078135026549206, 1.9029036012835034, 1.7205261159165997, 2.5080875693359106, 1.1945920058717585, 2.0374619032038708, 0.8945561691004539, 2.319042642579945, 2.0064559983768473, 2.1261078486984997, 1.5747726734623173, 1.1595895892583599, 0.9300188126112117, 2.111926323600183, 1.2176632723135647, 1.1206240547176833, 2.034614791811627, 1.1492232534425142, 2.654354646941212, 2.2407823245484972, 1.3426491777168883, 1.0073254201208703, 1.4311109391258698, 1.0801075080514093, 1.4770856164500257, 1.0641518208530156, 1.8355426879651915, 2.8169072970678317, 1.6950819649472484, 1.4403630621879249, 1.7390400557178203, 0.9036011202148244, 1.3240120577234253, 1.102110951622539, 4.519998698122793, 1.84317667115236, 1.3153271584066553, 1.7152577503166535, 2.660127490842454, 2.175397733983662, 2.0822696147121, 0.8570927624390504, 1.4151084465644905, 1.2073957582674573, 2.135529000588005]}