{"model_key": "9B", "profiles": ["constant_2.6", "constant_1.45", "plateau_bal_0.55", "bowl_bal_0.40"], "class_names": ["constant_2.6", "constant_1.45", "plateau_bal_0.55", "bowl_bal_0.40", "off"], "feature_set": "pca+scalar", "feature_names": ["pc1", "pc2", "pc3", "pc4", "pc5", "pc6", "pc7", "pc8", "pc9", "pc10", "baseline_attn_entropy_mean", "baseline_final_entropy_bits", "baseline_mean_entropy_bits", "baseline_target_prob", "baseline_top1_top2_logit_margin"], "n_pca": 10, "intervention_mode": "attention_contribution", "standardization_mean": [1.7497944941381907e-15, -3.7062772373467843e-16, 9.021859064594146e-17, 2.1934686673435335e-16, 2.0523562081388407e-16, 2.386460707138187e-16, 1.2689745412304359e-16, 3.0193915903357063e-16, 1.9921758946544864e-17, -1.0334412453520148e-16, 3.293719626168223, 3.720803738317755, 3.8311962616822424, 0.2144953271028039, 1.351906542056077], "standardization_std": [11.401686346953257, 3.2973216857935586, 1.915692863649278, 1.5431643113474593, 1.410384942685244, 1.3492257325390256, 1.3087452753910718, 1.170036775510284, 1.0730778496597293, 1.0377568873141318, 0.9857601061166326, 2.2711122288151846, 1.4661998909970821, 0.2978582073074491, 1.4295166527272383], "weights": [[-0.05746827315135849, -0.008162891985763691, 0.14675281201636314, -0.10694986075961913, 0.025828213880378707], [1.6569727689746123, -0.7387111642872363, -0.37163048872391535, -0.36118297119642284, -0.18544814476703692], [0.21668601279652597, 0.23445280551967382, -0.1702809328744347, -0.25422811637117537, -0.02662976907058977], [-0.4420877785560805, -0.21150217003761987, 0.38770513340502066, 0.2791301511632186, -0.013245335974539732], [0.48145401662915427, 0.03590539999320297, -0.48838802661176595, 0.021784135062482415, -0.05075552507307355], [-0.0499877233646527, -0.26088611960597546, 0.5797620814872476, -0.3436709980328097, 0.07478275951618951], [-0.005224130784310679, 0.04145383519749922, -0.24451681680159346, 0.1483250660403146, 0.0599620463480912], [-0.1506642341611432, 0.3379872137959148, 0.02935416087118704, -0.09552203125396648, -0.121155109251993], [0.5086667487497153, -0.14713362791525325, -0.10291076611951205, -0.04380481562298755, -0.2148175390919615], [0.1306357967509549, 0.04420108747676226, 0.1577221509893443, -0.4889052009252017, 0.15634616570814017], [0.05053234299300671, 0.005462358401549121, -0.14159565405317298, 0.10264715374117352, -0.017046201082556948], [-0.0002879006432002233, 0.507755098121653, -0.44173860210235855, -0.13161925558340112, 0.06589066020730769], [-0.03284172726165429, -0.08828451200563449, -0.00042659318731102483, -0.18465692538467976, 0.3062097578392797], [0.19397804553879439, 0.6789490186417986, -0.677141847406639, 0.8674074628465592, -1.0631926796205142], [0.038532732736364116, -0.13666328177205728, 0.07500849536647382, -0.7545902689628977, 0.7777123226321195]], "bias": [0.7782278104395272, -0.17709216782475456, -0.4842929658644367, -1.2438307811883476, 1.1269881044380143], "profile_specs": {"constant_2.6": {"g_function": "constant", "g_params": {"value": 2.6}}, "constant_1.45": {"g_function": "constant", "g_params": {"value": 1.45}}, "plateau_bal_0.55": {"g_function": "control_points", "g_vector": [0.44999999999999996, 1.275, 1.275, 1.275, 1.275, 0.44999999999999996]}, "bowl_bal_0.40": {"g_function": "control_points", "g_vector": [1.4, 1.0, 0.6, 0.6, 1.0, 1.4]}}, "pca_components": [[-0.07739016106519776, -0.09492708300855102, -0.09750221296721445, -0.07111933109220192, -0.10369252478405874, -0.1158558740413669, -0.1094321927252619, -0.11496515144530904, -0.09338599400081724, -0.10312647123269283, -0.09957023395342791, -0.10786467227847278, -0.10291908916565384, -0.07302246794967211, -0.12172245368365606, -0.09169769314386558, -0.08411225661999945, -0.06741463030342917, -0.05282423396478698, -0.07626075951531619, -0.07333123441184622, -0.08588737554582807, -0.10468215982783931, -0.08750618693928863, -0.08798328778037971, -0.10407008925095686, -0.07701981411564579, -0.08406703234648533, -0.09279312168603202, -0.07826184722109701, -0.08642653492463329, -0.07976103333245535, -0.07609984834310217, -0.07386760642218486, -0.07874261714824025, -0.07891989688281055, -0.09462557320889008, -0.07643994148397974, -0.07021692482624389, -0.07984264328291159, -0.07955519883341802, -0.10663616197192002, -0.09543785186616123, -0.07966514298635027, -0.072675240052543, -0.08734762330708154, -0.07538018011413326, -0.1063083076985273, -0.11754717770271944, -0.0776134081811018, -0.08024128690017984, -0.08689921025481362, -0.08116735616679684, -0.08489669591567403, -0.087556008217084, -0.07281768346981059, -0.09261800536249443, -0.10504199476577061, -0.09123599624250289, -0.08109983184088725, -0.07634777485565813, -0.08176732938418362, -0.09398829196063979, -0.08152719379341047, -0.08919023165543813, -0.08548304437964845, -0.07163968838165703, -0.06640534690927255, -0.09025311654441426, -0.09440607786258574, -0.0852881376172724, -0.069284486559998, -0.09826132717393317, -0.08799958120946823, -0.08656198568690567, -0.07849293895771725, -0.07996963424966372, -0.08030557687164165, -0.08907041003518364, -0.0537903366107277, -0.08668991368275462, -0.09934730268007201, -0.0890120954696648, -0.1046180386785441, -0.09730926481656402, -0.1032775554124647, -0.09696144370640297, -0.09931642902923526, -0.08349194912945779, -0.06728854797746676, -0.08211728401458343, -0.09038824835242311, -0.09645227713108319, -0.10620537663281586, -0.07396956874169926, -0.06877599366235027, -0.10328155462320593, -0.0708519528796704, -0.09908675896355039, -0.09783115396426828, -0.09419844828129205, -0.09664685391555143, -0.09815388641321937, -0.11572560063556836, -0.09862087930532298, -0.10968580477224987, -0.10585812426109413, -0.09468914968332448, -0.08775987189203192, -0.0688535261043527, -0.08199698102673435, -0.09263208522716032, -0.09590573990249592, -0.10532269945575248, -0.09714634315554921, -0.10568701078026704, -0.10723142477377534, -0.10134654204000329, -0.08497816022026324, -0.10701488825468054, -0.043137085924360524, -0.0009833592142729547, -0.031042690016679246, -0.08948978182200136, -0.007959514590667783, -0.07303591190420412, -0.0418082372704293, -0.08076676955486083], [0.026463195514265184, -0.08464732359470081, -0.05328938077971235, -0.036951570505480036, -0.2448537341392051, -0.12420312682598793, -0.09263412754229214, -0.16059139693783614, -0.08480587592163864, -0.18169543570763175, -0.11271751844755173, 0.00540979780834468, -0.11739182627641032, -0.10736911722834763, -0.10383375258704118, -0.02814884384767313, -0.03283899114241551, 0.059018747131108176, -0.06120651817624324, 0.06105688464604287, 0.10674132739929838, 0.05633148400738832, -0.01597573654464788, 0.007720983561106122, 0.06957688085850625, -0.0873379697399019, 0.006974629795746126, -0.2550146104661075, -0.03265370898920591, -0.00810879292388575, -0.003044325656953577, 0.04974297709437824, -0.11743324832296939, 0.008441550620423708, 0.04369863178963324, -0.005641489033083943, 0.023799367868529295, 0.10265388271730802, 0.11795111910132945, 0.05907788839083808, 0.12185243051125173, 0.012393677889274686, 0.13651983579889257, 0.1025091574296528, 0.03830090993376185, 0.03132711331377511, 0.07243927674205773, 0.022811919066881788, -0.00015218624934941192, 0.0705775422773501, 0.00045299169763772117, 0.012536737360046995, -0.17743144713101613, -0.022428927154271052, -0.001780320211165306, -0.00827002092724011, 0.08374304821287516, 0.019667111830491094, 0.047566910393508445, 0.03459516324006739, 0.11930527144500748, 0.15936251556078274, -0.09523159407367647, 0.09330884272642566, 0.0339428492866502, 0.04186205110389309, 0.07773188985687425, -0.047758823712755916, 0.15643486899289777, -0.07951326842707204, -0.21825214045076205, 0.057165428769678485, -0.008142792696290686, 0.005538436190349501, 0.014523536039697785, 0.020852531535403566, 0.1679345917819709, 0.03866953472879325, 0.14753457708631917, 0.09752136094497342, -0.0028841281432438266, 0.030465782876186332, 0.03963978348364616, 0.027911540265088144, 0.04348359057525588, 0.029468968607400083, 0.033331674298491494, 0.06832533924928741, 0.07749914651724972, 0.007936562632573977, 0.014335626006976456, 0.0233103672601172, 0.0577873429718701, 0.04023268433565159, 0.12940747111127798, 0.12296154781054715, 0.022927590834548824, 0.11738167794696393, 0.04390760364434816, 0.08228631040926697, 0.017431896891144646, 0.03108395050280075, 0.01086622974857104, 0.00788997310140934, 0.022241940808849073, 0.01589026945784318, 0.07377737372955134, 0.039829353392155924, 0.0476319444277771, 0.14933520149254134, -0.06910857464468201, 0.026968924512778655, 0.0036962939572766054, 0.014364745657205812, 0.00558286194211604, 0.019036222245099783, -0.07616942801803646, -0.12242752332199433, -0.32100957782937783, -0.08531484525483955, -0.13052518747201736, -0.021935308302676697, -0.15393903073312978, -0.14284417677727995, -0.014152882594998232, -0.051156994951516925, -0.09169169467365056, -0.033972259128963685], [0.07825618744527175, 0.03845448192238957, 0.046548513364074784, 0.034470238532216826, -0.02583183286973767, 0.026982283082300218, 0.020811612802440788, 0.0030112412603549715, 0.04530486568653284, -0.011478716902270761, -0.06150541168766021, 0.08255997744001063, 0.031044418488828163, -0.2117318096817482, -8.090918402126456e-05, -0.2251618675969086, 0.06595140981361561, 0.05613944123551661, 0.03899469626057878, 0.05466570152889937, 0.048657706869334176, -0.1034312189575321, 0.03453091075264029, -0.0458216835120326, 0.07967856291781858, 0.044927770026847044, -0.07959294479400585, -0.06830861374380805, 0.08354534677334385, 0.1094783839762702, 0.1348457818717337, 0.13297667779909847, -0.046667624852741424, 0.10802133229853213, 0.06935907215546012, 0.04631110593539816, 0.08342830943167116, 0.10733894817929339, 0.11862475753556903, 0.07235324365966818, -0.018052917197074022, 0.07490642338340553, 0.03221730472404977, 0.08201191969713054, 0.05458039201511626, 0.05004857313691555, 0.03156648202729825, 0.060391247412971374, 0.1231448810873096, 0.13895365855429329, 0.07687714852139726, 0.0834221231080113, -0.026927618357008413, 0.0598398030505535, 0.08269215551803402, 0.061357614428705104, 0.1091780198532225, 0.11604908112869317, 0.10917152553682778, 0.1012277816146939, 0.024608107840868365, -0.16087101998280592, -0.03225889638895839, -0.027836116190401022, 0.08268243962732046, 0.10370866352543652, 0.014025831727498404, -0.014790689825553094, 0.06493357856574572, -0.022700745445617957, -0.06864972911219366, -0.1269851767626952, 0.06923631326567936, 0.04395177471386117, 0.08072428876757337, -0.038635053955562375, -0.23936384510095046, 0.04450138100770153, -0.04168891483626751, -0.2129452879132855, -0.06718674559352368, 0.042017767210355765, 0.028374015848658805, 0.0289342707588273, -0.02748710698642244, -0.018680440929654388, -0.03229870219983904, -0.026417051681504013, 0.10261811901654966, -0.0841958776163743, 0.041828019968524636, 0.033938539677672505, -0.04366066066504561, -0.0403923231764181, -0.17141491893435182, -0.14514812861933626, -0.05324321462259433, -0.2694670253128177, -0.048646204391555946, -0.06572913667642619, -0.08500796733648636, -0.09873873745636957, -0.06453800695300088, 0.037480911772848444, -0.11434448986169829, 0.01177367631331085, -0.05673910202692099, -0.07247971245184076, -0.07366749353725668, -0.2807318887328393, -0.010393042680383895, -0.08585031791686533, -0.10477768224367238, -0.04352514495768889, -0.10585614507430112, -0.0671410778858645, -0.01872722069341796, -0.01696717475530939, -0.13749016508922868, 0.01784317053779431, -0.1238834038994558, -0.030334657069572123, -0.045092542510551094, 0.0031832182937240497, -0.05636083212999289, 0.1073644833361005, 0.0702989436509201, -0.02017018448747985], [-0.06583049477005745, -0.011149974198762298, -0.021457076415779597, -0.07499491777098297, 0.029670448821000922, 0.0011100608427412895, -0.03989589302225649, -0.0028661367831426254, 0.020131382832720868, 0.02941171151888035, 0.07005703473840248, -0.050851702157014886, 0.014769125223442762, 0.04815518348288064, -0.037679606027806824, 0.0012806990568804484, -0.012669822341453892, -0.1025822409269481, 0.020961818887863366, 0.019445829980358136, -0.16273873489051177, -0.161725620968984, -0.1353048424058908, -0.06537035763392822, 0.03146826176375338, -0.014759056708553694, 0.060337193308455904, 0.045838593557584933, 0.0026336698780878567, 0.02828126250509196, 0.014295750525780788, 0.03719274981108191, 0.06454909128712252, 0.06996760079276365, 0.0220555797286102, -0.03407510004777592, 0.013914491861957711, 0.08180029728310396, 0.05187380047249133, 0.07904970821134881, -0.0695105337440539, -0.05366489229379233, -0.15858438087259194, -0.10438753996183482, 0.05179596494055325, -0.042463404919495844, 0.05284937155038358, 0.03377832524157275, -0.0016603120591335385, 0.06120993631388426, 0.06531752561244299, 0.045702242235720725, 0.03480856433519231, -0.013264103997436417, 0.02429683459592345, -0.0195333658604518, -0.0008030501636596781, 0.015378937361697013, -0.008086126560238278, 0.08884207332931814, -0.004274880610379818, -0.02688730885407554, -0.017546034578987513, 0.021644608817330494, 0.17160199812183372, 0.1057411604556153, 0.20860205411266475, 0.13495950736662543, -0.05756636220161039, -0.03207930487724815, 0.038634309647336794, -0.011354777841150594, 0.08399974558812082, 0.08418932477720308, 0.24851908208606346, 0.226417650918546, 0.15267329334940644, 0.17108509748815826, 0.1917760870806548, 0.3411509885850343, 0.19812555387852684, 0.01687113209992618, 0.10913146864229019, -0.032923606987153485, -0.03028635303625204, -0.06178251402970815, -0.017796404780907868, -0.05287863368024858, 0.07178268074927696, 0.15304597197413006, 0.019663289743199742, 0.03498966457737073, 0.053126281930292486, -0.08896801618803675, 0.051147399397415784, 0.06244123209382244, -0.11769738865996414, 0.045523986120483806, -0.04403575481070231, -0.06592097881203433, -0.10079814126915437, -0.1031020696242356, -0.12374621552490582, -0.16053031589043898, -0.11223726430696179, -0.1862476870774435, -0.11304103184880715, -0.11012065267788732, -0.14073284656098273, 0.04654008049103685, -0.07655642543376788, -0.11511297396859924, -0.044699055742543375, -0.06778983405075212, -0.055831943409792174, -0.05157243668797817, 0.026835497181371397, 0.015932432157013027, 0.07429552063368193, -0.026801728367001957, -0.07449914776263045, 0.011311635432998, 0.0215317789789725, -0.042523856617690786, 0.005595112690503111, -0.0013781030700784067, 0.04913625060890103, -0.03016673817263651], [0.04445521830777223, -0.02140031510769491, 0.029029040107967252, 0.11435723650320895, -0.01530681316415015, -0.028270612409728668, 0.005723656288372556, -0.04640869588444013, -0.023195127160276996, -0.05568848194208498, -0.08788313681906179, 0.043472888563471646, -0.022283897397808283, -0.17911210708672337, -0.0035854985069917814, -0.3124078224107642, 0.016584059178613803, -0.029892239286645618, -0.04475185432692719, -0.07688249921356712, -0.09468364828230455, -0.1917502742138965, -0.04136311151620562, -0.1908162674120186, -0.043335294034556146, 0.004722580555166954, -0.1213816698829195, -0.06826452881812094, 0.022274994196876566, -0.0162416195230697, 0.07066003267196408, -0.020499707195668584, -0.06798349937863807, -0.10935763489604154, -0.07712691568402928, -0.037706092766364746, -0.02293263046165059, 0.007371585601304909, -0.07266542335703065, -0.028897511385505753, -0.22668226088453344, -0.054289212461030883, -0.21582832843299932, -0.0952045329558774, -0.09417662366845847, 0.02276628423195833, -0.1543255376250737, -0.009919263320146792, 0.02058613424357271, -0.13619322454360586, -0.10052777539403691, -0.033538515501766855, -0.03650416854171371, -0.027299010852541373, -0.04953310103219727, -0.05324412706989646, -0.047062604917432055, -0.016384306033096322, -0.0012306235336016652, -0.005559615493882814, -0.01919710490756586, -0.23310952919792824, -0.02619055237165446, -0.17868911964788298, 0.06545496287750517, 0.08842042614496236, 0.005733456952226666, -0.04937676951096489, 0.05690887661098983, -0.015407848176138349, 0.004295842566275967, -0.023304445164429095, 0.03820603006658906, -0.0010782782820698985, 0.04521959269108286, 0.06655750426651356, -0.11919077911739845, 0.02319761700976307, -0.09656867048469929, 0.1174293276592933, 0.11065379910944306, 0.06939668418329531, 0.0649483786927277, 0.06416620188524232, 0.12904005036026586, 0.06404360789140748, 0.09515224582236678, 0.08732576518241307, 0.16180481388276277, 0.13960423438746017, 0.13539313677618925, 0.06941672749060798, 0.006602312964192074, 0.0610512472240858, 0.14247690545321756, 0.10802344491784951, 0.1118539450953487, 0.16131999110758052, 0.10380382219652734, 0.04666723944143504, 0.08327047241941253, 0.08370685886810637, 0.08268048375456244, 0.08126614079071218, 0.12468260869440637, 0.10024307904965056, 0.09996036512155639, 0.07483500778983995, 0.10699499386385737, -0.09835665630580578, 0.047816132620426596, 0.02322871466762465, 0.08801728303402459, 0.05887481499414145, 0.11970906734066591, 0.023459472685176088, -0.03527967582181755, -0.03834341436015224, 0.013315634883631956, 0.001197343369513451, -0.008106732044274506, -0.007521994933325553, 0.05429316593285287, 0.02978002145541345, -0.011086510204927682, 0.06992661242700363, 0.02043529095578219, -0.03270998934349949], [-0.1100197929417612, 0.07299717107600041, 0.05442850837391047, -0.046059793272577726, 0.021701527322021158, 0.1296499098410825, 0.06049355694338826, 0.13547908935596897, 0.15851109523631512, 0.11554133374661864, 0.22358317987375706, 0.07555093608338548, 0.06280255771231485, -0.1020805280089625, 0.05691993122966946, 0.008860102497833103, 0.06900777660811676, -0.07685068778576909, -0.06603172335399778, -0.11329080656831482, -0.16152700972469833, -0.07224473384890562, -0.08431800939882059, 0.08674292529492918, -0.03010436477533478, 0.025261319213006193, 0.012201868078349365, -0.05606356428886252, 0.014629152528452025, 0.008091302094789974, 0.006818909259188664, -0.009049183714583466, 0.0759392015507564, -0.05323869366683064, -0.012745775337827659, -0.10033224459976595, -0.005831479880418545, -0.03588546617991429, -0.21374232642985283, 0.033104626423385616, -0.07912587875745099, -0.0003759876580680738, -0.11482761937608617, -0.15511657868262324, 0.03969459609501563, -0.01304246618656226, -0.05291033020477685, 0.1331447759536576, 0.09691485447253732, -0.09271026099895044, 0.08793649640995518, -0.05529900048894667, -0.08414553216645199, -0.12275259527379605, 0.05747154383121191, -0.024709823973701885, 0.019875617276747557, 0.08894290594615073, 0.03509237710132423, -0.03118226412339852, -0.10612936632630214, 0.052211615011225156, -0.07581180787574575, 0.01567928046461349, 0.042234178712668775, -0.0041838837627930486, -0.06732176334304725, -0.16075295502903603, -0.057473115596095796, -0.05293713044552132, -0.08496274958481023, -0.11034157608345559, -0.008032429310459954, -0.010938276442770076, 0.11519065081855466, 0.04100665280088484, 0.10749146443364949, 0.09542253884458367, -0.03854752388028379, -0.07180895886991613, -0.05908983178367742, 0.02480727435771408, -0.01989582413854165, 0.05034315568963807, 0.03207250888045207, 0.0561003802337698, 0.012991540982843816, 0.023428659367995066, -0.13464043431742126, -0.14004817766922087, -0.1152734277466205, 0.05673829049132145, 0.06550195304044498, 0.006950447632140851, -0.037769883723981316, -0.04095036661934562, 0.0013198628052893367, -0.11172427212222896, 0.002141368819833969, 0.028781842717816003, 0.07245422645284905, 0.05179166776483764, 0.04232447064112685, 0.08886886104959177, -0.0059404304045335065, 0.011559137206417339, 0.048387535209830496, 0.07781913198940042, -0.019248960994264815, 0.1270309852739471, -0.09587612555013394, 0.0022117087948218344, 0.026496033045572128, 0.04291888358534242, -0.01437599350312757, 0.0745259466240691, 0.14719400822162104, 0.02632101535695731, -0.217826596481229, 0.0579496537871116, -0.24147203369599887, -0.060232188361634464, -0.20344521973844, -0.07683604452010268, -0.060172288615766685, -0.14849891712636415, -0.26126799676233575, -0.07522102475893], [0.005683480480406001, 0.007031261417935716, 0.08110202833879894, 0.06718403498725958, 0.0578687901815737, -0.016337446336915844, 0.03856668692837986, -0.012101499017454817, -0.1418878584823233, -0.06235818063947048, -0.1016858346278702, 0.07190751492114031, -0.04200601453099653, 0.07190922070038784, 0.03815440687139765, -0.04211324958443974, 0.2733283536024058, 0.07971010458676869, 0.1597793526742864, 0.05860710960339893, 0.009649556527420954, 0.13690594363303576, 0.0313063224039699, 0.004324218470071636, 0.12532860078977928, 0.06105473471157379, -0.0551707701374259, -0.08276836316963157, 0.14539316712566333, 0.06683285382429777, 0.06144778941280907, 0.03763283511227353, 0.14118629992353657, 0.03132644049467232, 0.05377722999725416, 0.11175359073618019, 0.07264885948592846, 0.0720866264030922, -0.10799910817590333, 0.056914931986490946, 0.0002646459887759201, 0.031834950686787135, -0.04494140887518376, -0.08094381661497756, 0.1275419508368947, 0.08255021744393436, 0.1123425565243133, 0.15101742395486376, 0.07670953147350218, -0.03159431461002524, 0.11091035158501918, 0.06985860752308846, -0.049841084311643226, 0.01398300698656122, -0.045086955581646965, -0.04740847474951109, 0.05994647912149602, 0.12466229019383908, 0.05824780484536315, 0.06308220397433097, -0.03604006339650461, -0.06073142879659735, -0.042946816725225455, -0.006860669229660434, -0.14355195219515413, -0.013417984781136498, -0.03840809277196717, -0.18246784382037295, -0.20626254168065447, -0.1120065750600764, -0.11787639001952936, -0.07783005774462276, -0.11016272355549309, -0.09489931410086445, -0.21448053153854488, 0.02659103497836308, 0.036894437864026124, -0.009887655480297257, -0.10603299347798638, 0.09034469274106163, 0.02328043253557299, -0.20834917518403304, -0.07993533039389729, -0.03775818639931257, -0.010349307185320254, -0.0712273099691014, -0.010326252402706147, 0.001886538493983038, -0.027528011873364025, 0.14039702804467263, 0.08194410719252417, -0.00975038113213936, -0.13781396481184655, -0.048154990871849795, 0.10165890886747156, -0.032133158711872355, -0.0037306841547834458, 0.1748489220225461, 0.018297846146002612, -0.12784512750596566, -0.03800617478989525, -0.018324998061900365, -0.03907706696827287, -0.11042330827255752, 0.00299160243956377, -0.08553493071746038, -0.05249938249357144, -0.10000298697635004, 0.03202646472615065, -0.02430344191448981, -0.11632605536138162, -0.05849456900366967, 0.13698240320926577, 0.048007119182973464, 0.13181214453202908, 0.034662782787790336, -0.06775980539307341, -5.91589014528103e-05, 0.1526861560500173, -0.02286397180249611, -0.05234403932915791, 0.012077634274138993, 0.027414317762139137, -0.03987469985674318, -0.027273158920377818, -0.049096888954578866, -0.1884228282359765, -0.0036689254127504315], [-0.10433958001732804, -0.0878318569273214, -0.04124233257608692, -0.047537780801593266, -0.10559518440754509, -0.10178430150828605, -0.08131501944037423, -0.12804375717389055, -0.15068897891074312, -0.11986836681532687, -0.01478474930493795, -0.012122421190386201, -0.06055614694656114, 0.25406803938982303, -0.06026422630351645, 0.007487020737421232, 0.09098344403810874, -0.09410392941928566, -0.07604058032870911, -0.15669633268637864, -0.24974665309273344, -0.0005397698402444846, -0.006644571840388209, 0.08862270068665432, 0.09899510554793739, -0.0002794220127839291, 0.07606513899242558, -0.026206378096950915, 0.017955123905952077, -0.06054652539315785, 0.012291765154531259, 0.027075234808850882, -0.1534476777362456, -0.07542822084103258, -0.09508946100270729, -0.049104155618807994, 0.02136665047242959, 0.11196787853985606, 0.01052048850684435, 0.010991787157399978, -0.10431403640837489, 0.00525119108401621, -0.09097734289968575, -0.05142401434700263, -0.036111395327018965, 0.14139251388176868, 0.010605555281242277, 0.056606409401248774, 0.02233701669615559, -0.0033640329170562065, -0.01542759017019625, 0.05339566967156018, 0.0709080495924477, -0.0018765300312894063, 0.05258824119582015, -0.06274959123603972, 0.07279400232416312, 0.051637479766661484, 0.11343867357443642, 0.14292913346978783, 0.06934309707001535, 0.08599041432479117, 0.20948248237175707, 0.06350133668662303, -0.11504385996637233, 0.0048072769966414726, -0.12408940900281892, -0.12999280492910548, 0.03463412811397476, -0.03537175256869373, 0.1334584819331314, 0.24010342228772424, 0.0664439824123521, 0.19432324954578575, -0.014699451936872719, -0.09615336739830797, -0.09517369181944828, 0.34803758708241056, -0.1337640237609599, -0.12908081559194606, -0.05374398011527429, 0.003497621566578979, 0.10721053430169812, 0.0738086170452687, -0.013179398005214109, -0.024100374021276513, 0.04342071802264906, 0.015640955854387368, -0.037329723037577735, -0.12027673773055447, 0.12558314526434067, 0.02368204156900419, 0.11350259369152214, -0.052415067814029305, -0.010606714487879906, -0.1007128251897074, -0.0027898226543112566, -0.08988503503251088, 0.0057907918957460355, -0.005295151706728575, -0.029735925547019926, -0.014234839404635286, -0.008620370693485781, -0.005187393563509858, -0.024249298758659478, -0.004058896123489458, -0.03319752463243984, -0.03107591648386439, 0.041842608206558905, 0.09530363863106961, 0.07143666094078424, -0.012107717300637515, 0.028251069886978893, 0.0239732547811289, 0.020847765576353868, 0.03556008269818307, 0.001796851075790897, 0.0035497800544085187, 0.055718077594065225, -0.01921783448461753, -0.009570600709883973, 0.0036595192749686563, 0.08599621321129006, -0.0018977332216755915, -0.05147668207875978, 0.04133874739618955, 0.0067462237636320335, 0.020061265201836365], [0.09155469598734764, 0.05919369182448249, 0.018974988243831786, 0.05698932172036522, -0.06624225966582209, -0.021793396603396284, -0.047470688033042746, -0.00542512916143674, 0.1382164367728188, 0.06790583251899843, 0.14223946249125546, -0.001497177585580045, -0.014429797596016702, -0.10351976058943219, -0.025084805733100568, -0.03643927806087524, -0.05782866980428891, -0.0031013254309753546, -0.058503983692166306, 0.0063866538362468694, -0.15957837349734558, -0.21525430244071053, -0.09604460073070001, -0.05540474176100198, 0.06935666347004717, -0.051356881735299696, 0.20502680642129695, 0.09739977825005677, -0.023006068082988225, 0.037860348675753504, 0.01722283157642226, 0.08107708230704984, -0.09156152735394021, 0.040693136064755345, 0.005730017076843579, -0.03910647313087854, -0.010873540630224996, 0.15058337814364556, 0.02834398575957214, 0.01917139293846032, -0.07426829038613991, -0.03066771334541088, -0.07361917538905625, 0.007914308653497973, -0.038472528650639104, 0.13710352801072823, -0.04678775196820622, 0.06454443745469886, 0.03536874402211725, -0.03439579363956757, -0.007140745478564833, 0.06400286729984285, 0.09466619326218302, 0.03731028873790526, 0.14084416558742655, 0.17057783293672282, 0.05739939907694456, 0.024484244518429513, 0.16631859878558447, 0.10600374834778249, 0.20287438340099184, -0.013498731446446293, 0.023411521061265744, 0.10317084322887655, -0.025006250099811087, -0.0799397936574925, -0.03179170209952479, -0.01453709848262369, 0.2176467883499607, 0.22989250335420594, 0.16043469162250104, 0.03778828959673324, -0.19249836246568888, -0.15631043870440756, -0.26107999696901446, -0.06017834249389045, 0.050904709320096074, -0.23457418145266876, -0.12882077169451098, 0.039118649725817856, -0.05540687593070444, -0.04011578636504169, -0.1298157329639313, -0.01663663770954546, 0.010486649139269598, -0.005973091950350019, -0.0646617770818008, 0.022315496634873068, -0.015685345141626707, 0.030863372295695236, -0.06279989015236719, -0.0436604400694656, -0.07947067624338165, 0.04227107279073269, 0.06128592006973007, 0.09103776740834287, -0.03546100868275201, 0.1883282700678466, 0.015554375188212498, -0.03261035682204606, -0.05035386119585099, -0.0790971947837589, -0.08375645537244084, -0.10200570373968196, -0.08344421616384005, -0.024481427277967944, -0.0569910081399696, -0.005375072075185396, -0.1105272134487814, 0.05383204718182995, 0.04652582629932613, -0.012526078130975121, 0.03251635012669085, 0.016993641832828425, -0.0043168394452777785, 0.0012059797793640284, 0.06790163357126881, 0.04363284867170943, -0.09957133944786987, 0.02147259745373951, 0.0685917115430163, -0.005446951462152172, -0.05665424240434123, 0.002526421819129462, -0.0036759417532212903, 0.008438533799890787, -0.0820363916941527, -0.04976287607172555], [-0.11009568007211978, -0.06151603627702817, 0.038333948047882746, 0.10060358255052933, -0.01872020053153277, 0.0034597718077896966, 0.06116075255376616, -0.03355087027512399, -0.0670365655168263, -0.13807416777620155, -0.14688572616888346, 0.07217552960626904, 0.018249586060135048, -0.00476317427066264, 0.007875460946556327, -0.07306810137863529, -0.15865113321152002, -0.1155173428474093, 0.09807073414535938, -0.05904727723148662, -0.14424223063473898, -0.014740648410356008, -0.03801343073398812, -0.16552216579249412, -0.21772884502675754, 0.044866960354034056, -0.04314040350330302, -0.22403790430268164, 0.08504628083383359, 0.05108343450224412, 0.06785116793677286, -0.01929577930006462, 0.3431222754724451, 0.05936537049153716, 0.1473591255376887, 0.037529698108396736, 0.08565104471387386, -0.1213061529531199, -0.020866082879874223, 0.152590252591039, 0.007528237504639277, 0.026244369396949692, -0.1012325767309899, 0.024535991073872793, 0.017108043488265466, -0.037149801115376434, -0.06896737568289017, 0.0450657171676638, 0.05005530798268057, -0.040181088149589095, 0.13866269396448622, -0.03924609500650431, 0.12419431498597622, 0.02508215663337037, 0.03107886250753265, -0.049237137958883515, 0.05111600757134664, 0.0040664119425677225, -0.006973652167872067, -0.10488324723549168, -0.0307121734885148, 0.12715926575327582, 0.14940709116461756, -0.10478356347983608, -0.021502188285534483, 0.06762702096164272, -0.05817319192691231, 0.022096088512705146, 0.06295287216440501, 0.19141739879872893, -0.08390115349951352, 0.07820480934375725, -0.002665558708998087, -0.09531211144722809, -0.04231991569954278, 0.02502471982691661, 0.2082941731209724, -0.11175311277942149, -0.02024673618021227, -0.16477479601738546, -0.09661798930354552, 0.08103042015890448, 0.025210822832724418, -0.034065095099437434, -0.0755529126348382, 0.012868606368489655, -0.04924386122939708, -0.06657500154786108, 0.0986935498727992, -0.10728109511392342, 0.015166317565465933, 0.09803619065207987, -0.004322206731521044, 0.027062537950570818, -0.010283262929363955, 0.012465738557536457, 0.04006129397074312, 0.015168769492443186, 0.0003602722641495948, 0.0213928607857922, -0.07061087803762069, -0.015050352406663076, -0.05909425528231778, -0.03342019688402214, -0.07504480400525909, -0.01434943144690845, -0.003504132051932467, -0.09224283090067534, 0.00907470713517888, 0.24929473960546628, 0.058294627766180926, 0.04631950086517394, -0.026122745744212604, -0.015159941570882483, -0.04139269932940053, 0.03302579612571041, -0.017884878614938447, -0.0011205570128698338, 0.001425123906366945, 0.013996837232071464, -0.04012378842093738, -0.0032223186884873557, 0.030747553493453376, 0.034587854835879936, 0.02604507321475559, 0.14634924707852992, 0.13586556500390884, 0.10874584428624227]], "pca_mean": [3.4387635420416003, 3.893494610363078, 4.041212214042093, 3.4320663983576765, 3.632975660139155, 4.30365410619807, 4.048016801838563, 4.1174782055560675, 3.8918418888733766, 3.919420920019952, 3.83078679202873, 4.187486975660948, 4.15445978842049, 2.6005313752689094, 4.299789793357671, 2.892785094775886, 3.6039745179570724, 3.0778475136400383, 3.045261877719487, 3.357391082627751, 2.4056573565318207, 2.639224593355277, 3.678768896499527, 3.093112410033975, 3.6442625355497698, 4.125680340004859, 3.123126729598669, 3.119201019768403, 3.9108078068661913, 3.5867675894331708, 3.5787013451351184, 3.4300399631261826, 2.9703139977198894, 3.316114757774032, 3.3850090217367512, 3.4832741543511365, 3.984101558288681, 3.2340073489975705, 2.770195276401589, 3.394120985548073, 2.9792202692722607, 4.060223471115683, 2.9334680200806846, 3.0490435450990625, 3.471387371727239, 3.3526404839531283, 3.17514959069613, 3.6245589948703194, 4.167305610920781, 3.0951935584857084, 3.5322313075310716, 3.6744234663303765, 3.107444479588036, 3.608408499766733, 3.51876433218751, 3.2719821696526536, 3.3684713787007556, 3.5326279431024443, 3.4022935757013126, 3.291953731641591, 3.120638640016039, 2.2224237923101287, 2.919020066974319, 3.5156399482321516, 3.2889108394072433, 3.626249550937492, 3.175821729770331, 2.92928007036169, 3.0942952964628967, 2.6993828008665104, 2.6993465913511883, 2.6690146036794253, 3.6348490009241017, 3.2279735218420207, 3.0322915049008676, 3.5381143181123464, 2.8088088618956992, 3.3121445022732297, 3.1808187733482676, 2.7507105841814914, 3.4360989016907237, 3.401736200148257, 3.3384887323061996, 3.811803221758281, 3.3937492434109484, 3.480550574922116, 3.3678541550569445, 3.454143453034285, 3.473552112337028, 3.0764515728036934, 3.506384927159715, 3.6820776499320416, 3.349739922457766, 3.52732834309061, 3.1814000691208886, 2.9809449689689083, 3.243223108532273, 2.731260270061337, 3.6064607777328135, 3.157795601205848, 3.063068754400048, 3.0737389552259, 3.0352742042775467, 3.3774370113822902, 3.0699384728603274, 3.4125958185329615, 3.2529182837388224, 3.2181433228131766, 2.9404584410870185, 2.710094797151668, 3.2125819654108208, 2.862256901342178, 3.710585699460217, 3.836276822112431, 3.630037855990579, 3.8519165168855793, 3.9506096663876114, 3.7046728895089336, 3.2434782775205986, 4.051373780052239, 1.8055655244076363, 0.2620879736050058, 1.3881828633285014, 3.580893494035596, 0.3457986563827111, 3.3267715266374784, 2.583346419328841, 3.577123404106247]}