{"model_key": "9B", "profiles": ["constant_2.6", "edges_narrow_bal_0.55", "late_boost_bal_0.60", "triad_odd_bal_0.45"], "class_names": ["constant_2.6", "edges_narrow_bal_0.55", "late_boost_bal_0.60", "triad_odd_bal_0.45", "off"], "feature_set": "pca+scalar", "feature_names": ["pc1", "pc2", "pc3", "pc4", "pc5", "pc6", "pc7", "pc8", "pc9", "pc10", "baseline_attn_entropy_mean", "baseline_final_entropy_bits", "baseline_mean_entropy_bits", "baseline_target_prob", "baseline_top1_top2_logit_margin"], "n_pca": 10, "standardization_mean": [2.191393484119935e-15, -7.362750077327206e-16, -6.038783180671412e-17, 1.9589729630769118e-16, 2.1249876209647857e-16, 2.7065577193782436e-16, 5.125183766482206e-16, 3.6004428929432645e-16, 2.1530025944833642e-16, -1.4982822874380617e-16, 3.293719626168223, 3.720803738317755, 3.8311962616822424, 0.2144953271028039, 1.351906542056077], "standardization_std": [11.401686346953257, 3.297321685793557, 1.915692863649277, 1.5431643113474585, 1.4103849426852433, 1.349225732539025, 1.3087452753910713, 1.1700367755102847, 1.073077849659728, 1.0377568873141323, 0.9857601061166326, 2.2711122288151846, 1.4661998909970821, 0.2978582073074491, 1.4295166527272383], "weights": [[-0.08021887695644751, -0.2513285715143897, 0.2195569096412261, 0.087702017648644, 0.02428852118096661], [1.383653693890167, -0.2226841208141105, -0.3967445551191753, -0.5523155430825148, -0.21190947487436734], [0.21685808012002805, -0.09086138444594064, -0.1859864001738656, 0.050530594731131605, 0.009459109768646943], [-0.337148392085219, 0.11507136421399534, 0.09754841422563736, 0.15022263838709485, -0.025694024741508014], [0.34200638899013186, 0.14273550399647944, 0.15177259099299653, -0.4256407383309612, -0.21087374564864764], [-0.09111131316531713, -0.16987578469121134, -0.1903555266955919, 0.45517550115468586, -0.003832876602565749], [0.06367522589043982, 0.2628870276509213, 0.07630406329914938, -0.4495061948624106, 0.046639878021901456], [-0.17075810184341075, -0.04093071541168212, 0.16203370758878125, 0.01409204992190135, 0.035563059744410964], [0.35063826688670346, -0.05678067465024194, 0.1396998047988719, -0.14757973532637014, -0.2859776617089629], [0.12445389238615556, -0.1990351092098103, -0.10900262001769384, 0.09509778142355634, 0.08848605541779168], [0.06913955176559422, 0.24162402939260266, -0.21023789313271116, -0.08398773424170798, -0.016537953783777884], [-0.22919351502230007, 0.22540642868558491, 0.4958054222278664, -0.4882873515180287, -0.003730984373122798], [-0.061348916796377426, 0.20028772718315893, -0.3972075157745952, 0.031920683049902615, 0.22634802233791115], [-0.058134408927573794, 0.7506114821905233, 0.7844771735207743, -0.47111116358388555, -1.005843083199838], [0.025626530833626444, -0.42609445624889425, -0.32002947372876506, -0.07271485580787676, 0.7932122549519113]], "bias": [0.7272705938870035, -1.1249180492534714, -0.19169288558902833, -0.5490798170322446, 1.138420157987738], "pca_components": [[-0.07739016106519776, -0.09492708300855102, -0.09750221296721445, -0.07111933109220192, -0.10369252478405878, -0.11585587404136691, -0.1094321927252619, -0.11496515144530907, -0.09338599400081725, -0.10312647123269282, -0.09957023395342793, -0.1078646722784728, -0.10291908916565386, -0.07302246794967213, -0.12172245368365604, -0.09169769314386558, -0.08411225661999946, -0.06741463030342917, -0.05282423396478698, -0.0762607595153162, -0.07333123441184623, -0.08588737554582807, -0.10468215982783932, -0.08750618693928863, -0.08798328778037971, -0.10407008925095687, -0.07701981411564579, -0.08406703234648533, -0.09279312168603203, -0.07826184722109701, -0.0864265349246333, -0.07976103333245538, -0.07609984834310218, -0.07386760642218487, -0.07874261714824025, -0.07891989688281054, -0.09462557320889008, -0.07643994148397976, -0.07021692482624389, -0.07984264328291159, -0.07955519883341805, -0.10663616197192001, -0.09543785186616124, -0.0796651429863503, -0.07267524005254303, -0.08734762330708155, -0.07538018011413328, -0.10630830769852734, -0.11754717770271945, -0.07761340818110181, -0.08024128690017986, -0.08689921025481362, -0.08116735616679684, -0.08489669591567403, -0.08755600821708401, -0.0728176834698106, -0.09261800536249444, -0.10504199476577064, -0.0912359962425029, -0.08109983184088725, -0.07634777485565813, -0.08176732938418363, -0.0939882919606398, -0.08152719379341049, -0.08919023165543814, -0.08548304437964846, -0.07163968838165703, -0.06640534690927255, -0.09025311654441426, -0.09440607786258576, -0.08528813761727241, -0.06928448655999801, -0.09826132717393318, -0.08799958120946824, -0.08656198568690569, -0.07849293895771726, -0.07996963424966373, -0.08030557687164167, -0.08907041003518366, -0.053790336610727706, -0.08668991368275465, -0.09934730268007201, -0.08901209546966483, -0.10461803867854412, -0.09730926481656403, -0.1032775554124647, -0.096961443706403, -0.09931642902923526, -0.08349194912945777, -0.06728854797746678, -0.08211728401458343, -0.09038824835242311, -0.0964522771310832, -0.10620537663281587, -0.07396956874169927, -0.06877599366235025, -0.10328155462320592, -0.07085195287967042, -0.0990867589635504, -0.0978311539642683, -0.09419844828129206, -0.09664685391555145, -0.09815388641321939, -0.11572560063556836, -0.09862087930532298, -0.10968580477224987, -0.10585812426109414, -0.0946891496833245, -0.08775987189203194, -0.06885352610435273, -0.08199698102673436, -0.09263208522716032, -0.09590573990249592, -0.10532269945575248, -0.09714634315554921, -0.10568701078026706, -0.10723142477377536, -0.1013465420400033, -0.08497816022026326, -0.10701488825468054, -0.04313708592436053, -0.0009833592142729543, -0.031042690016679253, -0.08948978182200136, -0.007959514590667781, -0.07303591190420414, -0.0418082372704293, -0.08076676955486084], [0.02646319551426521, -0.0846473235947005, -0.053289380779712126, -0.036951570505479925, -0.24485373413920503, -0.12420312682598782, -0.09263412754229206, -0.1605913969378361, -0.08480587592163862, -0.1816954357076316, -0.1127175184475516, 0.005409797808344659, -0.11739182627641025, -0.10736911722834759, -0.10383375258704111, -0.028148843847673046, -0.0328389911424155, 0.05901874713110815, -0.06120651817624317, 0.06105688464604284, 0.10674132739929833, 0.05633148400738822, -0.015975736544647887, 0.007720983561106084, 0.06957688085850618, -0.08733796973990186, 0.006974629795746112, -0.2550146104661074, -0.0326537089892059, -0.008108792923885758, -0.003044325656953585, 0.0497429770943782, -0.11743324832296935, 0.008441550620423724, 0.04369863178963322, -0.005641489033083935, 0.02379936786852924, 0.10265388271730795, 0.11795111910132941, 0.05907788839083799, 0.12185243051125166, 0.012393677889274644, 0.1365198357988925, 0.1025091574296528, 0.038300909933761784, 0.03132711331377504, 0.07243927674205772, 0.022811919066881767, -0.00015218624934942843, 0.07057754227735005, 0.0004529916976377183, 0.012536737360046976, -0.177431447131016, -0.02242892715427102, -0.0017803202111653358, -0.008270020927240109, 0.08374304821287515, 0.01966711183049108, 0.04756691039350839, 0.034595163240067346, 0.11930527144500734, 0.1593625155607826, -0.09523159407367643, 0.09330884272642555, 0.033942849286650145, 0.04186205110389305, 0.0777318898568742, -0.04775882371275583, 0.15643486899289766, -0.079513268427072, -0.2182521404507618, 0.057165428769678464, -0.008142792696290677, 0.005538436190349494, 0.01452353603969773, 0.020852531535403528, 0.16793459178197068, 0.038669534728793226, 0.14753457708631912, 0.09752136094497334, -0.00288412814324386, 0.030465782876186284, 0.03963978348364613, 0.027911540265088106, 0.04348359057525583, 0.029468968607400052, 0.0333316742984914, 0.06832533924928738, 0.07749914651724969, 0.007936562632573991, 0.014335626006976415, 0.023310367260117176, 0.057787342971869986, 0.04023268433565156, 0.12940747111127796, 0.1229615478105471, 0.022927590834548813, 0.11738167794696389, 0.043907603644348106, 0.08228631040926682, 0.017431896891144587, 0.031083950502800713, 0.010866229748571024, 0.007889973101409315, 0.022241940808849052, 0.015890269457843175, 0.07377737372955127, 0.03982935339215589, 0.04763194442777705, 0.14933520149254115, -0.069108574644682, 0.026968924512778627, 0.003696293957276599, 0.014364745657205774, 0.005582861942116025, 0.019036222245099783, -0.07616942801803644, -0.1224275233219943, -0.32100957782937767, -0.0853148452548395, -0.13052518747201725, -0.02193530830267669, -0.15393903073312967, -0.1428441767772799, -0.014152882594998226, -0.05115699495151686, -0.09169169467365045, -0.033972259128963664], [0.07825618744527163, 0.03845448192238957, 0.046548513364074895, 0.03447023853221637, -0.025831832869737448, 0.026982283082300385, 0.02081161280244076, 0.0030112412603549993, 0.04530486568653283, -0.011478716902270673, -0.06150541168765992, 0.0825599774400106, 0.03104441848882817, -0.211731809681748, -8.090918402128617e-05, -0.22516186759690845, 0.0659514098136156, 0.056139441235516466, 0.038994696260578735, 0.054665701528899276, 0.048657706869333885, -0.10343121895753214, 0.034530910752640136, -0.04582168351203253, 0.07967856291781851, 0.04492777002684702, -0.07959294479400573, -0.06830861374380805, 0.08354534677334384, 0.10947838397627015, 0.13484578187173368, 0.13297667779909844, -0.046667624852741285, 0.10802133229853213, 0.0693590721554601, 0.04631110593539804, 0.08342830943167115, 0.10733894817929342, 0.11862475753556899, 0.07235324365966822, -0.018052917197074022, 0.07490642338340543, 0.03221730472404965, 0.08201191969713044, 0.05458039201511631, 0.05004857313691548, 0.03156648202729829, 0.060391247412971485, 0.1231448810873096, 0.13895365855429329, 0.07687714852139739, 0.0834221231080113, -0.026927618357008347, 0.059839803050553426, 0.08269215551803402, 0.06135761442870502, 0.10917801985322258, 0.11604908112869326, 0.10917152553682773, 0.10122778161469392, 0.024608107840868264, -0.16087101998280573, -0.03225889638895838, -0.027836116190400936, 0.08268243962732053, 0.10370866352543653, 0.014025831727498494, -0.01479068982555307, 0.06493357856574558, -0.022700745445617992, -0.06864972911219358, -0.12698517676269522, 0.06923631326567942, 0.043951774713861226, 0.08072428876757362, -0.03863505395556216, -0.23936384510095024, 0.0445013810077018, -0.041688914836267264, -0.21294528791328524, -0.0671867455935236, 0.04201776721035576, 0.028374015848658944, 0.02893427075882728, -0.027487106986422438, -0.018680440929654388, -0.03229870219983905, -0.026417051681504027, 0.10261811901654953, -0.08419587761637433, 0.04182801996852459, 0.033938539677672554, -0.04366066066504551, -0.040392323176418166, -0.17141491893435173, -0.1451481286193362, -0.0532432146225944, -0.2694670253128177, -0.04864620439155602, -0.06572913667642624, -0.08500796733648638, -0.09873873745636962, -0.0645380069530009, 0.03748091177284836, -0.11434448986169835, 0.011773676313310683, -0.05673910202692107, -0.07247971245184084, -0.07366749353725678, -0.280731888732839, -0.010393042680384003, -0.08585031791686543, -0.1047776822436724, -0.04352514495768893, -0.10585614507430118, -0.06714107788586442, -0.018727220693417892, -0.016967174755309358, -0.13749016508922862, 0.017843170537794308, -0.12388340389945593, -0.030334657069572116, -0.045092542510551156, 0.003183218293723947, -0.056360832129992884, 0.1073644833361004, 0.07029894365092007, -0.02017018448747991], [-0.06583049477005729, -0.011149974198762609, -0.021457076415779652, -0.07499491777098276, 0.02967044882100106, 0.001110060842741456, -0.03989589302225627, -0.0028661367831427365, 0.020131382832720646, 0.029411711518880126, 0.07005703473840219, -0.05085170215701489, 0.014769125223442621, 0.048155183482880747, -0.03767960602780687, 0.001280699056880573, -0.012669822341453965, -0.1025822409269479, 0.02096181888786348, 0.01944582998035838, -0.16273873489051138, -0.16172562096898366, -0.13530484240589055, -0.06537035763392832, 0.031468261763753384, -0.014759056708553741, 0.06033719330845575, 0.04583859355758499, 0.0026336698780877687, 0.02828126250509194, 0.014295750525780693, 0.03719274981108185, 0.06454909128712248, 0.06996760079276361, 0.02205557972861021, -0.03407510004777574, 0.01391449186195766, 0.08180029728310383, 0.05187380047249132, 0.07904970821134868, -0.06951053374405378, -0.05366489229379235, -0.1585843808725918, -0.10438753996183472, 0.05179596494055315, -0.042463404919495844, 0.05284937155038359, 0.03377832524157255, -0.0016603120591336816, 0.061209936313884175, 0.06531752561244282, 0.04570224223572067, 0.034808564335192284, -0.01326410399743632, 0.024296834595923317, -0.01953336586045183, -0.0008030501636598223, 0.015378937361696831, -0.008086126560238372, 0.08884207332931805, -0.004274880610379783, -0.02688730885407553, -0.01754603457898746, 0.02164460881733042, 0.17160199812183352, 0.10574116045561519, 0.20860205411266464, 0.13495950736662543, -0.057566362201610335, -0.03207930487724811, 0.03863430964733679, -0.011354777841150417, 0.08399974558812066, 0.08418932477720298, 0.24851908208606302, 0.2264176509185459, 0.15267329334940638, 0.17108509748815784, 0.1917760870806546, 0.3411509885850345, 0.19812555387852687, 0.016871132099926005, 0.10913146864229004, -0.032923606987153554, -0.03028635303625205, -0.061782514029708205, -0.01779640478090786, -0.05287863368024859, 0.07178268074927698, 0.15304597197413036, 0.019663289743199718, 0.034989664577370606, 0.05312628193029232, -0.08896801618803668, 0.05114739939741596, 0.06244123209382257, -0.11769738865996399, 0.04552398612048415, -0.04403575481070227, -0.0659209788120344, -0.10079814126915433, -0.10310206962423556, -0.12374621552490575, -0.16053031589043903, -0.11223726430696168, -0.18624768707744346, -0.11304103184880705, -0.11012065267788734, -0.1407328465609826, 0.04654008049103677, -0.07655642543376777, -0.11511297396859915, -0.04469905574254327, -0.06778983405075209, -0.05583194340979201, -0.05157243668797823, 0.02683549718137114, 0.015932432157012993, 0.07429552063368222, -0.02680172836700203, -0.07449914776263004, 0.011311635432998044, 0.021531778978972686, -0.04252385661769066, 0.005595112690503211, -0.0013781030700783326, 0.04913625060890114, -0.030166738172636504], [0.044455218307771154, -0.021400315107693985, 0.029029040107968, 0.11435723650320852, -0.015306813164149682, -0.02827061240972714, 0.005723656288373208, -0.046408695884438717, -0.02319512716027544, -0.05568848194208398, -0.0878831368190593, 0.043472888563472756, -0.022283897397807784, -0.17911210708672454, -0.0035854985069911673, -0.3124078224107639, 0.016584059178614316, -0.029892239286646565, -0.04475185432692781, -0.07688249921356828, -0.09468364828230594, -0.1917502742138971, -0.04136311151620653, -0.1908162674120177, -0.04333529403455623, 0.0047225805551671645, -0.12138166988291947, -0.06826452881812195, 0.02227499419687672, -0.01624161952306943, 0.07066003267196413, -0.020499707195668456, -0.06798349937863694, -0.10935763489604189, -0.07712691568402924, -0.03770609276636588, -0.02293263046165058, 0.007371585601304595, -0.07266542335703294, -0.028897511385505257, -0.2266822608845342, -0.05428921246103092, -0.2158283284330005, -0.09520453295587906, -0.09417662366845804, 0.022766284231958048, -0.15432553762507425, -0.00991926332014535, 0.02058613424357386, -0.13619322454360672, -0.1005277753940357, -0.03353851550176753, -0.036504168541714656, -0.0272990108525427, -0.04953310103219657, -0.05324412706989665, -0.04706260491743185, -0.016384306033095354, -0.0012306235336012874, -0.005559615493883284, -0.019197104907567243, -0.23310952919792766, -0.026190552371655598, -0.17868911964788264, 0.06545496287750545, 0.0884204261449622, 0.005733456952225971, -0.04937676951096661, 0.056908876610989194, -0.015407848176138961, 0.004295842566274765, -0.02330444516443018, 0.03820603006658899, -0.001078278282069763, 0.045219592691084, 0.06655750426651404, -0.11919077911739727, 0.023197617009764172, -0.0965686704846998, 0.11742932765929237, 0.11065379910944209, 0.06939668418329545, 0.06494837869272756, 0.06416620188524276, 0.12904005036026597, 0.06404360789140805, 0.09515224582236681, 0.08732576518241314, 0.16180481388276127, 0.13960423438745856, 0.13539313677618786, 0.06941672749060855, 0.006602312964192753, 0.06105124722408562, 0.14247690545321712, 0.10802344491784885, 0.11185394509534864, 0.1613199911075792, 0.10380382219652727, 0.046667239441435214, 0.08327047241941325, 0.0837068588681069, 0.08268048375456288, 0.08126614079071318, 0.12468260869440627, 0.10024307904965073, 0.0999603651215568, 0.07483500778984073, 0.10699499386385722, -0.0983566563058044, 0.047816132620425465, 0.023228714667624852, 0.08801728303402487, 0.058874814994142, 0.11970906734066575, 0.023459472685176907, -0.03527967582181602, -0.03834341436015182, 0.013315634883629471, 0.0011973433695142512, -0.008106732044277242, -0.007521994933326319, 0.05429316593285053, 0.02978002145541247, -0.01108651020492813, 0.06992661242700192, 0.020435290955779253, -0.03270998934350029], [-0.11001979294176152, 0.07299717107599991, 0.054428508373910084, -0.046059793272578864, 0.021701527322021665, 0.12964990984108293, 0.060493556943388385, 0.13547908935596953, 0.15851109523631457, 0.11554133374661882, 0.22358317987375745, 0.07555093608338515, 0.06280255771231494, -0.1020805280089599, 0.056919931229669485, 0.008860102497836655, 0.0690077766081169, -0.0768506877857689, -0.06603172335399682, -0.11329080656831374, -0.16152700972469738, -0.07224473384890323, -0.08431800939882006, 0.08674292529493101, -0.030104364775333972, 0.025261319213006315, 0.012201868078350421, -0.056063564288862285, 0.014629152528452193, 0.00809130209479032, 0.0068189092591879235, -0.009049183714583072, 0.0759392015507577, -0.05323869366682934, -0.012745775337826582, -0.10033224459976536, -0.00583147988041804, -0.03588546617991431, -0.2137423264298522, 0.03310462642338622, -0.07912587875744848, -0.0003759876580674042, -0.11482761937608427, -0.15511657868262266, 0.039694596095016944, -0.013042466186562475, -0.05291033020477475, 0.13314477595365792, 0.0969148544725372, -0.0927102609989488, 0.08793649640995675, -0.05529900048894616, -0.0841455321664515, -0.12275259527379571, 0.057471543831212335, -0.024709823973701778, 0.019875617276748244, 0.0889429059461512, 0.03509237710132432, -0.031182264123398296, -0.10612936632630213, 0.05221161501122768, -0.07581180787574533, 0.015679280464615395, 0.04223417871266785, -0.004183883762793913, -0.06732176334304724, -0.16075295502903578, -0.05747311559609684, -0.05293713044552151, -0.0849627495848106, -0.11034157608345484, -0.008032429310460346, -0.010938276442769795, 0.11519065081855431, 0.041006652800884356, 0.10749146443365107, 0.09542253884458386, -0.03854752388028304, -0.07180895886991703, -0.059089831783678444, 0.024807274357712905, -0.01989582413854214, 0.050343155689637285, 0.032072508880450434, 0.05610038023376887, 0.012991540982842826, 0.023428659367993973, -0.13464043431742292, -0.1400481776692221, -0.11527342774662182, 0.05673829049132091, 0.06550195304044498, 0.006950447632139882, -0.037769883723982635, -0.04095036661934706, 0.0013198628052879132, -0.11172427212223053, 0.0021413688198328625, 0.02878184271781498, 0.07245422645284799, 0.051791667764836596, 0.04232447064112576, 0.08886886104959059, -0.00594043040453488, 0.011559137206415854, 0.04838753520982919, 0.0778191319893993, -0.01924896099426581, 0.1270309852739485, -0.0958761255501347, 0.002211708794821494, 0.026496033045571337, 0.04291888358534179, -0.014375993503128631, 0.07452594662406889, 0.14719400822162113, 0.026321015356957793, -0.21782659648122843, 0.05794965378711141, -0.24147203369599898, -0.06023218836163433, -0.2034452197384403, -0.07683604452010308, -0.06017228861576665, -0.14849891712636484, -0.2612679967623359, -0.07522102475892929], [0.0056834804804058205, 0.007031261417934946, 0.08110202833879869, 0.06718403498725957, 0.05786879018157341, -0.016337446336916348, 0.03856668692837969, -0.012101499017455268, -0.14188785848232438, -0.06235818063947123, -0.10168583462787098, 0.0719075149211403, -0.04200601453099678, 0.07190922070038902, 0.03815440687139737, -0.04211324958443996, 0.27332835360240615, 0.07971010458676864, 0.15977935267428656, 0.058607109603398676, 0.009649556527421315, 0.1369059436330367, 0.03130632240397048, 0.004324218470072253, 0.12532860078977934, 0.06105473471157402, -0.055170770137425953, -0.08276836316963172, 0.1453931671256633, 0.06683285382429745, 0.061447789412809053, 0.03763283511227324, 0.14118629992353618, 0.03132644049467173, 0.0537772299972539, 0.11175359073618027, 0.07264885948592836, 0.07208662640309192, -0.10799910817590311, 0.056914931986490606, 0.00026464598877611777, 0.03183495068678719, -0.044941408875183234, -0.08094381661497727, 0.12754195083689454, 0.08255021744393473, 0.11234255652431341, 0.1510174239548635, 0.0767095314735019, -0.031594314610025244, 0.11091035158501879, 0.06985860752308828, -0.04984108431164323, 0.013983006986561302, -0.04508695558164756, -0.04740847474951169, 0.05994647912149601, 0.12466229019383891, 0.05824780484536299, 0.0630822039743308, -0.036040063396504785, -0.06073142879659674, -0.04294681672522458, -0.006860669229660505, -0.14355195219515443, -0.013417984781136316, -0.0384080927719676, -0.1824678438203728, -0.20626254168065458, -0.11200657506007694, -0.1178763900195291, -0.07783005774462154, -0.11016272355549245, -0.09489931410086345, -0.21448053153854457, 0.026591034978362748, 0.036894437864025416, -0.009887655480295625, -0.10603299347798613, 0.09034469274106095, 0.023280432535573003, -0.20834917518403293, -0.07993533039389628, -0.03775818639931216, -0.01034930718532045, -0.07122730996910158, -0.010326252402705937, 0.001886538493982943, -0.027528011873363546, 0.14039702804467238, 0.08194410719252498, -0.00975038113213923, -0.13781396481184616, -0.04815499087185013, 0.10165890886747142, -0.03213315871187288, -0.0037306841547835377, 0.1748489220225453, 0.018297846146002533, -0.12784512750596574, -0.03800617478989555, -0.018324998061900487, -0.039077066968272844, -0.11042330827255749, 0.0029916024395636805, -0.08553493071746032, -0.0524993824935716, -0.10000298697635042, 0.03202646472615091, -0.024303441914490145, -0.11632605536138137, -0.05849456900366985, 0.1369824032092656, 0.04800711918297342, 0.1318121445320292, 0.034662782787790336, -0.06775980539307372, -5.915890145295541e-05, 0.152686156050018, -0.022863971802496226, -0.05234403932915775, 0.012077634274139123, 0.027414317762139744, -0.039874699856743065, -0.027273158920378092, -0.04909688895457833, -0.1884228282359756, -0.0036689254127502515], [-0.10433958001732857, -0.08783185692732151, -0.04124233257608742, -0.04753778080159379, -0.10559518440754534, -0.10178430150828632, -0.081315019440375, -0.1280437571738907, -0.150688978910743, -0.11986836681532709, -0.01478474930493795, -0.012122421190386812, -0.06055614694656064, 0.2540680393898231, -0.06026422630351662, 0.007487020737421548, 0.0909834440381081, -0.09410392941928578, -0.07604058032870971, -0.15669633268637895, -0.24974665309273317, -0.000539769840244519, -0.006644571840388, 0.08862270068665457, 0.09899510554793675, -0.00027942201278404594, 0.07606513899242556, -0.026206378096950582, 0.017955123905951588, -0.060546525393158246, 0.012291765154531129, 0.0270752348088505, -0.15344767773624626, -0.07542822084103287, -0.09508946100270763, -0.049104155618808105, 0.02136665047242926, 0.11196787853985572, 0.010520488506844866, 0.010991787157399714, -0.10431403640837475, 0.0052511910840161245, -0.09097734289968536, -0.05142401434700219, -0.03611139532701935, 0.14139251388176852, 0.010605555281242, 0.05660640940124814, 0.022337016696155176, -0.003364032917056195, -0.015427590170196893, 0.05339566967155995, 0.07090804959244779, -0.0018765300312894651, 0.05258824119581981, -0.0627495912360398, 0.07279400232416268, 0.05163747976666094, 0.11343867357443593, 0.1429291334697876, 0.0693430970700153, 0.0859904143247915, 0.20948248237175762, 0.06350133668662274, -0.11504385996637186, 0.004807276996641886, -0.12408940900281855, -0.12999280492910475, 0.03463412811397495, -0.035371752568693786, 0.13345848193313176, 0.24010342228772422, 0.06644398241235303, 0.19432324954578614, -0.014699451936871638, -0.09615336739830783, -0.09517369181944858, 0.3480375870824111, -0.1337640237609588, -0.12908081559194645, -0.05374398011527397, 0.0034976215665799156, 0.1072105343016986, 0.07380861704526895, -0.01317939800521403, -0.024100374021276263, 0.043420718022649164, 0.015640955854387413, -0.037329723037577735, -0.12027673773055511, 0.12558314526434095, 0.023682041569004303, 0.11350259369152267, -0.052415067814029076, -0.010606714487880323, -0.1007128251897073, -0.002789822654311026, -0.08988503503251181, 0.005790791895745881, -0.005295151706727931, -0.029735925547019804, -0.014234839404635125, -0.008620370693485566, -0.005187393563509386, -0.024249298758659405, -0.0040588961234892616, -0.033197524632439586, -0.031075916483864305, 0.0418426082065589, 0.09530363863106954, 0.0714366609407846, -0.01210771730063753, 0.02825106988697833, 0.02397325478112863, 0.020847765576353414, 0.0355600826981829, 0.0017968510757908939, 0.0035497800544082646, 0.055718077594065024, -0.01921783448461761, -0.009570600709883727, 0.003659519274968725, 0.08599621321129032, -0.0018977332216753877, -0.05147668207875981, 0.04133874739618987, 0.006746223763632922, 0.020061265201836136], [0.09155469598734547, 0.05919369182448106, 0.01897498824383209, 0.05698932172036682, -0.06624225966582224, -0.021793396603396617, -0.047470688033041775, -0.00542512916143742, 0.1382164367728167, 0.06790583251899565, 0.14223946249125233, -0.0014971775855791014, -0.014429797596016425, -0.10351976058943196, -0.0250848057331009, -0.03643927806087585, -0.057828669804291716, -0.003101325430977908, -0.05850398369216406, 0.006386653836245537, -0.15957837349734955, -0.21525430244071103, -0.09604460073070109, -0.05540474176100519, 0.06935666347004422, -0.05135688173529886, 0.20502680642129553, 0.09739977825005217, -0.023006068082986185, 0.03786034867575434, 0.017222831576423427, 0.0810770823070502, -0.09156152735393377, 0.04069313606475738, 0.005730017076846304, -0.039106473130877534, -0.010873540630222823, 0.15058337814364423, 0.028343985759571737, 0.019171392938463934, -0.07426829038614, -0.030667713345410307, -0.07361917538905888, 0.00791430865349815, -0.038472528650638264, 0.13710352801072756, -0.04678775196820641, 0.06454443745470048, 0.03536874402211846, -0.034395793639567525, -0.007140745478561287, 0.06400286729984292, 0.09466619326218546, 0.037310288737905796, 0.1408441655874275, 0.1705778329367216, 0.057399399076946245, 0.024484244518430405, 0.16631859878558464, 0.10600374834778194, 0.20287438340099131, -0.013498731446445107, 0.023411521061268196, 0.10317084322887465, -0.025006250099811805, -0.07993979365749163, -0.031791702099526066, -0.014537098482624177, 0.21764678834996098, 0.2298925033542086, 0.1604346916224992, 0.03778828959673419, -0.19249836246568877, -0.15631043870440894, -0.2610799969690145, -0.06017834249389023, 0.05090470932009934, -0.23457418145267028, -0.12882077169451336, 0.03911864972581528, -0.05540687593070714, -0.04011578636504107, -0.1298157329639323, -0.016636637709546633, 0.010486649139268158, -0.0059730919503497865, -0.06466177708180164, 0.022315496634871947, -0.015685345141626558, 0.03086337229569299, -0.06279989015236688, -0.043660440069464436, -0.07947067624338196, 0.04227107279073308, 0.06128592006973025, 0.09103776740834313, -0.03546100868275094, 0.18832827006784764, 0.01555437518821236, -0.03261035682204578, -0.05035386119585187, -0.0790971947837585, -0.08375645537244136, -0.1020057037396826, -0.08344421616384066, -0.02448142727796817, -0.056991008139969324, -0.005375072075186762, -0.11052721344878048, 0.05383204718183513, 0.04652582629932705, -0.01252607813097387, 0.03251635012669095, 0.016993641832828404, -0.004316839445278203, 0.0012059797793648511, 0.06790163357126826, 0.043632848671709454, -0.09957133944786908, 0.021472597453739584, 0.06859171154301563, -0.005446951462152377, -0.05665424240434008, 0.0025264218191301505, -0.0036759417532205587, 0.008438533799892702, -0.08203639169415107, -0.04976287607172314], [-0.11009568007212166, -0.061516036277029215, 0.03833394804788276, 0.10060358255052859, -0.018720200531531853, 0.0034597718077898215, 0.06116075255376677, -0.03355087027512428, -0.0670365655168288, -0.13807416777620304, -0.14688572616888584, 0.07217552960626929, 0.018249586060135048, -0.004763174270660336, 0.007875460946556626, -0.0730681013786349, -0.15865113321151872, -0.11551734284740947, 0.09807073414536033, -0.05904727723148673, -0.1442422306347359, -0.014740648410352365, -0.038013430733986456, -0.16552216579249318, -0.21772884502675813, 0.044866960354034924, -0.043140403503305794, -0.22403790430268322, 0.08504628083383393, 0.0510834345022434, 0.06785116793677264, -0.019295779300065978, 0.34312227547244667, 0.059365370491536056, 0.14735912553768832, 0.03752969810839745, 0.08565104471387404, -0.12130615295312219, -0.0208660828798743, 0.15259025259103862, 0.007528237504640239, 0.026244369396950098, -0.10123257673098882, 0.024535991073872495, 0.017108043488265917, -0.03714980111537827, -0.06896737568288971, 0.04506571716766266, 0.05005530798268006, -0.040181088149588505, 0.13866269396448613, -0.03924609500650546, 0.12419431498597476, 0.02508215663336988, 0.03107886250753029, -0.04923713795888629, 0.05111600757134564, 0.004066411942567252, -0.00697365216787468, -0.10488324723549332, -0.030712173488518082, 0.12715926575327605, 0.14940709116461756, -0.10478356347983785, -0.021502188285534376, 0.06762702096164404, -0.0581731919269114, 0.022096088512705506, 0.06295287216440129, 0.19141739879872524, -0.08390115349951595, 0.07820480934375701, -0.002665558708995125, -0.09531211144722536, -0.0423199156995389, 0.025024719826917566, 0.2082941731209718, -0.11175311277941716, -0.020246736180209182, -0.16477479601738632, -0.09661798930354448, 0.08103042015890485, 0.025210822832727138, -0.034065095099437066, -0.07555291263483833, 0.01286860636848969, -0.04924386122939618, -0.06657500154786147, 0.09869354987279924, -0.10728109511392438, 0.015166317565467097, 0.09803619065208069, -0.004322206731519996, 0.027062537950570103, -0.010283262929365024, 0.012465738557534746, 0.04006129397074376, 0.015168769492439962, 0.0003602722641494811, 0.021392860785792184, -0.0706108780376199, -0.01505035240666176, -0.05909425528231643, -0.0334201968840205, -0.07504480400525763, -0.014349431446907963, -0.0035041320519316257, -0.09224283090067546, 0.009074707135180802, 0.2492947396054651, 0.058294627766180176, 0.0463195008651742, -0.02612274574421293, -0.015159941570882735, -0.04139269932940033, 0.03302579612571033, -0.01788487861493987, -0.0011205570128706346, 0.0014251239063688328, 0.013996837232071091, -0.04012378842093865, -0.0032223186884871376, 0.030747553493454344, 0.03458785483587967, 0.02604507321475569, 0.14634924707853006, 0.13586556500391023, 0.10874584428624295]], "pca_mean": [3.4387635420416003, 3.893494610363078, 4.041212214042093, 3.4320663983576765, 3.632975660139155, 4.30365410619807, 4.048016801838563, 4.1174782055560675, 3.8918418888733766, 3.919420920019952, 3.83078679202873, 4.187486975660948, 4.15445978842049, 2.6005313752689094, 4.299789793357671, 2.892785094775886, 3.6039745179570724, 3.0778475136400383, 3.045261877719487, 3.357391082627751, 2.4056573565318207, 2.639224593355277, 3.678768896499527, 3.093112410033975, 3.6442625355497698, 4.125680340004859, 3.123126729598669, 3.119201019768403, 3.9108078068661913, 3.5867675894331708, 3.5787013451351184, 3.4300399631261826, 2.9703139977198894, 3.316114757774032, 3.3850090217367512, 3.4832741543511365, 3.984101558288681, 3.2340073489975705, 2.770195276401589, 3.394120985548073, 2.9792202692722607, 4.060223471115683, 2.9334680200806846, 3.0490435450990625, 3.471387371727239, 3.3526404839531283, 3.17514959069613, 3.6245589948703194, 4.167305610920781, 3.0951935584857084, 3.5322313075310716, 3.6744234663303765, 3.107444479588036, 3.608408499766733, 3.51876433218751, 3.2719821696526536, 3.3684713787007556, 3.5326279431024443, 3.4022935757013126, 3.291953731641591, 3.120638640016039, 2.2224237923101287, 2.919020066974319, 3.5156399482321516, 3.2889108394072433, 3.626249550937492, 3.175821729770331, 2.92928007036169, 3.0942952964628967, 2.6993828008665104, 2.6993465913511883, 2.6690146036794253, 3.6348490009241017, 3.2279735218420207, 3.0322915049008676, 3.5381143181123464, 2.8088088618956992, 3.3121445022732297, 3.1808187733482676, 2.7507105841814914, 3.4360989016907237, 3.401736200148257, 3.3384887323061996, 3.811803221758281, 3.3937492434109484, 3.480550574922116, 3.3678541550569445, 3.454143453034285, 3.473552112337028, 3.0764515728036934, 3.506384927159715, 3.6820776499320416, 3.349739922457766, 3.52732834309061, 3.1814000691208886, 2.9809449689689083, 3.243223108532273, 2.731260270061337, 3.6064607777328135, 3.157795601205848, 3.063068754400048, 3.0737389552259, 3.0352742042775467, 3.3774370113822902, 3.0699384728603274, 3.4125958185329615, 3.2529182837388224, 3.2181433228131766, 2.9404584410870185, 2.710094797151668, 3.2125819654108208, 2.862256901342178, 3.710585699460217, 3.836276822112431, 3.630037855990579, 3.8519165168855793, 3.9506096663876114, 3.7046728895089336, 3.2434782775205986, 4.051373780052239, 1.8055655244076363, 0.2620879736050058, 1.3881828633285014, 3.580893494035596, 0.3457986563827111, 3.3267715266374784, 2.583346419328841, 3.577123404106247]}