{"model_key": "OLMO", "profiles": ["bookend_suppress", "late_boost_4.0", "late_high_early_low_3x", "triad_odd"], "class_names": ["bookend_suppress", "late_boost_4.0", "late_high_early_low_3x", "triad_odd", "off"], "feature_set": "pca+scalar", "feature_names": ["pc1", "pc2", "pc3", "pc4", "pc5", "pc6", "pc7", "pc8", "pc9", "pc10", "pc11", "pc12", "pc13", "pc14", "pc15", "pc16", "pc17", "pc18", "pc19", "pc20", "pc21", "pc22", "pc23", "pc24", "pc25", "pc26", "pc27", "pc28", "pc29", "pc30", "baseline_attn_entropy_mean", "baseline_final_entropy_bits", "baseline_mean_entropy_bits", "baseline_target_prob", "baseline_top1_top2_logit_margin"], "n_pca": 30, "standardization_mean": [8.400341689126418e-16, -1.0645689937059912e-16, -9.873721777881298e-16, 5.075898164921743e-16, 2.6053925372278206e-16, 4.018203215643922e-16, 3.2570000694377254e-16, -3.08035009752891e-17, -1.3052902476434085e-16, -1.072869726600385e-16, 1.2331776306233632e-16, -3.608743625837658e-16, -1.8157853206486204e-17, 7.364306464744905e-17, -9.317896921335608e-17, -6.101038677379365e-17, -2.1854273323520897e-17, -4.819613036807338e-17, 4.254125608376768e-18, 7.016713274792169e-18, -8.762461161644343e-17, -1.226952080952568e-16, -9.649601989732669e-17, -1.6736352698321286e-16, -1.127862082025743e-16, 2.3740096077965963e-16, -1.597891082170786e-16, -4.124426656901867e-17, 4.4097643501466497e-17, 1.2357716096528612e-16, 2.5141028037383126, 4.451775700934578, 4.24514018691589, 0.2517196261682239, 1.2435140186915885], "standardization_std": [14.819033902441966, 6.171696047936945, 4.316730093059281, 2.4816593853951696, 2.334414415810409, 2.3047888223620916, 1.8735651358471235, 1.6755312228076622, 1.658366332999115, 1.5952802190837378, 1.549646560192015, 1.5070593508240058, 1.3813876545987906, 1.3133379283066708, 1.2323698333366107, 1.2028954066816013, 1.1924582730452353, 1.1447885236809, 1.1275708763455379, 1.0647216447836234, 1.0520493433157954, 1.0189730897912876, 1.0055029918460274, 0.9868157257030818, 0.9628796767075706, 0.9437116899304644, 0.9270514137219654, 0.9160959794705781, 0.9082619208254954, 0.8767660573511316, 0.9006332604369135, 2.1276017884582337, 1.445463780623815, 0.28352460521856904, 1.1338281806611714], "weights": [[-0.25100490255009555, 0.010408290804755947, 0.15818570141587912, 0.04139534894949609, 0.04101556137996457], [-0.28146200070401467, 0.03184612853825837, 0.18591698675449758, -0.013623486818102491, 0.077322372229362], [0.4604891549282856, -0.41115725871263664, -0.32001593143309814, 0.548002313077138, -0.2773182778596897], [-0.17897687824066497, 0.2334489979978809, -0.20098181443296778, 0.13686410243740307, 0.009645592238349113], [0.2995153152317958, -0.4101236713564947, -0.13642196207226595, -0.08168337272287467, 0.3287136909198378], [-0.08364923588458593, -0.051385908799895935, 0.020802244672556907, 0.09039320916702244, 0.02383969084490233], [0.00478171688816859, 0.0323341978395374, 0.025156267507312556, 0.08912065042004635, -0.15139283265506526], [0.08195168108763701, 0.004985217445028679, -0.10981713074885448, -0.15661234344664407, 0.17949257566283341], [0.18444339039793237, -0.3218110918772036, -0.04546289679929835, 0.028513243741984346, 0.15431735453658552], [-0.018413002906518018, 0.12435353865515586, -0.08769395403903153, -0.05588393111454587, 0.03763734940493901], [-0.049909167749682765, -0.20949277594869725, 0.02291824703196823, 0.1051654375208982, 0.1313182591455137], [-0.01574550486145331, -0.17042967990816985, -0.20252667683085437, 0.38059552874770713, 0.00810633285276963], [0.3272870443203651, 0.0331391043975242, -0.08756788041483296, -0.1788740917345537, -0.09398417656850169], [-0.15761190356548702, 0.0018012825942652487, -0.04913192553047834, 0.2195214432048031, -0.014578896703103052], [-0.17546805388754638, 0.05821674522609468, 0.09836490028157811, -0.04101180761980748, 0.059898215999680565], [-0.09327853439477549, 0.008198072498020953, -0.10021900105003438, 0.16293519321843516, 0.022364269728353838], [-0.07104377699642897, -0.09730010097299903, -0.04497294283060258, 0.15500780744723913, 0.05830901335279157], [0.07393166345198793, -0.014260359277464942, -0.08884910577194614, 0.04554020172667884, -0.01636240012925546], [0.0816943473611819, 0.06449982965874884, -0.019349188203233864, -0.10550690223758803, -0.021338086579108576], [-0.03592990140469625, -0.16234759427282863, -0.04207600240039328, 0.11460409057593894, 0.12574940750197958], [0.0914961869484137, -0.07174550728449226, 0.3709869254892472, -0.39807792305238154, 0.00734031789921317], [-0.10431060151610436, 0.07855177947638838, 0.0019016798663562338, 0.0046854529434292354, 0.019171689229930348], [0.007875048397421496, 0.071285969162793, 0.10744559803204429, -0.12282452755781957, -0.0637820880344392], [-0.27572628617934536, 0.11738459230877443, -0.021840308361092794, 0.3146216331281509, -0.1344396308964853], [-0.10372431682072578, -0.004764800265664602, 0.10875399676902579, 0.07017464385883425, -0.07043952354147005], [-0.12983417265081967, -0.1488468740087383, 0.1439552691421951, 0.1152317511175466, 0.01949402639981647], [0.02487658090885579, 0.14037118508908933, -0.09431046567136159, -0.0008626360149095268, -0.070074664311674], [-0.140061145717814, 0.10695811751183926, 0.0479877243634827, 0.19716977267433175, -0.21205446883183957], [0.028982987079900564, 0.06795308384909655, -0.13921502812982162, 0.05696195350262324, -0.014682996301799131], [0.017632304185991963, -0.20681421377230352, -0.12588707051672443, 0.23981964221072252, 0.07524933789231372], [0.23699942552190376, -0.012087486086797643, -0.14364158941983457, -0.05604778302657705, -0.0252225669886939], [-0.07055863341732824, -0.11958464747776575, 0.06437741158958003, 0.1670505124786103, -0.04128464317309649], [-0.03315534944948051, 0.028140266308741363, -0.16603099379794564, -0.19552013121269785, 0.3665662081513827], [0.20066069662994077, -0.20320425427866062, 0.02942063721202521, 0.6611122955081072, -0.6879893750714134], [0.22261624488521284, -0.006824348981112561, -0.12432314228151693, -0.39554878398706195, 0.30408003036447806]], "bias": [-0.12501380903360476, -0.11582675307747432, -0.11345894103457287, -0.395751668505969, 0.7500511716516217], "pca_components": [[-0.0899176721333671, -0.07578494777233702, -0.08572638971881488, -0.07188872571085131, -0.0841487623806221, -0.0821571470066209, -0.06593207888191004, -0.07423107653587496, -0.08017963959174426, -0.06246008499558996, -0.06438223211681642, -0.06953563601423207, -0.0827647588375759, -0.09560540068156714, -0.052352573441582326, -0.002442060029832892, -0.0193267887458784, -0.0587384835543582, -0.053005257796847616, -0.06635235633127268, -0.07805976755465563, -0.06584944252166092, -0.06260525624944441, -0.07739635129411211, -0.07331354997842596, -0.08450193272628552, -0.07065330346638533, -0.0708911210297976, -0.09168340631661344, -0.09152420521505392, -0.056164794898756025, -0.07165700510566372, -0.061078050371299354, -0.10534713727550891, -0.08956106148113205, -0.05353537130450169, -0.10135339003063484, -0.04820278151355885, -0.058300169198843406, -0.06056762231585613, -0.06416472459393514, -0.027255494823176137, -0.07911156953457943, -0.05686023054696039, -0.08052068766026794, -0.10123668799965413, -0.0668414031194301, -0.019573073679000883, -0.055274571528654684, -0.06157365712086038, -0.05766318610760954, -0.0877495935168083, -0.010427660555604769, -0.051121378424829764, -0.04503688517600592, -0.05924884988910055, -0.07376112613047293, -0.08418167534587037, -0.06327431231013365, -0.08507547007696599, -0.06523598236888412, -0.07516524516368488, -0.07569034282152301, -0.06816268500744309, -0.10376546338580846, -0.100602855028356, -0.03943782400416515, -0.05028160286725715, -0.10168742019873041, -0.046293902676307765, -0.08053093708338765, -0.046546536635572525, -0.0764720598568728, -0.049036832197416474, -0.06098677124929988, -0.044856576271301726, -0.06859881740086485, -0.038179832546003274, -0.03461020497744263, -0.06278285124503812, -0.04284889379949567, -0.020024345912192338, -0.095880920623271, -0.06190621008691234, -0.07911005063398935, -0.10152329977196171, -0.056203461271975105, -0.08233211116042355, -0.06310868949791144, -0.10130421654993574, -0.10660468531926252, -0.11346849701125751, -0.04153370344300478, -0.07567800363956664, -0.023209303360817366, -0.06249917246999676, -0.08616802091188405, -0.07051830390620868, -0.09162263179509725, -0.0630336297841963, -0.03811464089003834, -0.03918891453254385, -0.09010946316283056, -0.04620329328359999, -0.11322724066925793, -0.09560327889155926, -0.1020089116737459, -0.061963661071117976, -0.05388270410315778, -0.07047268076139089, -0.06523091273050906, -0.06348480244989986, -0.02055453543044062, -0.04012766429421199, -0.04007085707729035, -0.05186339455782121, -0.05677080191509349, -0.07585625463490409, 0.002467336348173682, -0.057232262512646674, -0.08996237658106677, -0.060798837431857274, -0.059282207299954315, -0.07432234779745583, -0.033755854200514315, -0.06147464523239251, -0.061514431446672034, -0.08096609539415192, -0.06113595520101506, -0.03751679453793291, -0.03533908104380726, -0.03038324428320334, -0.11870151505386507, -0.029343116029067456, -0.05341475055050031, -0.0657913821785632, -0.089108257700521, -0.06775905881834982, -0.10564385774316641, -0.031163283680120994, -0.013572817783173994, -0.06858960650600404, -0.04931516308549447, -0.07892137997978568, -0.07531320570681635, -0.029991695932018177, -0.06998669086243153, -0.05137750623386567, -0.06868885733381407, -0.0563493195618486, -0.055712852343320886, -0.059368898403825164, -0.07952985477377275, -0.06220109899240868, -0.07088877869508936, -0.03350605293738296, -0.0758664958647165, -0.07395423997575581, -0.06931839398247797, -0.06856809629719901, -0.023534444213895486, -0.05745852598377943, -0.02600483889348915, -0.07496657926565282, -0.07657216298316231, -0.07619128510410686, -0.024714038797178258, -0.043782594336741726, -0.07612188977768118, -0.06787835885610831, -0.11620423155978744, -0.07135333619582418, -0.06151605677538923, -0.024264649236546025, -0.018775073199557006, -0.0485449985285754, -0.030344874771533026, -0.06152727569087978, -0.05197854634497419, -0.02538723490589602, -0.04665914956163866, -0.05359330186977178, -0.049581865169325834, -0.029292239970327857, -0.05562339209089892, -0.05938958178482839, -0.041464618698396204, -0.03644259660126164, -0.05324197496267236, -0.06809799094964233, -0.05438475179711324, -0.10186707247984296, -0.03451976367076395, -0.057675863738712356, -0.0673855217664135, -0.03462414942559831, -0.06450135486147025, -0.0620563634792117, -0.07030151526304333, -0.031664697958733966, -0.059022178820907066, -0.0361299675472147, -0.055617990372755936, -0.06244108224483999, -0.06341183623562495, -0.05066394148487524, -0.024816318792056327, -0.02590640381000759, -0.05934047439850732, -0.02691653302132252, -0.04284476561042396, -0.06322118685433585, -0.04380130774745712, -0.043660535858055335, -0.08049177375418493, -0.03888988209273916, -0.03150074821439648, -0.04881342497164822, -0.04376260152037733, -0.047967268113178356, -0.03209022628551153, -0.048687558644988305, -0.06901758246892045, -0.06196029867269843, -0.038472053508831164, -0.04584790166024075, -0.03940524347761142, -0.0410427539800983, -0.03759208015524132, -0.11159648890108019, -0.03253230673622768, -0.0374335336329039, -0.028433948669299006, -0.057445832549185845, -0.0732985104254927, -0.0603170125475308, -0.02722859180918364, -0.06419363255023686, -0.0473086598975197, -0.05871619661409735], [-0.05146230522428063, -0.05915401942726528, -0.07402488559748632, -0.02029034799184193, -0.058416122447983915, -0.046424677063990075, -0.04418653505908045, -0.0431454634563445, -0.0525931458513732, -0.05228977625393391, -0.02766933833012564, -0.05123278460478123, -0.02712785608229682, -0.047006847504576774, -0.05418755013714352, -0.00663319944674662, -0.05851099707380207, -0.05605490144336127, -0.03885788025662836, -0.04396869872206957, -0.020061479546324548, -0.04669303428726436, -0.04231843076151569, -0.048884931070807866, -0.0347571633344838, -0.051565770818102305, -0.02327749867494766, -0.06028926005146249, -0.05327713807301756, -0.06881916192309626, -0.02563257840423719, 0.007223003742182136, -0.028881967571325325, -0.06986810081947757, 0.020794904516755978, -0.009293270744453793, -0.06627592784390521, 0.023713236096488528, -0.0019961791075645496, -0.03511944520222513, -0.045460837944804044, 0.062028876769863094, -0.043602072940035874, 0.01093059771828619, -0.035291240126352985, -0.07164507811200162, -0.006898562127321169, 0.00400505697818966, 0.03015482907769276, -0.034220979519575374, -0.018725934250700852, -0.028991634895338795, -0.006843636257197907, -0.014359765800246635, -0.014713626286545513, -0.013716060051793974, -0.007269218050222873, -0.0449422578630345, -0.023632342902527866, -0.007909346939797748, -0.040419966631130635, -0.012781653618671823, -0.05227256050255218, -0.026761463133154705, -0.07425667676403239, -0.07151431500721185, -0.030313818442058035, 0.08936775591711009, -0.07095744283176425, -0.03660339444094275, 0.006490691380350617, 0.11110969520061559, -0.009688740648967497, -0.021911810978763716, 0.015189466406928807, -0.020128369801419035, -0.04201264460281041, 0.11545649587378688, -0.03497723827429197, 0.017324760446087707, -0.029960159049047412, -0.03443953856393637, -0.06315453708468753, -0.013015022508796603, -0.01331920075130009, -0.07174204309474616, 0.08537247720789017, 0.0754856605618601, -0.019615635319229538, -0.07005063120900075, -0.07273865547596704, -0.054802316130266975, 0.10676778930574297, -0.020832875963419338, 0.14149372526468093, -0.037166385621828855, 0.013854179243229884, -0.04083432051579961, -0.027987196782736787, 0.12842875241358337, 0.020454746380000947, -0.04728761255977929, 0.04767539692010668, -0.03698260438336093, -0.07955484415206805, -0.03188571614559535, -0.07065931037587285, 0.003176327675320282, 0.019620567419616975, 0.02154433332635069, -0.056070628300136725, -0.029347926851762494, 0.14010811188733546, -0.030669708256900255, 0.14587382276235628, -0.0513325714992926, 0.04843421975144526, -0.028724970781993233, 0.11478903393159541, -0.03826461654497017, 0.0359784241933982, 0.03020715305464133, -0.031169267791041077, -0.04182636310733879, 0.13084386136992313, 0.03575720425595917, 0.05298142379128909, -0.015644925758321798, 0.046569240622839944, -0.03391304160115277, 0.08927722757162196, 0.14476821027180808, -0.08175116035232549, 0.14678327933391216, 0.027631598093641935, -0.03272507575441814, 0.014964794581995539, -0.023647371549813213, -0.07389782137809492, 0.13862415673456213, 0.14194584432637156, -0.03552150713565884, -0.033392701095343896, 0.0032826507002835644, -0.015273878108009007, 0.12796698179288718, -0.021453107581605325, 0.08451534132147899, 0.004694534687955513, -0.05044853798041347, 0.04905139701629673, -0.010762484210740783, 0.0792003295525597, 0.04867337083156069, 0.011199542102210054, 0.09386607457077607, 0.029033409089885727, 0.028661831365247914, 0.039350917043864314, 0.054522471415906854, 0.15173465907123834, 0.010447008789680958, 0.1110411470705514, -0.025442309981131322, 0.04399356316728228, -0.010733486776300722, 0.13343143310580802, 0.08466566383146208, 0.004345206816286725, 0.02219104687930643, -0.09428074755704857, 0.04619330053726113, 0.011897844559085215, 0.12231987034825498, 0.09492692195262281, 0.11038747706593934, 0.11152506584687943, 0.018592164557813824, -0.04358695003268877, 0.1350915292467856, 0.04215612465636689, 0.0423855545833377, 0.07662056719488927, 0.0931631396798376, 0.03614416041739559, 0.03186521452351974, 0.08384888681621476, 0.09882867223196247, -0.011778371019746861, 0.03327987859614924, 0.016858277435185615, -0.08173168692991072, 0.03862469156943462, 0.035448087043003035, 0.030813664959050337, 0.060721332079482895, 0.06407363782717049, 0.061257616185472555, 0.025082161207792535, 0.12478776386389134, 0.050794150192634564, 0.09222385287039102, 0.04330776591912646, 0.041860710966183975, 0.04040778530890791, 0.08754884639962716, 0.0865895069996095, 0.14726956727859175, 0.044226972584537914, 0.11598887970132027, 0.10233736968695344, 0.07002215575132581, 0.12418576383054504, -0.005832206968332309, -0.016050179361296026, 0.07086584204362396, 0.12748613438998482, 0.0760084660975434, 0.10891632608765073, 0.10086351760490264, 0.08900468656846623, 0.05836111533623936, 0.009048596378533528, 0.0431513885960954, 0.09155372436159309, 0.08673799733072171, 0.04924309669336128, 0.09887610530796599, 0.10079133186634118, -0.07242689165158228, -0.007678734920891739, 0.11132514158391729, -0.008375563635758941, -0.0029530420108846503, 0.0676132353202281, 0.053487085227023334, 0.03866323508511772, 0.1100904907817399, 0.08989915772741734, 0.04225339360429197], [-0.15247708106768224, -0.054377478019886294, 0.017344050686007084, -0.05327983291261168, -0.061351527346119816, -0.019009279642059812, 0.019112304561480303, 0.033257043801681825, 0.011842268740252375, 0.08533045083076725, 0.042925786771979946, 0.0227207159007554, -0.0697579854295051, -0.02148714278926831, 0.11698003892468566, 0.006739346050048598, 0.1266566667038879, 0.08693284085499114, 0.040832575605026684, 0.07896332984325903, -0.2961640664967039, 0.10334978885038745, -0.11799838248458856, -0.02258580127920527, 0.04094584907282945, -0.0011018256985462784, 0.03306211587602726, 0.08397157834336146, -0.018876530379535038, -0.014738924620342231, -0.019890490857433583, -0.015195576074425721, -0.06661628167355023, -0.020415139722496263, -0.051916087538213924, -0.01627700073797026, -0.037936159841779026, 0.0817153865428977, -0.08484870081333622, -0.08685240185494017, 0.061606395560407486, 0.09205266955911956, -0.006894053653799568, 0.023706645526494027, -0.012961566809943698, -0.03804487310646973, -0.00574945994884571, -0.019209922893369355, 0.04367916336384666, -0.03083880834725235, 0.015433043595081391, -0.056012886032617275, -0.05778713517096516, -0.0698328128173181, -0.07021649589034062, 0.03353146550598438, 0.04456347204958024, 0.0031445994567513877, -0.04107514417692707, -0.0872099423501977, -0.018439716843051592, -0.07157071325537859, -0.09579238363038581, -0.021533124002081485, -0.03449976288564043, -0.036462781047051675, -0.0326243866334444, -0.035247386391265234, -0.042590737043580455, 0.011904238494972356, -0.047310726688680624, -0.02048786072062402, -0.0031500645321385903, -0.09909517231437591, -0.04279310594814585, -0.04884063746210512, -0.033571099347242915, -0.0006435382110044171, 0.0476745737604305, 0.014680037861816323, -0.07604927405194552, 0.05988042716519435, -0.022174119709198966, 0.005642858322751515, -0.09509820194084682, -0.03761850959547875, -0.07621704128242358, -0.046685732117973125, -0.06524093475147572, -0.04837248328266167, -0.03191413012951564, -0.05732855948589237, -0.07039341331441099, 0.038264894384834554, -0.03672940667777172, -0.0007326183927160359, -0.06259915954526407, 0.027999275366291442, -0.1127494885083738, -0.056013960816517695, 0.037514002470601195, 0.05546169646204423, -0.04219601706587372, 0.08959438724573823, -0.00469604920009512, 0.009235714759283283, -0.022168984832763344, 0.018485862734548126, -0.08209909202892827, 0.03075529684422432, 0.060411322792851704, -0.13740162613244167, 0.006846439462661527, -0.00512308685094579, -0.04277397329523367, 0.09910511229251064, -0.14169435651467752, 0.01856924837465524, 0.0005194276822312953, -0.00039554971415595137, -0.04282364870912384, 0.07822850195419646, 0.07169569802819821, 0.06433578926216554, -0.020880037463236228, 0.004164407632197615, -0.13116007934624047, 0.08776437514056148, -0.0619517371215992, 0.05672265351676956, 0.0007349012559761328, -0.008527381297861694, -0.02427336087505813, -0.014045340276483211, 0.011689453691711014, 0.04257263974697005, 0.11023493159345783, 0.10082293743036284, -0.03511403071440353, -0.005143969150226823, 0.03561303057505054, 0.05858851318937285, 0.037830549691899175, 0.11777533092935855, 0.09860603811144339, -0.0028580890663099435, -0.0034357383529705103, -0.05289459876300288, 0.10760674242760357, 0.05198620484078963, -0.024111509244384693, 0.13446128795142054, -0.0008665987496607781, -0.037407043702093856, 0.02554320907741496, 0.04517453574461504, 0.07285661577669238, 0.0744878015022344, 0.09408111307362084, 0.04834966191587303, -0.005836578662393584, 0.01886637274546132, -0.007395102486901546, 0.09009759031238125, 0.040291084729714426, 0.0855255600787422, -0.0029565856849541557, -0.052675228324069, 0.07073922690536172, 0.12929676698092754, -0.015104937719445892, 0.1008647438206778, 0.04873548893828422, 0.028506246741255868, 0.08394399209811645, -0.01733429423588274, 0.038852172775997285, 0.12743897746024704, 0.10152635266686831, -0.011739978568871675, -0.01921033044337728, 0.08839896877941238, -0.038902042250491035, -0.016665273611226106, 0.09727955049850001, 0.08423528248622252, 0.08114334611398591, 0.054395399101662516, -0.011360464479444558, 0.12675342064979225, 0.049459834960900735, 0.011716163920406296, 0.023901237717780827, 0.08428929370799451, 0.09332330260196178, 0.11010140855440413, -0.00804868336297112, -0.05626951641787369, 0.11190458381243074, 0.030295090431302962, 0.04761470071876764, -0.03142772675475082, 0.16095310114242514, -0.008577626874208592, 0.07352958420214947, -0.05943893063211025, 0.04210791687403153, -0.0027345438133009963, 0.0841993260268458, 0.011135759676259415, -0.045987448667076214, 0.038805246323471085, -0.06492395077312016, 0.005511658009850052, -0.03822395871711372, -0.011581776535891562, -0.016261210554544794, -0.03164447993944726, -0.050648360375970786, -0.04407206457284357, -0.005800403688048053, -0.010101733827968083, 0.08225770752294193, -0.03670100856435763, 0.015785337091218144, 0.06262877626904576, -0.014268982807503081, -0.04212724665110247, -0.006620657674948429, -0.03213663338821243, -0.08111602825848607, -0.009417428363730438, -0.007066398603838199, -0.2433746463488281, -0.029803049254644613, 0.08042326234356532, -0.018960758341990035, -0.07331316747259567, -0.01793628009754919, -0.008488087648609732], [0.016033447549276502, 0.007121021197373682, -0.024177120131102493, -0.11092882889794935, -0.04158509335511329, -0.012246997338637738, 0.07026038488822223, -0.15217332857994592, -0.043360482966211755, 0.04186319978684733, 0.054093438786011985, 0.044783109565496, -0.0695901698508762, -0.03605391367908198, 0.021363956869315515, -0.05905196734122024, -0.021211063751994896, 0.06509765186739705, 0.07832764376163578, 0.06217401744361636, 0.01342555885289089, 0.028915676033541865, -0.03894069437595238, -0.03675671351362121, 0.10713448551259068, -0.03500405764417088, 0.009322441506296101, -0.006409879826770646, -0.0005044695558310624, -0.0023295897350801703, 0.03241277580845973, 0.015267574590079276, -0.003260916653741936, -0.03388601375811954, 0.06580496102375478, 0.02585670822115367, -0.05034289758453082, 0.12024497003903094, 0.05224306162542034, 0.09079540669246969, 0.07351947773408961, 0.13407542711767767, 0.08275943236657697, 0.04647305202700937, 0.014908367617857398, -0.039846799952816474, 0.07786994522900521, 0.2186473518567125, 0.06620675592864135, 0.029215046502507683, 0.06591239381151763, 0.06081470751370561, -0.03038419528133163, -0.1915867955628873, -0.05053377059398805, 0.05046890169017238, -0.017430583350223745, 0.05216204133731024, 0.026504730257515402, 0.06567093106102648, 0.08020443062910788, 0.10832055831296424, 0.13615721841723086, 0.12287291591875721, -0.03700772049866557, -0.036040154890913015, 0.12199788147056977, 0.08414429744509895, -0.03695940789684516, 0.05356319582316779, 0.055175298225202445, 0.07205239862192742, 0.08040906625800673, 0.04811674107790043, 0.08697593647816255, 0.13753925072156703, 0.060777177224194213, 0.08486454355684009, 0.09499254293681503, 0.10324414655264702, 0.11792577272605483, 0.09320031580255328, -0.03268775589416637, 0.028290635699870694, 0.10585858016713774, -0.03930545349666559, 0.12581776490271984, 0.003962930163888624, -0.032260377685401125, -0.05287638419602175, -0.010223047030559219, -0.05314785745663083, -0.0015661772103801924, 0.04820947019211188, 0.06764894745963539, 0.02081614891148207, 0.09963316423553487, 0.12291080544070575, 0.06797198932333937, 0.009732285732438676, 0.0599031840365554, 0.05623552562896733, 0.021473169942981526, 0.1524077145418244, -0.024654751479936277, 0.03100086355492406, -0.03962137648750653, 0.074936006173607, -0.03518788767679072, 0.03570785273581691, 0.05009625502510378, 0.04296186362903613, 0.09362785530648908, 0.09536117599808987, 0.04151619246908247, 0.07309444196266088, 0.012271835463113924, 0.024290775773996805, 0.10219487679691426, 0.039217324947411834, -0.06947449754967078, -0.053616829811768775, 0.028080133282074954, -0.03982553979929623, 0.022643500853890372, -0.008729667175567637, -0.042958513886244845, 0.03350488158001488, -0.056849466552401216, 0.026605341197889786, -0.020084903116183318, 0.05592491465011639, 0.020084421423618926, 0.05650450985040951, -0.045238234359980534, -0.03313904701848462, -0.02468172059207872, 0.02537754422492468, -0.031118658809863798, 0.06108621955404587, 0.08167960289964524, -0.018399280015453302, 0.004513163940034543, -0.05748659790083603, 0.008060025629442795, 0.053505746760251945, -0.04149269264154937, -0.04717251845207956, 0.010076588769935545, -0.0021382635368538674, -0.06960464442404596, -0.04706928309158151, 0.012516758344788664, -0.06153188640921536, -0.12050127547509257, 0.04468263556393484, -0.08493382380609214, -0.07890020520751757, -0.12286872278457038, -0.1581802356004961, 0.060343892794458155, -0.05234091338493569, 0.03789267785189497, -0.04579679373379484, -0.10852237159185124, -0.014012125581362684, 0.015076931079360463, -0.004276207611184431, -0.02652537882375535, -0.0659726974963136, 0.00726188424125032, -0.13613638401293743, -0.019167892594382067, 0.03336747979588378, 0.01565555579637059, 0.002232756511677828, 0.08863999148623376, -0.09524908868733711, 0.021721044408877805, 0.04730853869863581, -0.1336374282266871, -0.07571535689638778, -0.0541125639196074, 0.005486483908331679, -0.0023310537671295127, 0.009820955239166344, 0.12191610493620478, -0.023115172791525865, -0.1165152070236775, 0.0016204337613869846, -0.00460361870515225, 0.02568739975779833, -0.021413054049353508, -0.007240679919826697, -0.0168126659286771, 0.05709366553810632, -0.09080102863624964, -0.02259441759529598, -0.011377263272235191, 0.02266837963776796, -0.057100663791601974, -0.018007353971792945, -0.06868990684536067, -0.02237496142078902, -0.01882424470860207, -0.00976654870174445, 0.007036510988194245, 0.04308881000822409, 0.032942575723133236, 0.03185068152491425, -0.05421257084222592, -0.0606773683844655, -0.03024700338064315, -0.0037261750808879964, -0.10504982849703007, -0.10412858819477216, 0.009409721378033118, -0.08638920032366489, -0.043366089279014974, -0.031390875706724775, -0.061300923717478285, -0.030607542771304404, -0.05206553979016191, -0.05972755861971302, -0.01478635736365884, 0.022778123115254147, -0.05458813292785613, -0.029032658474982317, -0.021821032692232376, 0.0036955391793590045, -0.07090918113023921, 0.010174583278536662, -0.0643177447892263, -0.077160872178954, -0.0637504432580968, -0.06392563518069246, 0.0011838648988406087, -0.1327410229709312, -0.068193558275728, 0.002345942305291002], [-0.04995339720854684, -0.0344357264647929, 0.06798335980378963, 0.06939899614450734, 0.06602671436700197, 0.1012067561734813, 0.023589529406146892, 0.23686909146340834, 0.028884806517310402, 0.06372804176230665, 0.028047657663731407, 0.09218020055554749, 0.06476047434116303, 0.05157479123171887, 0.030705260686404754, 0.08781927841394759, 0.07030819479984604, 0.11072582013840405, 0.028999678598885453, 0.12475619935925693, -0.06242494107177601, 0.12702572373204019, -0.07172950021282595, -0.03461781588452218, 0.012779041435476235, 0.023309344726486624, 0.10093914986017083, 0.09904162658601051, 0.04828019505315893, -0.0241921941835587, -0.05291866970223598, 0.11636480631657434, 0.052497608245374375, 0.023497392058371827, 0.13786226873798463, 0.1824686480138977, 0.0008222200815957977, 0.11786502781199949, 0.10041895014711094, -0.0426890225072815, 0.03412851957440985, 0.08924735108587796, 0.05914948020809716, 0.13387968348154142, 0.08111517657024288, -0.026717214035435175, 0.08915538514322155, 0.030470861511492895, 0.09712545224612715, 0.036462932385428526, -0.00267286435635509, -0.027903673881211715, 0.07697171384329403, 0.16460333306187705, -0.01057147867862326, -0.032550376881183125, 0.19883270564431624, 0.05246498239902132, 0.06522674299162123, 0.10337167515591396, -0.007889231995274734, -0.020398159995696996, -0.020573684393628038, -0.0506653360804446, -0.0011327584640744698, -0.024378921703108226, 0.05500637840079967, -0.010338807956940777, -0.028300181570224996, 0.047026900627036336, -0.058314237973858644, -0.013961437515010132, -0.011493554271092152, -0.023071438837501727, -0.002507324358976543, 0.007864954164734362, -0.003928532562418399, -0.07626458611078227, -0.021174922090537857, -0.04478576449017124, 0.05248642617680346, 0.004740442135424616, 0.0016167585537175337, 0.009725514717153255, -0.048544337915396904, -0.02267087786235982, -0.10132300839823419, 0.03572192928661522, 0.033498095891183924, -0.012256539642252078, -0.01583312531465245, -0.08745842961190803, 0.03876538222311932, -0.06505155047651577, -0.04323866100890984, -0.023592467131785397, -0.10986195292475645, -0.046994226404605745, -0.025417340681800897, -0.012018993328128611, -0.08019455834789059, 0.011828266572467609, 0.02133716680480436, 0.0005216534536574859, -0.015995956792513907, -0.08015313887866521, -0.005018914269515506, -0.024154421828402065, 0.012860879161947678, -0.006725624065364097, -0.0008676149034451626, -0.04176212213468556, 0.015611386435783336, -0.011683727693214739, 0.02423679297712784, -0.049914760309981314, -0.006660980906388118, -0.09437603042479067, 0.049470283671694225, 0.025296912463815484, -0.044976721112921295, -0.12198115894514154, -0.07381994385695016, -0.046884867172438574, -0.019920793301702575, -0.011846563049004619, -0.10386889417427943, 0.022175799317892438, -0.08082161609539795, -0.024894552323904792, -0.09683150406160682, -0.008922079520347669, -0.021708550070225267, -0.02664707416958493, -0.008945816577241247, -0.0843550469117287, -0.052192633657998845, -0.10599494617958258, -0.02590818940313594, -0.01752664722310082, -0.005398666954627517, -0.014686131770885204, -0.041101462703555885, -0.13859468964243044, -0.10231034999923894, -0.022532521629796107, -0.022227254374730377, 0.026800763948796668, -0.10020828390494527, -0.06533403056834935, -0.05030067743152603, 0.0009470029614561149, -0.21836905758046152, -0.15753878557328374, -0.054353927584537165, 0.0736212605061254, -0.10596108646820247, 0.03122440054093233, -0.016476470042813617, -0.051728941998663035, -0.007653594346407933, -0.08624733875581335, -0.0014062285089162083, -0.06887640582853048, -0.0822123055390878, -0.06117145604213454, 0.0005831958516006374, -0.026437076946170965, 0.0029872106955824928, 0.029094841433457145, -0.021322087533783403, -0.10003861981509231, 0.016262125234283144, 0.015010587531171946, 0.019813655578889117, -0.08759678882799064, 4.467606834250109e-05, -0.09769813538374206, -0.008811921263428153, -0.008880580446905357, 0.03767092964295531, 0.055961347799385046, -0.010956058315809356, -0.018926730436249574, 0.040945668437944456, -0.0224243925721468, 0.03452777002241178, -0.008676865979937175, 0.006838092243816538, -0.0014864033569085531, 0.005776814527045489, -0.05941377785278947, -0.004460921600675165, -0.03575102837027058, -0.0460601904247172, 0.07475763513314247, 0.04119677070164086, 0.013980837734192777, -0.02115001666304562, -0.0007496615911961096, -0.039227618132732484, 0.017851439098778038, 0.013503701203030672, 0.10723657137696865, -0.05246981989084041, -0.1046256779737916, 0.0389976146056261, 0.0011160646183662167, -0.010160151885339181, 0.007951818318278852, 0.07151683360721288, -0.04090098244492416, 0.1021863374808961, 0.0499697211828346, 0.0771060813685348, 0.06463221644375655, 0.049994609529570994, 0.03776204123757458, 0.10722172397187332, -0.00027381769110413994, 0.09834469183616396, 0.0542649276588525, -0.007890549589713159, 0.05069755565975967, 0.05867663422594402, 0.13833385734926154, 0.09689351394078775, 0.10032581227599971, 0.054896819684308366, -0.02798588348419276, 0.06749769444505661, 0.014675611235698743, 0.016029519139783528, -0.04556622352265806, 0.0008451300199129053, -0.05709860551569855, 0.02235200663879592, 0.0694136951869261, 0.014211048767932825, -0.02226217478927629], [0.024349364517068803, -0.00048818659117003333, 0.052483228107075744, -0.10754583238598694, 0.014862093178207747, -0.024798241158807743, 0.021657744545580226, -0.08426976755484565, -0.01816427595991879, 0.031444142248608184, -0.024946320697975533, 0.041583058743497436, -0.09270792998189886, 0.025910979225987632, -0.051085726437583676, -0.18580178606473166, -0.11407711601505029, 0.03343828943778047, 0.04795842403244963, 0.05878879450818412, -0.005110687390707618, 0.03355456883660833, -0.02770108554845001, -0.016512092363819553, -0.00677386682843529, 0.03184799547765552, -0.05225534010011647, 0.0031774566701574174, 0.028369329734234137, 0.08578748732033552, -0.1319924363784831, -0.10911281916322223, -0.034940637127048424, 0.06884838761571482, -0.08043859976375185, -0.0696370525889711, 0.11133790539176881, -0.048958408043223045, -0.01948726923574436, -0.0005980034821644376, 0.0026913224950684735, -0.12308375302971922, 0.04216547727483595, -0.05634855145048627, -0.036201651993263494, 0.07534842775791761, -0.0772976692932534, -0.13528797383511287, -0.10578877039628513, -0.07447014396254432, -0.035614783914341086, -0.029135530631638176, -0.06670916767816626, -0.22065415484939235, -0.2275641884489147, -0.08649889375584108, -0.09791704886282168, 0.0003684656742707651, -0.013044748989134195, 0.011827825589840187, 0.04867188306957828, -0.02890464076662418, 0.007328604970898507, -0.02969863967681308, 0.0850367517505796, 0.07556661971316925, -0.04492743156513851, 0.017187254076879748, 0.07984002855360967, 0.0350209135065747, -0.15496060267234354, -0.018710634412901425, -0.11936731209071065, -0.11181514006145282, -0.08528937297986473, -0.04423174163392261, -0.0863850296534079, -0.056599513261315466, -0.0805986825579501, 0.01822939346354072, -0.09044209840304027, 0.021074511400161457, 0.10289428303880271, -0.052040570223304064, 0.05342534264997245, 0.07485577924511785, -0.05964377331692343, 0.029396014681762592, 0.10704139424633634, 0.07596980780091842, 0.05531878373850435, 0.07225855926265719, 0.04053506872873976, 0.09704029873321389, -0.024471607470442185, 0.001385243770724214, 0.030212621545600452, 0.042078669764577276, 0.029921080481850233, 0.05536454288895053, -0.09537401208395999, -0.0419166040736845, 0.07918405713795007, -0.02502878556838925, 0.042470218217813924, 0.0717058559065193, 0.09015708664129855, 0.04234579144820698, -0.10528798102215965, -0.028907684254389332, 0.0038478201960029093, -0.09247266903367875, 0.023626298258376078, 0.02550436175680371, 0.02151181878485079, 0.03303646268513018, -0.12795373243853014, 0.038822052469064984, 0.015229109112768811, 0.03544701183369877, 0.0726059589612226, -0.14423746928482944, -0.020990725091169535, 0.0009798321352728397, 0.00034576176308100955, -0.09883575805212298, -0.10515255916909856, 0.05051143065469764, -0.16797702402882703, -0.07594487265276052, -0.026478601769725094, 0.027087809933927225, 0.043594992437686254, 0.012789674530258047, -0.07890025571535467, 0.0265338915887326, -0.047016034395916756, -0.03305841055676035, 0.07862289003018993, 0.02897214448331128, 0.029575192319297384, 0.08341636151148425, 0.020188510854717907, -0.03632027072777554, -0.04276791804840525, 0.008051234676000588, -0.08495385629871183, 0.043437944452268826, 0.004569602515631602, 0.021834318117549788, -0.13981205286256612, -0.08706681435345466, 0.05448997683617628, -0.06360877844604446, -0.008605320735423857, -0.06592656442813496, -0.022185622980061933, -0.023746879999333236, -0.06139635323887551, -0.05123347355572436, 0.0191374658124029, -0.1686415553398854, 0.024618758010630307, 0.00942560912168119, -0.0568406094449722, -0.00967900166307162, -0.012060824877139406, -0.058763485279439726, -0.01241672730694251, -0.0671466660939378, 0.040777589527522695, -0.042972509147554086, -0.04895703340943732, -0.018241258481640918, -0.03293700879637529, -0.004934480539269496, -0.006774174405396431, -0.09792876727942897, 0.024570970128768087, 0.0025117624071793864, -0.07583834742532199, 0.05353222439452972, 0.05491815388361695, 0.01942627876222642, 0.0034961231656533307, 0.032908095783546566, 0.06308488349579065, -0.005514605742550946, -0.042085859484451676, 0.024287257925644658, 0.08482865332888186, 0.026816025640169515, -0.01645550836180145, 0.012361834918789396, 0.03814393968741732, 0.03359774574611306, 0.047730588387338194, 0.07314796514658908, 0.032512369877147576, -0.024417123881175035, 0.003031212480099792, 0.036942853337059274, 0.031169880184173843, 0.012007064452214094, -0.009492653176917967, 0.025962340064537414, -0.023130946111722527, 0.024621616731518973, 0.04784036982202833, -0.015519376612309671, 0.057636404948986246, -0.014083329338769738, 0.0677546605748926, 0.01502767669631587, 0.09934795999444374, 0.07476883284699834, 0.03731253339499418, 0.028990172857143857, 0.07231528949956878, 0.07774987338087291, 0.08116611227843447, 0.053353983023770896, -0.03980537234301102, 0.04192539325258866, 0.046317033900801205, 0.09063680704102485, 0.05654346893772405, 0.07236068392314696, 0.04841769907601717, 0.03764489986652201, -0.06336384153631924, 0.03229167593776533, -0.060999254397133086, -0.06411264721898163, 0.06459685456834402, -0.03258654157493938, 0.049211173055647206, 0.058669337667164596, 0.019952655438628855, 0.05964615710858128], [-0.17666115376631586, -0.17920868859303704, 0.058036080995340744, 0.0927479361727595, 0.039210937115972344, 0.08194601044922765, 0.008619378539367784, -0.028052694491643937, -0.06272691192824381, -0.007766550479749806, 0.0028387032870857004, 0.003063314904618343, 0.07132406291084814, 0.08928218621136541, -0.13076690648016637, -0.02482494645476891, 0.04020169542355176, 0.00019384901111411983, 0.11020094475638138, 0.03190990393704376, -0.06915005650666056, 0.036097696860789376, -0.0718182990942862, -0.09399134755952122, -0.03129710962265116, -0.007166714954070251, 0.08533724600223516, -0.018430605033196965, 0.01838997951504849, -0.06422963185181539, -0.06413113570744843, 0.12851139644155082, 0.06815279827661824, 0.013272697877001827, -0.0033342813577156294, 0.08348597751690827, 0.02227335953342589, -0.028313338252713385, 0.047415114059789605, -0.10629450599347062, -0.0753455818885102, 0.028933089166410388, -0.12350642433902673, 0.05130901693991409, -0.0901036791302101, -0.043714754762022044, 0.06694043725682271, -0.22781654214646602, 0.0005704675022249317, -0.056986171554105035, -0.05947245689840083, -0.06412141692714074, 0.0264086515945604, -0.04098715161375649, -0.0012290970836772374, -0.03396800772763314, 0.13144174203722053, 0.04608027802745314, 0.02019088378222871, -0.0022539719640405614, 0.036601303804667876, 0.07841563870546522, -0.053722970553971766, 0.14041762596664328, -0.005149517400972314, -0.04331862492533569, -0.02863193854026074, 0.0276424973239164, -0.04320552897353743, -0.0004235625577174257, -0.011221669991952213, 0.023471786013588843, 0.09175398482658292, -0.03982534972324224, -0.054256654882259926, 0.008164333457110864, -0.009955523460891054, 0.035498121864013174, -0.011819562607948222, 0.12877619140270952, -0.08073573999411454, 0.023868489737288348, -0.027983541494360623, -0.044674417645038454, -0.021427581768888183, -0.03827378857889331, -0.04229369111874961, -0.005713822411113099, -0.11286063087898414, 0.009559028628208613, -0.0010708899337286922, 0.020287793544400287, -0.04798124073686344, 0.06525400844543039, -0.1480707085523668, -0.013393213151291472, 0.07353280001520295, 0.08762652670309787, -0.04304095573867847, -0.0407795707423007, 0.051891567451966394, 0.07943437692952121, -0.04798692703822331, 0.13239704999928717, -0.017045723762708864, -0.002478386460289146, 0.005449841890004252, 0.15990523242230045, 0.06937442525801141, 0.12252311193641102, 0.05625546243971032, -0.03856454519616707, 0.029091735488622737, 0.06621086410603702, -0.005333864847760703, 0.11737815778312281, 0.08609342109052405, 0.07653065486689539, 0.023710498268282615, -0.01361832119609226, 0.07903554329557773, 0.09537956491377494, -0.027454223912593466, 0.03393436969996962, -0.023458718042628272, 0.07550231538032386, 0.01018847896853346, 0.05463384600390295, 0.07510351477544738, 0.027857650149774534, 0.0193237128196838, 0.01759645766689895, 0.044647847167603526, 0.003347882195289007, 0.06799105601224355, 0.04890711959742137, -0.015372405179994149, 0.03819936804860513, -0.028012073193295534, 0.021380224765559678, 0.04935906840930496, 0.012282530394618737, 0.00632871266329296, 0.057150500769722605, -0.003073098377815869, 0.012547247560566608, 0.10524341296226031, -0.019498442578657158, 0.057146668667572585, 0.03673231695384916, -0.07040881017759625, -0.031646313834381136, 0.13414196967100506, -0.002106075719742757, 0.04166045088620638, -0.09384219726851686, -0.0005368427738257266, -0.04397295906590527, -0.03393711787830396, 0.015409674720641814, 0.01928331675085635, -0.05532319883010688, 0.015843211068057313, -0.06663851154820673, -0.007107829123561225, -0.07407453729537954, -0.007684668491794852, -0.04730131522818954, -0.0953325273642963, -0.07444283091637144, 0.08161671283516264, 0.02000757695895217, -0.033721380589753915, -0.01348775278113493, -0.039279004448138484, 0.04868901846961527, -0.04702208041762051, 0.023879592502284424, 0.0013928841927900247, 0.012933007314090446, 0.05272774641896587, 0.032359439901078105, -0.012749397359720234, 0.02838680289056396, -0.1520016842804094, -0.09364242617415783, -0.13562882235588145, -0.007060020520978572, 0.02444877692942431, -0.09321548645980648, -0.09164507791631774, -0.005043060619657967, 0.062290494219883155, -0.10494509532874198, -0.1239485844154263, -0.08080526233665006, -0.1140201569246062, -0.012612684817253217, -0.06864474403193996, -0.016380031365195665, -0.012152726254619333, 0.02504894729572302, -0.07991600236764376, -0.06568753739001602, -0.08878207820144961, 0.04812835683136099, -0.03415261038521122, 0.03229610876809447, -0.08042413619121491, -0.019177113551663325, 0.005128369485517271, -0.035881914287121466, 0.03814177565106876, -0.18518334363235886, 0.057801262212874766, 0.062453845551079135, 0.007285362864504008, 0.01864647188730677, 0.002054084576200378, 0.026977842750517483, 0.10109718266343998, 0.10298602112394381, -0.020435233375406228, 0.007423248966780703, 0.027956953162241772, -0.05025852001984256, 0.00823520209875035, 0.0037495896504210636, 0.010069878564898835, 0.03890257305387109, -0.03887395706147339, 0.06196112139796755, -0.07360049632191058, -0.06100756016442014, 0.015943175069113278, -0.08078969426732768, 0.006081325805210979, 0.01185654208314468, -0.002372559384357106, 0.07620119043963218], [0.004503515644889145, -0.019109479016043693, -0.058348545403947794, -0.2112843058554343, -0.09162471867915123, -0.1010720189217475, -0.03543869956536011, -0.012517626917480412, 0.06999756292622478, -0.053659975625798856, -0.004988488261229648, -0.030865802429316615, -0.105725235030776, -0.041420254412038615, 0.07095257012214379, -0.016436572895838886, -0.08301479832796069, 0.0468054090544785, -0.002944957062391007, -0.10293466198274215, -0.024515956415298135, -0.050256603081827556, 0.0042004475455195145, -0.03978864312423945, -0.01512393841679931, -0.02340016088822641, -0.07804286686564664, 0.05928974865850252, -0.03823396422080622, 0.009079500602627322, 0.06886462697573054, -0.014652045609975801, 0.04039636311977293, -0.019375215100364405, 0.09311008556989071, -0.06046095649554762, -0.004438241662947257, 0.029621458829200784, 0.0821217784090875, 0.11125798866124127, 0.060855558400134444, -0.029325769808574386, 0.03375731439662241, 0.008783404503579744, 0.010849546523714865, -0.0002016318293285156, 0.06705076648786888, -0.11676307590043893, -0.022681564586634926, 0.0507971481611465, 0.08127723154165944, 0.1482652219655481, -0.020756602712560152, -0.08446962502858368, -0.08144990554567465, 0.0344362365637775, -0.03544726074215012, 0.010160688495911108, 0.03254834004201472, 0.063514118876552, -0.018318038262507972, 0.05722284704281497, -0.04534527803040093, 0.06117125032649475, -0.011139221464859921, -3.335992674530255e-05, -0.11770638122951721, 0.058617851868554664, 0.004916143398585121, 0.08312203339862473, 0.07312663783722426, 0.004878694791557576, 0.05758950276548564, -0.06473110862349925, 0.147094721052953, -0.06558094611990191, -0.029760416101900913, 0.0025191421242767246, -0.08881048834425806, 0.14568981668370962, -0.09514325487113677, 0.021622882141149147, -0.053399677170010824, 0.05696221036747264, -0.045780012939469386, -0.0018176580985090395, 0.033215365227876756, 0.06743606347586233, -0.08643534189793023, 0.003088171188955677, -0.052466412906806724, -0.0883522833113087, 0.030061756715315226, -0.10147727397301633, -0.061626790655322485, -0.08215018610269209, 0.014151246475476267, 0.01474776584941015, 0.012861550363336536, 0.04100237971708049, 0.0058756316061731925, -0.029841390743452517, -0.029162244026668494, 0.03632048757427609, 0.0018997932159684067, 0.03583281797809178, 0.017738972693196717, 0.1486749950083271, 0.10593849208373116, 0.16427376782188768, -0.05056373793345859, -0.08229826054213728, -0.03444516067284671, -0.07314411641582506, -0.01798516226514978, -0.014992149839118781, 0.03805399098152095, -0.047293391669874056, -0.0659312540780469, -0.07229192154474468, -0.11359680211948917, 0.10029914887464497, -0.07279221650195919, -0.0564196205108886, -0.0483198499323075, 0.17614633825574127, -0.04803114264285375, -0.020995029708271228, 0.11770687606574308, 0.0015623395804565984, -0.06180355322309058, -0.03742680337396225, -0.04208623499836455, -0.044940095505742635, 0.1377263392801717, -0.02786118341277605, 0.08843045296356213, 0.08415886078150599, -0.00088174241863902, -0.018889142892331953, -0.07064784062952584, -0.06897059090124377, 0.004874205400148062, -0.0809981884463004, -0.03198088487248092, -0.07531791565997417, 0.07656841004836372, 0.043293035366817625, 0.014966236346972164, 0.029811194762633705, -0.03739312427843031, 0.011808640053836193, -0.07622845259025489, -0.01897283378823462, -0.07212428316573402, -0.05463343756975068, 0.038138098090443315, 0.03804388908319803, -0.05086906466453683, -0.06312143602321786, -0.03889266589810818, -0.07959989607364774, -0.03170169596380335, -0.13127364090482682, 0.06002405065069889, -0.022189071322517493, -0.12011120184224426, -0.011097140690063729, 0.06480518834338685, -0.028765798776320534, -0.04140766543668614, -0.025204349763214083, 0.038524676280006005, -0.08556683510606801, -0.13400480786433375, -0.018000372512498718, -0.054544039086156126, -0.06395405539359589, 0.04991652878818953, -0.056131504265286424, 0.0024795945552037475, 0.04669783321803084, 0.002927626776688833, -0.02394095993704321, 0.07730653104160605, 0.08764587529286283, 0.05729778144702119, -0.0680667232639962, 0.16826674196713753, 0.02960109809649634, -0.00036685021171046177, -0.11346623011302778, 0.03577191582612103, 0.027555519454457614, 0.06957261869935721, -0.028565831068957163, -0.047334939238287584, 0.038087873051506856, 0.06939886424337911, -0.11329238437121784, 0.04913551182880236, -0.016726907659161027, -0.030646582056083074, 0.01787803621242055, 0.10761250528340467, -0.037493004673451416, -0.05890236776650494, -0.048481652744649384, 0.08843722504116934, -0.04686627252183231, 0.022808815986515848, 0.00741738561792926, -0.013477064886342606, 0.06744545862138257, 0.03397142738831759, 0.03322087360589621, -0.020505340996665854, -0.011786786811217784, 0.016323014318333492, -0.006741035246554528, 0.025270883038216767, 0.05313898401306381, 0.04923837383730191, 0.10831788354641185, -0.006740779485279346, 0.031235312190275876, 0.0076676295990725715, 0.05894828956924879, 0.03912807602793307, -0.1111209041605551, 0.07686630203228033, -0.023950594344159408, 0.05890604232698595, 0.0530349878941591, 0.06254801594902157, -0.04211943081869849, 0.011559928809582452, 0.05561019532083295, 0.021499379442482657, 0.1388735875605806], [-0.0683397412969783, -0.03846842080863288, -0.19594920864394777, 0.03785873084565834, 0.008332266714570574, -0.07601189441082257, -0.0782218973579189, -0.07303780871039722, -0.01378923864585517, 0.0001756965910106878, -0.0479516778295756, -0.0037268235026863272, -0.03557060417474567, -0.0653781238388304, -0.041545234152614824, -0.004266889602470417, -0.02075184771187795, -0.022641838676805356, -0.07057728789545008, -0.08698342949334553, -0.02152003263104369, -0.10190239815084336, -0.019314111773850555, -0.001705280413555995, -0.02727428880189243, -0.09154594020446023, -0.081457574094496, 0.010876055083751328, -0.1191467633529132, -0.008391386735846561, 0.012486536715283603, -0.10502761251103088, 0.13531233232918127, -0.07253399109279787, -0.12180136380809715, 0.15765254549788593, -0.07178691206611598, 0.004798123996371674, 0.22360230062724545, 0.010577009930802905, -0.06624628540012677, -0.02458019686895638, -0.009004930174634615, -0.04506262664348571, 0.04320992648791834, -0.052703901135699366, -0.010622961135474101, -0.017054005231288888, 0.02892184767756919, 0.008436418608131149, 0.04323336487377964, -0.07148588496542362, 0.00588255853138616, 0.007472478341278387, 0.049174518844064534, -0.046864325039874026, 0.03352089874329048, 0.015386737318732524, 0.026955430598633534, 0.030004034279705362, 0.04355096581114309, -0.026850347364156486, -0.0052839604653184555, -0.009610753005757543, -0.07184133409355944, -0.05176374766953176, 0.06978709688765976, 0.04020873607671427, -0.05520136677648128, 0.04213377668499256, -0.09003880901246351, -0.05656884304839451, -0.07585600395527624, 0.14220717047819456, -0.06832309297326083, 0.0757682543594488, 0.009301868432965201, -0.06543040186843412, 0.16765023450182834, 0.007609220780044459, 0.11781965366647508, -0.0015657727394231948, -0.04566049136239849, -0.07675607721699523, 0.07528781161241496, -0.05348635850218895, -0.04780723879776728, 0.010866885948457578, 0.04129042496256049, -0.08931191554417627, -0.024015974421955966, 0.006640941948059217, -0.02885230453235016, 0.10882333852155349, 0.13305063026605105, 0.08842141845385963, 0.061809651874024034, 0.1798821124824768, 0.08900620905647795, 0.1337694307981737, -0.008771269853803314, 0.09165000478860603, 0.131414458986064, -0.08428987976830361, -0.06635867170432574, -0.005351973515595982, -0.1006202576935238, -0.006677555573347645, -0.006435195313754336, 0.025423354768613418, 0.12642536910975627, 0.08674666753094765, -0.00999855354119654, 0.09335224628176145, 0.03133006729557236, 0.018438950551321002, -0.049815629749404955, 0.0524745453127128, 0.07526397268516284, 0.10964192362893853, 0.04070582687810756, -0.10780150898703052, 0.01083206775471578, 0.07960826613039615, 0.003928474438250649, -0.05619134168827697, -0.10882439498513927, 0.03850584297853308, -0.03618520173265812, 0.09732450757630508, -0.003532799561466044, -0.026135837507772527, -0.01532844034596269, -0.037994625179276445, 0.016483235515175994, 0.07416622939156729, 0.014600587680314062, -0.014857664578953116, -0.049610574612970616, -0.023667499518253258, -0.01827591051546932, 0.09804646306638463, 0.10820727916428942, -0.05720838348097334, 0.019330500489909953, -0.0059995127707118436, 0.1452258458030984, -0.04269551404617574, -0.02500955242155133, 0.07714165975474911, -0.04946011991672274, -0.022978164065706276, -0.0826888152482535, -0.02751352611422783, 0.07714316113709035, -0.016785820740862076, 0.048235315129290975, 0.08421259131138875, 0.04493260556858404, 0.05904263669990605, -0.029351189700641375, -0.03327418542642452, -0.0284559767157784, 0.027513257245530397, 0.10139490319718084, 0.00857980170848734, -0.04856048128065889, 0.00519461323645232, 0.015380016476215614, 0.06973506295499954, -0.019949945665915854, 0.006627137684160446, 0.02437872932985569, -0.008062570432863216, 0.006682444459903667, -0.05638047858015583, -0.05550597430185105, 0.008158187370373113, 0.052121707039908344, -0.012104339994302911, 0.11514725855025844, 0.13418586386067172, -0.04117436877184444, -0.03936231206700531, 0.08433930382571542, 0.054828375104596615, -0.05517631448221093, -0.01750017863879414, 0.024690425783617673, 0.03615121894408851, 0.09699095050196219, -0.07714725245481868, -0.035830062393386576, 0.06792520205013033, -0.007396945311741183, -0.0735333343669944, -0.03668534740787827, -0.06953223153843271, 0.004673488639546545, -0.09269927456364704, 0.060278968290177815, -0.03426707324989538, -0.05418815477168202, 0.02124236569817929, -0.008085828621939793, 0.016456225554274874, -0.02369569866506761, -0.03131942628513487, 0.005139449335018758, -0.0819291914704983, 0.009575261427484454, -0.016404855308865027, 0.06714686204951863, 0.06610379800446128, 0.09409084966505861, 0.01686859761512081, 0.0025367984104744633, -0.05393069345592394, 0.05534556314745542, 0.03638721830046645, 0.0009073063257697108, 0.13468945388104725, 0.0002552815786571393, 0.08454806224966316, -0.029684824853562924, -0.03759712583703076, -0.0255334635908784, -0.028760559527502123, 0.01657665435994752, 0.027300373614772007, 0.08523593699120575, -0.014688521518560418, -0.011018538977592656, 0.02992721280224421, 0.0031636481890046403, 0.021608941400226605, -0.04872458517786766, 0.02566441883946673, -0.07487475465304269, 0.07763519053153939], [0.015352692363046969, -0.020521666827558824, -0.053359663264354984, 0.08784831353100693, 0.023613683507718957, 0.030358878935932743, 0.05878225839081341, -0.10954590663307337, -0.03011164376039599, 0.016669548551739827, 0.048819797171233095, 0.03924597608894398, 0.15630428580324884, 0.033859312813545324, -0.07668866758516027, -0.1413715116779503, -0.10961061468446953, -0.017544401349040895, 0.041307917827160034, 0.011665589351645578, 0.07275264607552125, 0.031178552130073145, 0.026300854636558513, 0.08311408283009358, 0.07233627055059957, -0.004062619011364479, 0.06100031241621337, -0.044745158971603256, 0.039069416040932156, 0.009232202924878563, -0.05618366390762364, 0.14462154965986182, -0.018347526233267786, 0.013144602912341354, 0.10096241826547461, 0.08606462178844551, 0.01947851643312228, 0.08238005333546766, 0.1262908494873288, -0.018369850627140402, -0.053982626286562835, 0.10065116172345458, -0.0943711849377642, 0.06291623268037642, -0.0045817114881516125, 0.0029917639805936693, 0.0653477822664409, 0.01807736426094284, 0.0864269425639327, -0.04096079971552876, -0.013539823693109368, 0.01578472145110964, -0.0638830132025988, -0.09054877244536857, -0.03177083957089174, 0.048299198475845545, 0.1045862927824094, 0.002955934386180131, 0.013050849692269604, 0.07423258465463123, -0.04222419419322042, 0.021351676804083973, -0.08260701526224438, -0.06563194382204127, -0.0024099175853651554, 0.0011519487796207545, -0.07498236319546905, 0.0716421675923169, 0.005124123227480098, -0.0027888917424810033, 0.01926998484078905, 0.08070505458982351, 0.01898049580964511, -0.005978086114137028, 0.013120965748502357, -0.03761475448598498, -0.112610837186364, 0.03603039856383919, -0.10494797919498312, 0.0288649989110103, -0.10125984774482377, -0.08879904571038946, 0.007618703619516832, 0.03988802635346641, -0.03707954101966777, 0.0028012678865346097, 0.05066064018492219, 0.0918170432605894, 0.03507793037720679, -0.007681827539718101, -0.015050531056788653, 0.10795062990633589, -0.03019855147698049, 0.020010736456267608, 0.054946470045382875, -0.056907021869016784, 0.014365184095187921, -0.10440464485109012, -0.0050586480669045026, 0.08244183383885262, 0.15688788041410515, -0.14690286880446818, 0.1377452360896892, -0.07333708592446467, -0.032928235347335806, -0.018893764045961155, -0.04628075320686954, -0.06352127851173918, 0.007396077340431178, 0.053395448844539534, -0.13600945649835566, -0.014006376075983377, -0.005827496703412202, -0.08317928556842048, 0.020703683547207877, -0.13738873224053622, -0.032722482904810446, -0.046066611969025124, -0.012346917741789325, -0.053522113642563075, 0.0929600853445924, -0.022821817342750524, -0.011976201088945043, -0.06452417225097759, -0.040359853602257814, -0.06528173486572755, -0.07070727416468663, 0.05272061334657507, -0.05865461823024853, -0.12666732405293282, -0.12973417575751958, -0.018422316087499734, -0.03848363385073056, -0.045061931233643625, -0.02669268802884998, -0.010617218779605054, 0.002754810376277542, 0.014867660265057366, -0.006836860106421698, -0.014686448330530658, -0.03133209585083197, -0.021231383076714554, -0.12131734107562629, 0.01878358242585843, 0.005440301100493915, 0.010270527636131266, -0.019691015578991253, -0.10410899525526526, -0.0008677619688858898, -0.16352131263347958, -0.08167522808368648, 0.00877112477620455, 0.23868895469034102, -0.033501035985620216, 0.08232370156391527, -0.03906647227771358, 0.05169240732828209, 0.09302231835838204, -0.0018351778442444123, -0.003870984215010543, -0.01930081160194264, 0.030975380562839893, -0.03022288912888225, 0.09726544305798406, 0.005066977341277875, 0.11893077293045816, -0.03014023626291594, -0.02591754148023801, 0.10404023060284703, 0.014351889984458549, -0.1009706004107241, 0.04361193102218714, 0.004733627649192146, -0.0045474617037191065, 0.03829354014817649, -0.0389729470833151, 0.02529864196763764, 0.04904683229877015, 0.03581356564624169, -0.013878616224061668, 0.0210300238795602, 0.049563915002448215, -0.07191478086614497, -0.06952355800314902, 0.022487041521347444, 0.043336597520696324, -0.022351138986418086, -0.030530234606164823, -0.08583959655317366, 0.01900205441476534, 0.013185001684343566, -0.13540755197793183, -0.07758936675573452, 0.03946191596580132, 0.008682711723886061, -0.013555898467680079, -0.056918461428839905, -0.06929864845356248, 0.014872317246319662, -0.031022306123234766, 0.0013583773091556505, -0.13756826166731773, -0.0053074932438060786, -0.04186380823825086, -0.004511564143857129, -0.09764461399242585, -0.06325978392916866, -0.032975707029724216, 0.009477891582620619, -0.05225414904444719, -0.04108290277689087, -0.027082484465926406, -0.03721801120270689, 0.0040631998713713995, 0.12885607311123962, -0.08621207539736754, -0.04678904090361658, 0.018287549226437768, -0.060326581617261635, -0.025026429045778377, -0.12909582586252458, -0.009492045020023602, -0.007845585170265469, 0.029563191446828646, -0.003915147204541521, 0.021860948755665265, -0.17973987145319667, -0.041232681639517446, -0.04319117603426035, -0.0066682458121395975, -0.005685498759426929, -0.002614120620718376, -0.08747667092113771, 0.02935266579841273, -0.02102104793793468, -0.002407897463500353, -0.055462821374376414, 0.02382896803788254, -0.09601424828494988, 0.009698186555825609], [-0.030134060164607127, 0.010012613409091167, -0.09834074178515455, -0.06710397834789618, -0.05216479158255139, 0.008650729149944372, 0.030774973597507308, -0.045319145385127685, 0.031666238543028385, 0.1158923301932839, 0.14635634659554997, 0.0790066924511193, -0.045410259171078216, -0.0184039565831684, 0.12005415137959918, -0.03346951030417106, 0.03106353987405472, 0.03851392497701234, 0.03188484904435043, 0.00947923421668323, -0.08304094881737167, 0.002894317313016176, -0.007398334195986234, 0.04292974305309216, 0.14300432836623858, -0.023914718013941495, 0.059035527739979214, 0.12495578565455495, 0.020504900589171513, 0.038174957106395915, 0.09620513391079538, -0.06132791792599417, 0.04463785878359638, -0.03382325790091721, -0.023966548629385364, -0.005784717232450957, -0.0451167447962524, 0.09935255222776564, 0.08362698551270485, 0.06537690395541333, 0.02117221603341412, 0.07354193142996346, 0.06879939582974134, 0.04752899885858306, 0.05961760605906644, 0.001265435290796989, -0.003222286703099857, 0.0680473822635494, 0.0771803897316134, -0.025608139288778562, 0.11485188058850589, -0.025590608714958274, -0.051563927814294384, -0.09473547406777745, -0.04240495706147179, 0.08042412051178419, 0.0350267632420203, -0.022782053067610927, 0.04799024754703193, -0.0024929893612140584, -0.009775511384179732, -0.09437566385615187, -0.07420546761755292, -0.051431177265991, -0.027694875156738647, 0.00241306332774513, -0.08263464500449777, -0.016000690182010505, 0.0013398167484948529, 0.043718497225936265, 0.0021933118863097898, 0.016289037566547, -0.06888747893546267, 0.012529777248495463, 0.01560178582270565, -0.05819663028828156, -0.03855876239364591, -0.01658755382484109, 0.026301998607111902, -0.07506253889723864, -0.0602659499903165, -0.0038977107864823883, -0.01765814750202044, 0.05520260299422874, -0.0727966784061743, -0.0015681534673246717, 0.05030169700362726, 0.08018722020247694, 0.0517494009275335, -0.039056522307550474, -0.0003143930521712091, 0.053763053409029725, 0.010630958322073732, -0.05349425774692424, 0.1832320618224939, 0.003088882218747847, -0.09783184391099681, 0.014128954456742454, -0.038411321346905454, 0.10770908741943691, 0.0018412677821731359, -0.022754865202824597, 0.07816350076830679, -0.08865422313937257, -0.013325729213414957, -0.041490568522703865, -0.03714284390570316, -0.04764941119271723, -0.05718418146661327, -0.07353142819646039, 0.03891560023959093, -0.02087951962716323, -0.01335912934435083, -0.0332705511188243, -0.003809629259891063, -0.027355257675919207, -0.07182513953401906, 0.03299942625982467, 0.010819630748664148, -0.0361703104571021, 0.10709794316255093, 0.04037631459465835, 0.032011524201349936, 0.03703366491735614, 0.008286687907833483, -0.02490911954761767, 0.007468049011429795, -0.13820802149700004, 0.05544015270418269, 0.04815156628424066, 0.2062984042588817, -0.007173306289884631, 0.0012427433902708473, -0.010408574097336549, -0.006446651747181824, 0.046450928057098086, 0.05491275694852421, 0.09846241790651956, -0.0004494262025653601, -0.03043874579350956, 0.013981835439145949, -0.002796417564908671, 0.04885803167358701, 0.014203760277944, -0.03665739140728869, -0.031702959618426986, -0.011466278838579423, 0.08657733211286031, 0.012192565822470226, 0.044663626597715715, 0.0034301385103882175, 0.10168095084633416, 0.020832857156611807, 0.17778190000798355, 0.08693662989686425, -0.0765310580121021, 0.0007551545696007177, -0.0979265300950108, -0.009869789742308899, -0.03336871194274919, -0.039130581969033684, 0.014015542199628844, -0.03295025944858325, -0.007864337676092513, -0.03581194851826355, -0.03266685420781082, -0.011197515226301977, -0.120006990824578, -0.021546428739438007, 0.012108428187498185, 0.0007145014947429145, -0.00202355038363034, 0.15992063640582435, -0.05837827483641822, -0.06717588980852902, 0.039103717047767064, -0.07189152381390028, 0.020532897716160587, 0.06197980332193704, -0.039341688427106544, 0.010925229638417685, -0.17358478823860973, 0.057491062870212696, -0.030871671077330673, -0.1515647905583931, -0.14447543265005647, -0.08995546427964139, -0.06257329301294617, -0.04454128597563482, -0.10852983704841476, -0.14271318539749556, 0.04766197639731687, 0.05238103590263865, -0.11534738021464419, -0.07685759380924016, 0.040458162080380326, 0.10187385356743732, 0.027082346594454933, -0.06188409099601975, -0.06219151474742165, -0.13204784998196226, 0.02377679322538059, -0.0863614033913112, 0.019963752295261032, -0.1350558749474814, 0.02631008845969099, -0.06562022508484741, -0.030601347382832794, -0.11108345293610423, -0.058412188161270855, -0.02736569278949865, 0.017251932902468563, 0.025300687439398655, -0.0660504632711559, -0.06492127442965862, -0.019715730417519676, -0.004361901250380256, 0.013605769695826013, 0.039135572916112055, 0.05614206189186568, 0.008995098556503416, 0.008815151168142108, -0.02128645748701582, 0.02977609520750738, -0.04323662912303228, 0.05226381992984671, 0.043828747825116685, 0.10450325665502823, 0.046785322999190714, -0.0009456122968150142, -0.04824260226848982, -0.008908327524669267, -0.06184517137893925, -0.06963052240385559, 0.1359614885035015, -0.07454243249906294, -0.04464857564425179, 0.15293458395744924, 0.0876685653274346, 0.016627077100171524], [0.039033199416077295, 0.04332431061907695, -0.0056807894141007315, -0.04057843365322394, -0.020492377095186892, -0.04300146905340144, 0.009170966331099834, 0.06942133820239366, -0.036852479679364225, -0.14792398547277702, -0.12409576014327886, -0.021284045284163083, -0.031097510151828267, -0.02957414645960943, -0.1547140828468907, 0.037106399314382546, -0.09158086722784639, 0.11637016943103468, -0.03636896516929698, -0.011769166627704636, 0.053493847695213426, -0.014079264250808368, -0.03762506647698596, -0.011896993956014845, -0.10572580043805205, -0.020320789133309924, -0.05483390867287978, -0.08622057539418587, -0.021682295490327665, -0.0831289255614848, -0.08469165551227344, 0.051653308087275605, -0.056901616838345964, -0.04312168713315151, 0.11227022961235188, -0.05973421616704312, -0.052753695091124646, -0.04916688715271038, -0.05484639975336495, 0.022554354559366496, 0.09193464123574763, -0.11086120904212551, 0.09464615347792495, 0.09631013967668878, 0.028735107786666856, -0.07224425266894578, 0.039560447959591204, 0.0024905870740374626, -0.10720582267964225, 0.030044531098337313, -0.032392715183362626, 0.06057789715066426, 0.09029975228332336, 0.049011720402957634, 0.003360956851353563, -0.0412127702524161, -0.0056732632937378305, -0.05823906564187713, -0.09609426465772726, 0.010682538136146542, 0.011211143128673372, 0.03131830323965018, 0.10205898653770787, 0.011035572831393566, -0.05115627646338444, -0.07221363428728131, 0.09710831602395259, -0.024382320430943474, -0.0698763420197494, -0.028845059484288966, -0.002261397509849347, -0.07370287214516923, 0.037601219388542585, -0.004379609647130243, -0.03889837867357512, 0.01849017582395542, 0.08645373567841044, -0.06138445219435485, -0.0333349752709388, 0.019431900182842698, 0.13465761127671158, 0.016401587842095295, -0.05903560244457947, -0.03683220115414852, -0.03166298354884303, -0.06925301996919114, -0.07005267416050773, -0.10466310244929732, -0.08539037236513565, -0.04136310465915644, -0.05815439007815074, 0.025471912237166827, -0.04418383730166002, 0.03392840548697832, -0.1353326647570768, 0.020464845434342394, 0.0745556920041889, -0.06436636650800649, 0.07035401951634261, -0.0606154837491056, 0.06324408461801227, -0.022252707360960588, 0.04956072206206583, 0.1243644793154915, -0.04377791321347487, -0.019105595556361613, -0.04810743562280854, 0.010966879190142872, 0.0021244626276465542, 0.03519661241745546, 0.0006688858141387552, 0.07611982347528316, -0.03872600327444936, 0.0023774865350281015, 0.008961713280087045, 0.04264715608514078, 0.055611276354128755, -0.03993395823290061, -0.01853251487837474, 0.04471821451517238, 0.002669703770297504, -0.05738026552745017, 0.07895201682006993, 0.035572444114402024, -0.05723603085830456, -0.032907937309411994, -0.05803767619834674, 0.11327803423128718, -0.06911083737766659, 0.06876029813948818, 0.033484406050634234, -0.0332526131141057, -0.06168286656613555, -0.026327284917819355, -0.07137822180788081, -0.005718800226197089, -0.02828940283715513, 0.07492016729659702, -0.0754315139137213, -0.028236773619047334, -0.06074597191907503, 0.035845301824747496, -0.018487403537271914, 0.07236695727220815, 0.05346119706434546, -0.033842153549919395, 0.03031016279252024, 0.032948022514046556, 0.06638904931904054, 0.03798918410156788, -0.016665005042353485, 0.05255890328098414, 0.12324258211600937, 0.15083022908677682, 0.10609585084945823, 0.002995645928580723, 0.0143809563564429, 0.11698951214325728, -0.03719098191687242, -0.0722260512925811, -0.0354403214877542, 0.043202383810248796, -0.03404748921570541, 0.07108418153355425, -0.03664262963177691, 0.19593902353360237, -0.009129147763267096, -0.016090522979745957, 0.15371265216100397, 0.05463284658544225, -0.0454931908408649, -0.009679404422738534, 0.09227132525259442, -0.032851614377918614, -0.019531080250191298, -0.044463516397142404, 0.016162145238553405, 0.02709891319039548, 0.08022886327142482, -0.02585145110125953, 0.002117421371777126, -0.15284476315713136, 0.03971032562695118, -0.0552694337892738, -0.07822693502570288, 0.0004157532787755468, 0.050996138122441616, -0.04027960277981537, -0.1495041639783389, -0.05628474610717373, -0.024447254497612536, 0.03436435910061739, 0.0014484645141243948, -0.05072139137740543, -0.015614079502277924, 0.13729071552813915, 0.0952912820635012, -0.001287596912196733, -4.278530290251189e-07, -0.018868341202442518, -0.1336430172391566, -0.028843561416866677, -0.058937612135015374, 0.06185159743947498, -0.023353521235635364, -0.036882668128757734, -0.06057331295923751, -0.03821939386243747, -0.0007820452144200158, -0.011068773132478255, 0.05308516163015858, 0.012871615764844484, 0.025664977171022733, 0.03428363571803275, 0.054445720466960015, 0.02662964328083429, 0.040849289125736474, 0.1327218495591166, -0.03943807269505614, 0.04353946460217467, 0.014569048429581323, -0.02207524303294011, -0.013580719656006218, 0.08004559456065106, 0.023845468004073788, 0.14240791407398223, 0.015968947085322437, 0.050583667114461404, 0.06228015715734056, -0.03308083137823646, -0.08985796473679139, 0.011201239807860395, 0.03154694728847147, -0.050215011256229895, 0.20002387496666457, -0.057040805979458264, -0.042091060623122435, 0.14203912145330483, 0.016805202660913957, 0.053578901742116165], [-0.04570321191771889, -0.06905479177792416, -0.026616169876857908, -0.03254239966903135, 0.020563653638762044, -0.054321421542288445, -0.027944023480535585, 0.10675663531156965, -0.024352248342501576, 0.014846690769777654, -0.028840497987609515, -0.055338360735909226, -0.08376471848756717, 0.05008236550647402, -0.03707276096126233, 0.039302901129187606, -0.009746900247007168, -0.0624495895622188, 0.006425432822556282, 0.056675907714052, -0.08645333849180747, 0.024755778887646348, -0.05719564442197915, 0.014812112805049876, -0.026441712214358367, -0.005253066399237342, -0.01467825308258415, -0.035326397568103664, -0.028675403580726393, -0.03470908696291401, 0.01600084865821319, -0.08628199660404999, -0.06178802288950623, -8.171163156552274e-05, -0.07937791836539582, 0.04257725746639167, -0.019862624723215212, 0.052388690875209094, -0.023785062878844642, -0.09071019717828696, -0.04100679983446297, -0.017486610858609634, -0.02069314219536584, -0.053655229001583586, 0.05163546022711059, -0.026489073184148303, -0.008964664186904735, 0.069677146792977, 0.007712502927739475, -0.07449678703458457, -0.05958769098945915, -0.09513260840079511, -0.024278903075631974, 0.01713830088610718, 0.020689238182036544, 0.02006448444492273, -0.06252181825279343, 0.012404146823523777, 0.059778417383802414, -0.025987995134542332, 0.025514848220531784, 0.012698880050744805, 0.07220443525475834, 0.04987785047618341, -0.0018664108632704705, -0.0255333797381816, 0.07114139579668194, -0.0034004143808478563, -0.026989671682783725, 0.07913076766724814, -0.026683823005759985, -0.01226830968100896, 0.06647205921806798, 0.032317336079437174, 0.04345789862535914, 0.06251514931385106, 0.06121814158710712, -0.03017083573370771, 0.027547918277843236, -0.014757737813891711, 0.04540653417299915, -0.011013625787079062, 0.03768276609031748, 0.08396016208192277, 0.08057525805946189, -0.02335284749057922, 0.005489811520442303, 0.057877776647206475, -0.017222922928041742, -0.010731166782275762, 0.06045977906374693, 0.04068769597543442, -0.09134817695047187, -0.03601429078926852, -0.007520420535753798, 0.009636542843268708, -0.0545784605541979, 0.04525253727917511, 0.05006920858452936, 0.01781775236958423, -0.0017826263578001181, -0.0810277680695673, -0.031702248170838616, 0.0425589963192591, 0.01821470094238072, 0.004558090042728239, -0.007602971662272181, -0.055640551459712896, 0.0513338429358504, -0.022161502873562156, -0.017529273571398912, 0.008734512234639493, -0.019887882172313763, -0.08314374163887146, -0.027047833722275785, 0.018364212956958895, 0.03499632902184243, -0.07942791325839174, 0.00916395495888588, -0.04672209475740979, -0.026706290867867487, -0.010485225029678837, -0.040209869960961465, -0.0230262790402617, -0.015860181628092048, 0.13799873188660927, 0.06877116333042275, -0.06769403681362783, 0.005739688511595358, -0.17252788007107497, 0.03397910994549878, -0.019818068962499304, 0.12853737104419427, -0.02839227574300835, 0.00022006507828235364, -0.10673138723876212, -0.053293607769389885, -0.008561147367542042, -0.0012363550530185893, -0.019150852263706275, -0.035943354700033195, -0.12272976244898517, -0.14709050203526491, -0.08621754286363592, -0.07522597516662399, -0.023997334149836434, 0.002570561134140321, -0.07712008556366122, -0.05558120597901307, -0.12738596126430352, 0.005566898810270576, -0.004030789066712986, -0.05713405089659779, 0.07730352945304847, 0.08285988861878056, -0.026117858345961677, 0.017345282764780545, -0.044702400768489275, 0.018518421892719884, 0.012823938476571269, -0.025109910066268813, -0.03220188670322166, -0.021284952035783494, -0.12815432814862643, 0.025321827918360264, -0.07072368580905836, -0.005097315047360801, 0.036959750738814356, -0.013353486549691502, -0.07002924784254998, 0.12678065989212628, 0.042894205856658214, 0.027438250286037105, -0.013563966537763308, 0.014092914490217885, -0.04972290298908419, -0.005666004887824832, -0.08906160786431473, 0.016864225233133332, -0.015573895947355674, 0.18021044631522606, 0.03700147887450725, 0.1402163244641463, -0.02404150393693088, 0.031448230794465626, 0.0534707236487006, 0.02740167907357275, -0.0021768538407712303, -0.13338414396414133, 0.03459959060189157, 0.01593921698946654, 0.17602297451354362, 0.15970595443547494, 0.038192559043974596, 0.09278338324491921, -0.022661929113477836, 0.13210663601545763, -0.0008012371963593846, 0.06407631488606645, -0.031571770127577385, 0.04930348315055235, -0.06439405601244368, 0.024511854241490463, -0.00027812420026470893, 0.05414390735817401, -0.045722402663610086, -0.009348042849427604, -0.038687169280157245, 0.06124883606704044, -0.034396272946862934, 0.0004611616049865835, 0.08382188761573951, -0.022847653673133458, -0.11833411222477253, 0.008487515014957661, -0.08852428607722551, -0.02161867090693847, 0.06901589689036376, -0.011837888739914556, 0.017367026512161314, -0.11279087772044022, 0.07074234252709699, 0.12301661397730071, 0.10659915970841206, 0.0167318557695234, 0.051150166401500954, -0.09282326617257808, -0.06386061598176261, -0.0077739869421969135, 0.14724813621369548, -0.17133621693753748, 0.012691658756906612, -0.3184476689537487, -0.055554574954546354, 0.14318593114269929, 0.08163554971798324, 0.0060317446752757966, 0.009509601610562853, -0.0744534095860466, 0.1491535775861151], [0.0008705874851126567, 0.07346535671498906, 0.07261675146229624, 0.036672315979554775, -0.00411613603338598, -0.05020475172343014, 0.0462769904591783, -0.013018148749660705, 0.018434703381917904, 0.07593035446934795, 0.008523269562459319, 0.026514318539152627, 0.10146021710696049, -0.02141360553603691, 0.17927456838215128, 0.002556847177834451, 0.122852697642026, -0.10702331463765821, -0.028520752849191294, -0.006555147777078326, -0.021357048413453143, -0.010216869740243096, 0.08282407524744234, 0.05752020861138252, 0.007113423720220377, -0.05436904264679557, -0.02974385736030455, 0.006599604826773464, -0.011474668441480818, 0.007365629922655381, 0.06541417903675086, -0.04606623182808776, -0.1829141734427436, -0.011994930673233843, -0.03493592599751809, 0.03709455680598386, 0.005551879396048791, -0.08671844815135606, -0.09453831480433542, -0.0023338945181612222, -0.10797256130882842, -0.02277630307073577, -0.172580663387872, -0.09438202556591413, -0.03987384879791773, 0.010527493549453414, -0.072370304513429, 0.018024766829100137, -0.04655725374766115, -0.06856765934678156, -0.03599535352942624, -0.07497278399507687, -0.025974670820440953, -0.19629710409873846, -0.1103432370455606, 0.10292558570648107, -0.11407597974031429, -0.09684177134911406, -0.07519559775095983, -0.07835169117313, 0.04640205466964105, 0.06189437487515812, -0.0004988689667681783, 0.002430813456363296, -0.022273915345708727, 0.005044249583395575, -0.002319480228676535, -0.05742967686518094, 0.009163670788654309, 0.14268769701558867, 0.029512966507848296, -0.09502914331496708, -0.08500055842752822, 0.08520335231224171, 0.06111116157976062, 0.046412372985449646, 0.010870407841096868, -0.09976466104866821, 0.17648463435784525, -0.02917971118194464, 0.08522207686679648, 0.08437904941569853, 0.03949431344030581, 0.003632873612060337, 0.009795912407907201, 0.007757486111564978, -0.06026978790765767, -0.05324208987052875, 0.03599058522473359, -0.011484693269226449, 0.002723665657964196, 0.027742180667296543, -0.06259559025914381, -0.05233268318143655, -0.0036675053205010993, -0.00971874301279511, 0.05474554885580871, 0.05003315382638507, 0.09556334177871534, 0.09588010359872923, 0.19766036826110292, -0.000542236996915235, 0.07497654961405537, 0.09979217330446799, 0.013226532774164688, -0.0014110586801683322, -0.053515412746170686, 0.08451352329925686, 0.06131995593902355, 0.07868335047296474, -0.04570899507715156, -0.012562397708982148, -0.02109957089926808, 0.07812335324225876, -0.03713653585564599, 0.015087289314023715, 0.07434042458795215, -0.08350161718358323, 0.018865442263331957, -0.08871532285865466, 0.0009493363892764623, 0.005246032220242883, -0.00803467174604002, -0.056024179860190065, -0.058413721759320233, 0.04083448000355279, -0.040232348451522584, -0.04258522511398042, 0.010601597777118329, 0.11874489168657919, -0.15580301007030659, -0.027447646406254456, 0.026051747065280302, -0.041646885043055845, 0.11816716638066313, -0.04068188728149135, -0.08610619384116465, 0.04565068929481298, 0.015470525409409146, -0.02302018836188179, 0.0071331013444361656, -0.0869102530127961, -0.036523492893448146, -0.04856375631530091, -0.05793813289792293, 0.00030678874436563316, 0.022991371321959532, -0.10474207137017852, -0.001271179350005852, -0.14863608416477073, 0.04271652420590652, 0.043740364686384696, 0.0731356150519141, -0.05415996858489415, 0.04072349325198318, 0.08085271988377105, -0.06788860820149507, -0.014482610989752703, 0.005800716161490223, 0.008061047593166214, -0.013403163605605076, 0.06083071423378233, -0.020432614711860395, -0.02032989699227686, -0.041933040081330655, 0.005996403682947787, 0.0016200588892956453, 0.03366721742105826, -0.01646863473353188, 0.05401325990668441, 0.02288342258081981, -0.04450257289688031, 0.059081755673653875, 0.02758190994540085, 0.016675682648086002, -0.018670969683139634, 0.02987234978656938, 0.06892943247855582, 0.12559400762622866, -0.003693023785221328, 0.01161470075458739, 0.04252242938263219, -0.02423661775276792, -0.023463715873613056, -0.05205321183512121, -0.045649706855602545, 0.021483025464687666, 0.028813840421346954, 0.1029399929819981, 0.01882162033342213, -0.07792533008639571, -0.034713525713604546, -0.017371792424260107, -0.0327829442470535, -0.056076034165795624, 0.06718641912757649, 0.016313057500951654, 0.0058852204410030536, -0.009202571514032218, 0.025505470438837358, -0.012975485559128305, 0.039194329192383276, 0.009027782899749216, 0.10006085487426311, -0.06320342833541104, -0.09535327048664911, 0.009592320494725514, -0.0016493337951274457, -0.06683907150453751, 0.056984025562360915, 0.042668843538000115, 0.019919524836330797, 0.019732482029083655, -0.0019759428737493295, 0.16899399012688668, 0.010139192420861655, 0.045637800215860634, 0.09354074312646818, 0.008301982200658376, 0.07593871408333264, 0.03600336460404015, -0.057924322656937546, -0.05274872530933217, 0.029541205268003815, 0.12424499245141923, 0.08222328486329823, 0.1059475259195584, 0.08739738283863101, 0.023202254777216307, 0.003947749988197651, 0.085825124009239, 0.03480585103936403, 0.021091042284560935, 0.02897944016399626, -0.09999913629550926, -0.050376864440574085, 0.007124206736777526, 0.025256325631801864, 0.11579743238040652, -0.05670492348899073], [-0.06964278129882638, 0.025821464240694217, 0.09233085896524579, 0.05574099091719052, 0.010238956203520777, 0.015859369150719504, -0.005984416010325108, -0.06599521284399712, 0.017265876578004047, 0.02243512942460247, -0.04327268016459801, -0.03498234225254668, -0.05406489687279982, -0.00889109146740541, 0.11181055687351119, 0.11858631748655485, 0.1400065987105027, -0.14029538939382175, 0.0008351736224888051, 0.026873337506668482, -0.07373767800851251, -0.017649379698361403, 0.04091799799492465, -0.008496059737402056, -0.04896583859922169, -0.002383357219279375, -0.0011176546882257915, 0.05702447347932092, -0.08894203359854777, -0.053457144479154464, 0.04588464723114569, -0.04184146579591938, 0.10463482934373604, -0.03677730489674818, -0.01410727573769686, -0.03161135782531385, -0.027071673428030827, -0.00046486601746944774, 0.007233164981453739, 0.07006791045387982, 0.034501714694707954, 0.012310454458824142, 0.05123085266969878, 0.0093618905270743, 0.05649993572623536, -0.03700106245820659, 0.024649495353289422, -0.027641594117861497, -0.026328169045658212, 0.11157094443807733, 0.164370150227701, 0.010623962003924865, 0.03698807377235705, 0.015199189318356034, 0.07167076251605976, 0.016811389491593814, -0.005008525027990394, 0.010679666695372592, 0.10900646577288271, 0.00846407822249732, 0.10609337054591346, 0.10347229373171345, 0.015673182051394945, 0.0752151107292766, -0.027827883041049203, -0.036768132176227875, 0.0700966500525117, 0.08419148463116251, -0.036909272375245473, 0.011113643479049572, 0.019456337309835103, 0.06965473899894145, 0.038274336364801015, 0.05082787847014265, -0.04389105815576868, 0.08086173854900622, 0.06546186026087474, 0.10703989651913595, 0.050265571449403794, 0.045579266762186654, -0.0015018316235166928, 0.09682680588095124, -0.031291230762197614, -0.03951687085220503, 0.028962578831751285, -0.03449725056094549, 0.08434289508347097, 0.05235276421068972, -0.16855287202925331, -0.023295079911471707, 0.015837456295981156, 0.03887095924428263, -0.022272658516775696, -0.06667349397159296, 0.008176921888571505, -0.12294710650742566, -0.05639557238301397, -0.05801881605456237, 0.0006332608927221295, -0.016640527090381708, -0.02619712273437472, 0.0030114390453567343, -0.0009803193220143526, -0.07381073016651907, 0.0036965282011977817, -0.04486159595012658, -0.05469774006906454, -0.04187951308223568, -0.08290764193139843, 0.0031194824304595402, -0.06378210681784467, -0.07681782492923826, 0.022840300377262562, -0.025218003399176226, -0.017108063679980457, -0.037342873015981104, -0.07443491043577591, -0.08902457633007306, 0.0373594357588508, -0.08335170332630604, 0.11608865756619856, -0.012325540039943333, -0.12735281678926008, -0.02176397475533079, -0.05820622094445265, -0.030042079689983407, -0.0774254368434334, -0.041592572403447096, -0.1894023979561903, -0.08441267069003011, 0.06743056935807586, -0.018532882837789394, 0.05545010861186156, -0.0169774847412645, -0.02627848479874311, 0.012795552179675717, -0.04512709583558256, -0.12520985777124302, -0.023522835484568242, -0.02388200120383484, 0.035011614550820885, -0.02560114088314864, -0.10599796211852897, 0.029096514359833774, 0.045176439267827176, -0.04145690924659733, -0.02115606660614099, -0.062299645139584775, 0.01755304289626934, -0.04843735280504331, -0.09048716779623082, -0.1847220873965791, 0.1609084975955224, 0.12203570572368429, 0.055832339863779584, -0.06807381758437557, 0.13563740676089878, 0.049650928325110644, 0.0040540969458563525, 0.030799401601356847, -0.008449549592162767, -0.17123863496615194, -0.018956695590871455, 0.04429971580105762, 0.02129085002220054, -0.032685924951782734, -0.014077582353531045, -0.04967358456824866, -0.04522785203865394, -0.03164932231978316, 0.09529575467882526, 0.0870719978120235, -0.16647882230281774, -0.030977942621536247, -0.052451003205408256, 0.04772553630514402, -0.04810933217897555, 0.02931101742466709, -0.03855695936336867, -0.036173236312471, -0.02012601698246312, -0.011772849529266658, 0.01545399542365486, -0.006408510561607524, 0.00688049441514238, 0.027805307449245753, -0.018187541181208633, 0.02401136326609256, -0.02257513455175999, 0.010896589446179855, 0.06161920334161047, 0.12224697076088388, -0.03175662935998626, 0.04613506804916367, 0.043100616792634446, 0.02963664660702313, 0.016640073344733906, 0.06956857101660835, 0.00810744348009465, -0.031476827135447444, -0.0011494665942758, 0.048143136683498455, 0.04930545486077988, -0.0633209430339569, -0.001901896036982055, -0.07555966352473828, -0.06799876199378446, -0.009253222268653766, -0.006004219296021622, 0.004683164903122002, -0.004200601676274181, -0.01334265856263486, -0.11326422324955306, 0.09182274871129764, 0.09604207101881908, 0.017743930588955976, -0.014810209098184916, 0.06743826330920909, -0.05683745848021823, 0.02519610306796037, 0.044551178296875014, -0.08202408910405266, -0.10050543594753224, 0.0577362587608193, 0.08586804877058601, -0.005894360264805006, 0.11007643010696759, -0.006613547977359918, -0.004746427831625987, 0.047215310165593515, 0.04633136000137483, 0.03103935189496993, 0.25379647537244415, -0.05242698037348815, -0.018541020060031957, -0.007688552736324217, -0.05125773521765048, 0.0756220043726875, 0.06450319231682726, -0.07003813395772039], [0.007992818451900368, 0.022857861375534232, 0.011045663706064995, 0.07102264882789933, 0.03187190614029274, -0.06298105310080626, -0.056274266847427146, 0.14905702153564715, 0.08442712768295851, -0.040132094783884256, -0.12029311395778265, -0.05643612272989233, 0.005696990919959913, 0.009460523337546857, 0.11654429991922849, 0.0264413637653649, -0.03394270647125537, 0.01953358662380196, -0.09037696473860536, -0.045145897946544555, -0.07578331170112042, -0.06830365092314702, 0.03923936201148136, 0.0628658714436244, -0.13046982738477444, -0.01490475063961133, -0.1265331362854772, 0.0606282249341527, -0.0010868079307009143, 0.0010997419142184939, 0.09161232395418475, 0.04793874843814233, -0.06167487199815458, -0.0063281623734084795, 0.034168685238673044, -0.029804464383597688, -0.011823773898653911, -0.07045953121214245, -0.04668111395015093, -0.049026067543508633, 0.041630801706719234, -0.08950192411356828, 0.01396687734601055, 0.042760526917424165, 0.06247717683681922, 0.004705174026993405, 0.0460563339480452, -0.08605462751234758, -0.017048897732000454, 0.005475212191205593, 0.0004513254105368292, -0.018734773123970483, 0.039081842261147644, 0.08831544650149717, -0.14882038634651812, 0.051920123971021546, 0.03276191072007488, -0.08617858365898164, -0.08487769656049653, 0.007351933391600852, 0.04193208938916822, -0.02408054397402612, 0.013785348939151945, -0.04586562142171285, -0.005246472289999141, 0.004233181300291433, 0.02083327343981201, -0.012451966912231813, 0.005260091669001434, 0.048742512829434564, 0.060409027430782525, 0.07684550156812489, 0.07649834559667487, 0.09027504094511536, 0.13606903489080888, -0.07023503995371028, 0.061318932385943464, 0.06740491245248278, 0.0006632727748566453, -0.024254387387153326, -0.014918982558436163, -0.03752517349462842, 0.014401049731947555, 0.08246669558986812, -0.05281210689539239, 0.004997546482211818, 0.05452953153477706, 0.050194965057463264, 0.005568486183660515, 0.0064268694412154895, 0.030929721484407226, 0.045571902656227015, 0.05714027680904607, 0.0025407018518390084, 0.06278958465193071, -0.033089213098376, -0.01852110284155871, 0.01744207545232021, 0.1531837634892696, 0.1650887618704004, -0.15145795480259672, -0.010574306821565065, 0.1623826806402928, -0.017184315860629046, 0.047163363239785386, -0.035831385226579165, -0.016164592835620058, -0.06422729891766554, 0.07342999937783186, 0.047783253459073256, -0.006925514125308781, 0.0034241052239755328, 0.04466326899863094, -0.055928194676320084, 0.06885385708483593, -0.0008491251895939786, 0.03783398875309953, 0.009188097001288732, 0.022817612162549777, -0.10726665418357395, 0.027122388677382786, 0.0060631637804092215, -0.0449731457084078, 0.02191265125550062, 0.04100591286146323, 0.030961718639119284, -0.1105898653374282, 0.07573790141664112, -0.021584465395205858, 0.03419140630717618, -0.027180702007329326, 0.05819297779091769, 0.035923598442540575, 0.03751970446785351, 0.0725497931920921, 0.09158106597089691, 0.057000935432513146, 0.029680405670975726, 0.0064237362608767145, 0.04032862144731801, 0.008082472634837815, 0.0866371896931746, 0.041316983273047295, 0.0933752971787305, 0.09151852904201464, 0.023727893170692484, -0.03557061591094111, -0.012261969368437582, 0.049531615254872575, -0.02935573351413815, -0.036855780210456365, -0.037263985830163535, -0.1368566550893078, -0.06437369971132469, -0.10268086419294474, -0.03173136600834583, 0.061279806721285496, 0.04770652605462003, 0.021121542835524785, -0.030812658064570564, 0.038907961538774, -0.06415344942516157, 0.030247094579868294, -0.006445483863597711, 0.040270283636958344, 0.05328317157636741, -0.03280451127595721, -0.10840243667646021, 0.08121108148853676, 0.07639987052534922, 0.02947204067253706, -0.0029792693122355877, -0.10384327962802915, 0.0033128951402174867, -0.0022019705883481663, -0.03323438130823432, -0.05093782227970484, 0.0016543760540694147, -0.1157485607458861, 0.027457514237753663, -0.08257722102416258, -0.04827382693095788, -0.06760632058047857, 0.027720538581532842, -0.0379160154140956, 0.01892373913253985, -0.06913692762117979, -0.007043620982190886, -0.04834084762533612, -0.04910203440836149, -0.030824225930433047, -0.03462147724775436, -0.1170014510671427, 0.04161181653061373, -0.027825045063520074, 0.05851084476340734, -0.07209512755373187, 0.0025512940787050485, 0.007237225563960465, 0.006436081464131844, -0.05751771871892131, 0.013106676961787947, -0.0027940993749995327, -0.027695257099580227, -0.062371355879845325, -0.055826733047577806, -0.011763081958871812, 0.03401709069420736, -0.0031425244872119555, -0.04456527566924183, 0.05139771991839617, -0.05556460803643491, 0.07018431273475109, -0.33205845158171765, 0.006091172428340674, -0.03528396314163784, 0.034390975215232725, -0.08103271252650461, 0.01399631176235001, -0.04268524585976279, -0.004436202996030515, -0.09291863045241813, -0.08931074203318426, 0.024472193028492142, 0.005347903550786504, -0.08143861641261754, 0.05487643197592834, -0.03962195605837665, -0.060536515191811524, 0.07688926239756438, -0.15974886358140827, -0.04794106788646967, -0.2008534496825881, -0.11404423592472114, -0.0635825639408243, -0.03011804615072463, 0.03191988206238453, -0.042270342660563745, -0.0049501439137839415, -0.06353853139708879], [0.016464769546828666, 0.04879709446991052, -0.050505358848693026, -0.02333692416900523, 0.018488203686144275, 0.03735609682677235, 0.059912248167740385, -0.1021666871900469, 0.015862457545170475, -0.01505878130617153, 0.0659487643460143, 0.03036278513183862, 0.06372013704792108, 0.03011491495930979, -0.05095228440642912, -0.016837944115058928, -0.02895246263540357, -0.03422289670741932, 0.06910542211262322, -0.04562385801431053, 0.11222534765688263, -0.03890657457003116, 0.1354403230043692, -0.01309929111678082, 0.0893070330961307, -0.037042366705095864, 0.07209336232707309, 0.026692203708984404, 0.012429927785361228, -0.010781167646599726, 0.06206550304415191, 0.041601633986490576, 0.06252114698197436, -0.019182785947154037, 0.05405431227938656, 0.04249716183896655, -0.01664791626624445, -0.030850458668608888, 0.09983941273769233, 0.22613250451501465, 0.05345133413288817, -0.00435449971145941, 0.11484124465824336, -0.022374778283154942, -0.0008950907549598111, -0.009299814884526891, -0.009320774668653886, -0.16625806607514032, -0.012282300166500237, 0.16700138615210186, 0.12173724960422351, 0.11463581566290909, -0.02037912666245773, -0.10054372356423186, 0.045174345052980854, 0.04640643007343698, -0.01772967823263913, -0.020610802828106553, 0.029784749227433103, 0.04868900029551859, -0.028315097857409544, 0.024140891043769215, 0.008565035362943764, -0.03547933605959143, -0.015260072452460353, -0.00830496761731968, 0.002021673058198113, -0.07370182317854534, -0.002960034077271391, -0.04458260685859557, -0.037283296316157885, -0.09862702619319992, -0.12296474914391566, 0.04326718116918951, -0.10667958529422061, -0.006667171035580469, -0.023576426446528347, -0.07972715311093957, 0.02453756780812482, -0.050774110541876014, -0.01782721535435971, -0.0413877292113962, -0.01876849066336835, -0.08317454383630972, -0.059077535013491014, -0.008176900593148413, -0.06711896024569074, -0.06870896943871191, 0.051245140898263104, -0.0039237270861160346, -0.015849932537163075, -0.06863268169379821, -0.10919048158959584, -0.04550385515654171, -0.09922307051921722, -0.042173637797760524, -0.09512405895155127, -0.03498452753038864, 0.030106307811312433, -0.07439780389425367, -0.1221158403987134, 0.034911074351801866, -0.1609057858482006, -0.005634506096118576, -0.02242345699801148, -0.0760522724901973, 0.0073830740439039845, 0.03136299847858375, 0.014093455294791654, -0.039065258343418806, -0.0022544129023789345, 0.05868924401553493, -0.04709038570151181, 0.03820684969374245, -0.022402296527578497, -0.0351112986923091, -0.03520774104484436, -0.07547651354369289, -0.008014208813230384, -0.06674362023095766, 0.16095944603912474, -0.04938501784174346, -0.07727929645718674, 0.007243731178579807, 0.007825948965857338, -0.02571636028322017, -0.02634358248093424, -0.005722384370635318, 0.01554010614301627, 0.11826764268838445, -0.21187556536796742, 0.01057035476994874, -0.010579682789275863, 0.03160476391435575, -0.027296559599485543, 0.036638908119662354, -0.03844611042349221, 0.016667394529053227, -0.004359241212912568, 0.039224038866867456, 0.0640897138338688, -0.061336737254393946, 0.0012763199602045597, -0.09231612087401553, -0.004516596349289842, 0.018802081773153, 0.04008449182736103, -0.08849694587409553, -0.03897882950844083, 0.05627492395700563, -0.09323404432375407, 0.00871753281010772, -0.09838325613193787, 0.0964614682140737, -0.04143251464320454, 0.055812279269855596, 0.1064782988289843, 0.038855431725996176, 0.033392886870501376, 0.023422739744614517, 0.05163766548448691, -0.060714310830816826, 0.056250047339989034, -0.011171358687132314, 0.06203674396047281, 0.028375926831822943, 0.03233708017850544, 0.032115612936913666, 0.0530236694150894, 0.04175257580619941, 0.0008888822142046153, 0.07558931245322778, 0.05326169790366921, 0.025933216809820483, 0.04133444514682433, 0.01854277959524565, 0.05115416012523856, 0.04070559389100027, 0.0443052376371183, 0.05121606499582139, 0.08661357813955448, 0.016619694969553886, 0.14429651723235698, 0.050669382775079444, -0.07005325085655219, 0.002977687552307106, 0.005865722969130689, 0.07655474179140098, -0.0025633441569117045, 0.012266189523056914, -0.06288168238856952, -0.03195752551694096, 0.1666674854666017, 0.0577313648571809, 0.021871966666875062, 0.16775903905650594, 0.02136844166636811, 0.019586140792517418, 0.008817340165881073, 0.050765792645160214, 0.045779971696996546, 0.04257419985008367, 0.032303882390898, -0.07081744820082245, 0.020148489804381213, -0.05667456479978917, -0.0025678848195817847, 0.056954035214289433, 0.0132316648599283, 0.066645471071452, 0.06267810598088973, 0.019691101191097047, -0.04412026973957195, -0.25135998158407136, -0.013450462300077647, -0.04154052823709847, 0.012582295438739536, -0.05334953540818638, -0.016045746846286988, 0.04475287813905831, -0.034968285508484555, -0.011683417321769668, -0.06440366938798642, -0.019605754603653117, 0.06614160891554938, -0.007458761193948879, -0.03467923227482128, 0.003514938067425498, -0.03183969795569592, -0.02005839625483511, -0.14094501606419235, 0.08067786250798036, -0.10105862566167462, 0.01754531915081394, 0.0014428380695998622, 0.025528329417522946, 0.06985201097731611, -0.1437808629602399, -0.05008704216525828, 0.027455952732496992], [-0.015698367928124436, -0.16432246930318026, 0.03792029384018115, 0.03506777566646482, -0.06427291129724763, 0.04069355364170038, 0.000921904969705574, 0.002686335514516011, -0.06887038533887732, 0.08945337773169351, 0.10608082293738033, -0.04989228912485988, 0.10353394650551262, 0.04237962834600399, -0.0817741827094995, -0.04920999781410395, -0.013622241969048779, -0.17245996533037536, 0.08050372870597636, 0.05936078917080888, 0.036638342463100826, -0.02918664412046046, -0.01927697175814342, -0.006096761984207194, 0.044321602336353905, -0.06912381497630533, 0.05238222663042824, -0.20395166665505776, 0.002999261096320347, -0.045793385103372275, 0.014532917567551595, 0.10299140657915312, -0.20744858323970478, -0.03663946092716124, 0.045501684718764125, 0.11569125324864578, -0.008335562137486879, 0.016339945523589125, 0.0778181234327113, -0.025680790383011395, -0.03167462565043923, 0.039096176904359764, 0.05239108840868133, -0.09417634882146285, -0.038327139646086965, -0.01261653540412833, -0.10061591102990095, 0.08866175989567032, -0.017581858539554733, 0.007542962969089989, 0.037341024086393365, 0.018133985768248997, 0.027966354666383815, -0.1669887574911062, -0.006253732226369865, 0.0469936242375667, -0.11273314803156159, -0.03715017096732467, 0.017745021622883543, -0.038106197458564375, -0.008292444528946938, 0.06938077988145805, -0.006347359295013755, 0.009393437712983711, -0.015880580713163728, -0.015410232915246727, -0.010874050902574286, -0.038539665999765396, -0.010555318034694429, -0.028700414930120093, 0.027067977677486275, -0.04041815069118603, -0.023257279028347757, 0.014149463963731714, -0.0347059585964391, -0.0753117352334014, 0.025544545347340457, -0.00799535299953822, 0.04970883608531673, -0.08831448765060197, 0.12440477699501012, -0.030895427265664605, -0.010802960333765294, -0.03684594553670503, -0.06897604441108611, -0.013330991474061384, 0.07632965082849966, 0.12176860226012776, -0.02281969975581044, 0.001886236846633308, -0.006797366017322418, -0.04012033007766213, 0.026869160935996027, -0.09057328089655436, -0.0068794195843870365, -0.016744903348583893, -0.05453441665278712, -0.010507758771952154, -0.026683050366949998, 0.029415260978118876, -0.001733575765523812, 0.003738210595164868, -0.10693409099266785, 0.014023401298353172, -0.043403788102475804, -0.01523520158272917, 0.02842513142888397, -0.0614599538401303, -0.02504419984518813, -0.12135586299449996, -0.010803318852967415, 0.06399617930667012, -0.019161427035495872, -0.07257821181851148, -0.025778369347021338, 0.02831447262549644, 0.039613497336328636, -0.03979996984849606, -0.03898040309700401, -0.02093546193938007, 0.031234913427747493, 0.0764439063194196, 0.07933336913438391, 0.04526810174583702, -0.012087993215032702, 0.03362596649262028, 0.07838372500125078, -0.03038322123141475, 0.10403440730300416, 0.046521920477628625, 0.11433920518508907, -0.013930692307296719, 0.0079681869979953, -0.01912904010772567, -0.018623508406452348, 0.08809495880653788, 0.05293618638751414, 0.024939024187253526, -0.0047607915001406775, -0.01555904378424653, -0.01675828798305788, 0.09507357846390009, -0.003429131809666558, 0.10677832965409337, 0.11629480515403602, -0.02108416222553335, 0.04568626607541331, 0.013364041072308298, 0.014762774721606708, 0.020302404227980915, -0.06761394014060476, -0.04176734987621698, -0.21049834237775442, -0.12698491912668175, -0.1776268170376621, -0.06450542199216697, 0.045091861265701555, 0.039049087692233746, -0.11406243106101248, -0.065362755015648, -0.019987568181053624, -0.10144668141266762, -0.019055145824373405, 0.12187091409558146, -0.04264751749685499, 0.10754501350085835, -0.04189647309027668, -0.03007871940624629, 0.12318157579182858, 0.01102893470856453, 0.050901744991213464, -0.043951923582893605, -0.11110081404040936, -0.02427957823684105, -0.0038964203012224544, -0.012026809171423623, -0.04128341267132576, 0.004059150866886258, -0.059860614525692926, -0.03232984821268488, -0.05166200952393847, 0.0716481392476908, 0.05065013187658986, -0.042463445910067454, 0.05866313172289499, 0.048463295866209496, -0.010957877216557832, -0.07085469061037354, -0.03644452697824899, -0.012328500457657345, 0.14123186166320592, 0.12674892495224757, -0.055174708985116214, 0.05686674426865726, -0.048252829269289046, 0.030987726053758945, -0.05746948685162898, -0.02541914820553496, -0.044081957851398394, -0.03297063123340612, -0.03605994994055959, 